svm_type c_svc
kernel_type rbf
gamma 0
nr_class 2
total_sv 2612
rho 1
label 1 -1
probA -0.000246926
probB 1.04003
nr_sv 1306 1306
SV
10 0:10 1:0 2:-1 3:0 4:0 5:1 6:0 7:0 8:0 9:0 10:0 11:0 12:0 13:0 14:0 15:0 16:0 17:0 18:0 19:0 20:-1 21:0 22:-1 23:0 24:-1 25:0 26:0 
10 0:10 1:0 2:-1 3:0 4:0 5:1 6:0 7:0 8:0 9:0 10:0 11:0 12:0 13:1 14:0 15:0 16:0 17:-1 18:-1 19:0 20:-1 21:-1 22:-1 23:-1 24:-1 25:0 26:0 
10 0:10 1:1 2:-1 3:0 4:0 5:1 6:0 7:0 8:0 9:0 10:0 11:0 12:0 13:1 14:0 15:0 16:0 17:-1 18:-1 19:0 20:-1 21:-1 22:-1 23:-1 24:-1 25:0 26:0 
10 0:10 1:1 2:-1 3:0 4:0 5:1 6:0 7:0 8:0 9:0 10:0 11:0 12:0 13:1 14:1 15:0 16:0 17:-1 18:-1 19:0 20:-1 21:-1 22:-1 23:-1 24:-1 25:0 26:0 
10 0:10 1:1 2:-1 3:1 4:0 5:1 6:0 7:0 8:0 9:0 10:0 11:0 12:0 13:1 14:1 15:0 16:0 17:-1 18:-1 19:0 20:-1 21:-1 22:-1 23:-1 24:-1 25:0 26:0 
10 0:10 1:1 2:-1 3:1 4:0 5:1 6:0 7:1 8:-1 9:0 10:0 11:0 12:0 13:1 14:1 15:0 16:0 17:-1 18:-1 19:0 20:-1 21:-1 22:-1 23:-1 24:-1 25:0 26:0 
10 0:5 1:1 2:0 3:0 4:0 5:0 6:0 7:0 8:0 9:0 10:0 11:0 12:0 13:0 14:0 15:0 16:0 17:0 18:0 19:0 20:0 21:0 22:0 23:0 24:0 25:0 26:0 
10 0:7 1:-1 2:0 3:0 4:0 5:0 6:0 7:0 8:0 9:-1 10:-1 11:0 12:0 13:0 14:0 15:-1 16:0 17:0 18:1 19:0 20:0 21:0 22:0 23:-1 24:0 25:0 26:0 
10 0:7 1:-1 2:0 3:0 4:0 5:0 6:0 7:1 8:0 9:-1 10:-1 11:0 12:0 13:0 14:0 15:-1 16:0 17:0 18:1 19:0 20:0 21:0 22:0 23:-1 24:0 25:0 26:0 
10 0:8 1:0 2:0 3:1 4:0 5:0 6:0 7:0 8:0 9:0 10:0 11:0 12:0 13:-1 14:0 15:0 16:0 17:0 18:0 19:0 20:0 21:-1 22:0 23:0 24:0 25:0 26:0 
10 0:8 1:0 2:0 3:1 4:0 5:0 6:0 7:0 8:0 9:0 10:0 11:0 12:0 13:-1 14:0 15:0 16:0 17:0 18:0 19:0 20:1 21:-1 22:0 23:-1 24:0 25:0 26:0 
10 0:8 1:0 2:0 3:1 4:0 5:1 6:0 7:0 8:0 9:0 10:0 11:0 12:-1 13:-1 14:0 15:0 16:0 17:0 18:0 19:0 20:1 21:-1 22:0 23:-1 24:0 25:0 26:0 
10 0:15 1:1 2:0 3:0 4:0 5:0 6:0 7:0 8:0 9:0 10:0 11:0 12:0 13:0 14:0 15:0 16:0 17:-1 18:0 19:0 20:0 21:0 22:0 23:0 24:0 25:0 26:0 
10 0:15 1:1 2:0 3:0 4:0 5:1 6:0 7:0 8:0 9:0 10:0 11:0 12:0 13:0 14:0 15:0 16:0 17:-1 18:0 19:0 20:0 21:0 22:0 23:0 24:0 25:0 26:0 
10 0:15 1:1 2:0 3:0 4:0 5:1 6:0 7:0 8:0 9:0 10:-1 11:0 12:0 13:0 14:1 15:0 16:0 17:-1 18:0 19:0 20:0 21:0 22:0 23:0 24:0 25:0 26:0 
10 0:15 1:1 2:0 3:0 4:1 5:1 6:0 7:0 8:0 9:0 10:-1 11:0 12:0 13:0 14:1 15:0 16:0 17:-1 18:0 19:0 20:0 21:0 22:0 23:0 24:0 25:0 26:0 
10 0:15 1:1 2:0 3:-1 4:1 5:1 6:0 7:0 8:0 9:0 10:-1 11:0 12:0 13:0 14:1 15:0 16:0 17:-1 18:1 19:0 20:0 21:0 22:0 23:0 24:0 25:0 26:0 
10 0:15 1:1 2:0 3:-1 4:1 5:1 6:0 7:0 8:0 9:0 10:-1 11:0 12:0 13:0 14:1 15:0 16:1 17:-1 18:1 19:0 20:0 21:0 22:-1 23:0 24:-1 25:0 26:0 
10 0:15 1:1 2:0 3:-1 4:1 5:1 6:0 7:0 8:0 9:0 10:-1 11:0 12:0 13:0 14:1 15:0 16:1 17:-1 18:1 19:1 20:0 21:0 22:-1 23:0 24:-1 25:0 26:0 
10 0:15 1:1 2:0 3:-1 4:1 5:1 6:0 7:0 8:0 9:1 10:-1 11:0 12:0 13:0 14:1 15:0 16:1 17:-1 18:1 19:1 20:0 21:0 22:-1 23:0 24:-1 25:0 26:0 
10 0:15 1:1 2:-1 3:-1 4:1 5:1 6:0 7:0 8:0 9:1 10:-1 11:0 12:0 13:0 14:1 15:0 16:1 17:-1 18:1 19:1 20:1 21:0 22:-1 23:0 24:-1 25:-1 26:0 
10 0:10 1:0 2:0 3:0 4:0 5:0 6:0 7:1 8:0 9:0 10:0 11:0 12:0 13:0 14:0 15:0 16:0 17:0 18:0 19:0 20:0 21:0 22:0 23:0 24:0 25:0 26:0 
10 0:10 1:0 2:0 3:0 4:0 5:0 6:0 7:1 8:0 9:0 10:0 11:-1 12:0 13:0 14:0 15:1 16:0 17:0 18:0 19:0 20:0 21:0 22:0 23:0 24:0 25:0 26:0 
10 0:10 1:1 2:0 3:0 4:0 5:0 6:0 7:1 8:-1 9:0 10:0 11:-1 12:0 13:0 14:0 15:1 16:0 17:0 18:0 19:0 20:0 21:0 22:0 23:0 24:0 25:0 26:0 
10 0:11 1:0 2:0 3:0 4:0 5:1 6:0 7:0 8:0 9:0 10:0 11:0 12:0 13:0 14:0 15:0 16:0 17:-1 18:0 19:0 20:0 21:0 22:0 23:0 24:0 25:0 26:0 
10 0:11 1:0 2:0 3:0 4:0 5:1 6:0 7:0 8:0 9:0 10:0 11:0 12:0 13:0 14:0 15:0 16:0 17:-1 18:0 19:0 20:0 21:0 22:0 23:0 24:1 25:0 26:0 
10 0:11 1:1 2:0 3:0 4:0 5:1 6:0 7:0 8:0 9:0 10:0 11:0 12:0 13:0 14:0 15:0 16:0 17:-1 18:0 19:0 20:0 21:0 22:0 23:0 24:1 25:0 26:0 
10 0:11 1:1 2:0 3:0 4:0 5:1 6:0 7:0 8:0 9:0 10:0 11:0 12:0 13:0 14:0 15:0 16:1 17:-1 18:0 19:0 20:0 21:0 22:0 23:-1 24:1 25:0 26:0 
10 0:11 1:1 2:0 3:1 4:-1 5:1 6:0 7:0 8:-1 9:0 10:0 11:0 12:0 13:0 14:-1 15:0 16:1 17:-1 18:0 19:0 20:0 21:0 22:0 23:-1 24:1 25:0 26:-1 
10 0:11 1:1 2:0 3:1 4:-1 5:1 6:0 7:0 8:-1 9:0 10:0 11:0 12:1 13:-1 14:-1 15:0 16:1 17:-1 18:0 19:0 20:0 21:0 22:0 23:-1 24:1 25:0 26:-1 
10 0:11 1:1 2:0 3:1 4:-1 5:1 6:0 7:0 8:-1 9:-1 10:0 11:0 12:1 13:-1 14:-1 15:0 16:1 17:-1 18:1 19:0 20:0 21:0 22:0 23:-1 24:1 25:0 26:-1 
10 0:11 1:1 2:-1 3:1 4:-1 5:1 6:0 7:0 8:-1 9:-1 10:0 11:0 12:1 13:-1 14:-1 15:0 16:1 17:-1 18:1 19:0 20:0 21:0 22:0 23:-1 24:1 25:1 26:-1 
10 0:4 1:-1 2:-1 3:-1 4:0 5:0 6:0 7:-1 8:-1 9:0 10:0 11:0 12:0 13:0 14:0 15:0 16:-1 17:0 18:1 19:0 20:0 21:0 22:0 23:0 24:0 25:0 26:-1 
10 0:12 1:0 2:0 3:0 4:0 5:0 6:0 7:0 8:0 9:0 10:0 11:0 12:0 13:0 14:0 15:1 16:0 17:0 18:0 19:0 20:0 21:0 22:0 23:-1 24:0 25:0 26:0 
10 0:12 1:1 2:0 3:0 4:0 5:0 6:0 7:0 8:0 9:0 10:0 11:0 12:0 13:0 14:0 15:1 16:0 17:0 18:0 19:0 20:0 21:0 22:0 23:-1 24:0 25:0 26:0 
10 0:12 1:1 2:0 3:0 4:0 5:0 6:0 7:0 8:0 9:0 10:0 11:0 12:0 13:0 14:0 15:1 16:0 17:0 18:0 19:0 20:1 21:0 22:0 23:-1 24:0 25:0 26:0 
10 0:12 1:1 2:0 3:0 4:0 5:1 6:0 7:0 8:0 9:0 10:0 11:0 12:-1 13:0 14:0 15:1 16:0 17:0 18:0 19:0 20:1 21:0 22:0 23:-1 24:0 25:0 26:0 
10 0:12 1:1 2:0 3:0 4:0 5:1 6:0 7:-1 8:0 9:1 10:-1 11:0 12:-1 13:0 14:0 15:1 16:-1 17:0 18:0 19:0 20:1 21:0 22:0 23:-1 24:0 25:0 26:0 
10 0:12 1:1 2:0 3:0 4:-1 5:1 6:-1 7:-1 8:0 9:1 10:-1 11:-1 12:-1 13:0 14:1 15:1 16:-1 17:0 18:0 19:0 20:1 21:0 22:0 23:-1 24:0 25:-1 26:0 
10 0:12 1:1 2:0 3:1 4:-1 5:1 6:-1 7:-1 8:0 9:1 10:-1 11:-1 12:-1 13:0 14:1 15:1 16:-1 17:0 18:0 19:0 20:1 21:0 22:0 23:-1 24:0 25:-1 26:0 
10 0:6 1:0 2:0 3:0 4:0 5:0 6:0 7:0 8:0 9:-1 10:0 11:0 12:0 13:0 14:0 15:0 16:0 17:-1 18:1 19:0 20:0 21:0 22:0 23:-1 24:-1 25:0 26:0 
10 0:6 1:0 2:0 3:0 4:0 5:0 6:0 7:0 8:0 9:-1 10:0 11:-1 12:1 13:-1 14:0 15:0 16:0 17:-1 18:1 19:0 20:0 21:0 22:0 23:-1 24:-1 25:0 26:0 
10 0:6 1:0 2:0 3:0 4:0 5:0 6:0 7:0 8:0 9:-1 10:0 11:-1 12:1 13:-1 14:0 15:0 16:1 17:-1 18:1 19:0 20:0 21:0 22:0 23:-1 24:-1 25:0 26:0 
10 0:6 1:0 2:0 3:0 4:0 5:0 6:0 7:0 8:0 9:-1 10:0 11:-1 12:1 13:-1 14:0 15:-1 16:1 17:-1 18:1 19:-1 20:0 21:1 22:0 23:-1 24:-1 25:0 26:0 
10 0:6 1:0 2:0 3:0 4:0 5:1 6:-1 7:0 8:0 9:-1 10:0 11:-1 12:1 13:-1 14:0 15:-1 16:1 17:-1 18:1 19:-1 20:0 21:1 22:0 23:-1 24:-1 25:0 26:0 
10 0:5 1:0 2:0 3:0 4:1 5:0 6:0 7:0 8:0 9:0 10:0 11:0 12:0 13:0 14:0 15:0 16:0 17:0 18:0 19:0 20:0 21:0 22:0 23:0 24:0 25:0 26:0 
10 0:5 1:0 2:0 3:0 4:1 5:0 6:0 7:0 8:0 9:1 10:0 11:0 12:0 13:0 14:0 15:0 16:0 17:0 18:0 19:0 20:0 21:0 22:0 23:0 24:0 25:0 26:0 
10 0:9 1:0 2:0 3:0 4:0 5:0 6:0 7:1 8:0 9:0 10:-1 11:0 12:0 13:0 14:0 15:0 16:0 17:0 18:0 19:0 20:0 21:0 22:0 23:0 24:0 25:0 26:0 
10 0:9 1:0 2:0 3:0 4:0 5:0 6:0 7:1 8:0 9:0 10:-1 11:0 12:0 13:0 14:0 15:0 16:0 17:0 18:0 19:0 20:1 21:0 22:0 23:0 24:0 25:0 26:0 
10 0:9 1:0 2:0 3:-1 4:0 5:0 6:0 7:1 8:0 9:0 10:-1 11:0 12:0 13:0 14:1 15:0 16:0 17:0 18:0 19:0 20:1 21:0 22:0 23:0 24:0 25:0 26:-1 
10 0:9 1:0 2:0 3:-1 4:0 5:0 6:0 7:1 8:1 9:0 10:-1 11:0 12:0 13:0 14:1 15:0 16:0 17:0 18:0 19:0 20:1 21:0 22:0 23:0 24:0 25:0 26:-1 
10 0:9 1:-1 2:0 3:-1 4:0 5:1 6:0 7:1 8:1 9:0 10:-1 11:-1 12:0 13:0 14:1 15:0 16:0 17:0 18:0 19:-1 20:1 21:-1 22:0 23:0 24:0 25:0 26:-1 
10 0:9 1:-1 2:0 3:-1 4:0 5:1 6:0 7:1 8:1 9:0 10:-1 11:-1 12:0 13:0 14:1 15:0 16:0 17:0 18:0 19:-1 20:1 21:-1 22:-1 23:1 24:0 25:0 26:-1 
10 0:13 1:0 2:0 3:0 4:0 5:0 6:0 7:1 8:0 9:0 10:0 11:0 12:0 13:0 14:0 15:0 16:0 17:0 18:0 19:0 20:0 21:0 22:0 23:0 24:0 25:0 26:0 
10 0:13 1:-1 2:0 3:0 4:0 5:0 6:0 7:1 8:0 9:0 10:0 11:0 12:0 13:1 14:0 15:0 16:0 17:0 18:0 19:0 20:0 21:0 22:0 23:0 24:0 25:0 26:0 
10 0:13 1:-1 2:0 3:0 4:0 5:0 6:0 7:1 8:0 9:0 10:0 11:0 12:0 13:1 14:1 15:0 16:0 17:0 18:0 19:0 20:0 21:0 22:0 23:0 24:0 25:0 26:0 
10 0:13 1:-1 2:0 3:-1 4:0 5:0 6:1 7:1 8:0 9:0 10:0 11:0 12:0 13:1 14:1 15:0 16:0 17:-1 18:0 19:0 20:0 21:0 22:0 23:-1 24:0 25:-1 26:0 
10 0:13 1:-1 2:0 3:-1 4:0 5:0 6:1 7:1 8:-1 9:1 10:0 11:0 12:0 13:1 14:1 15:0 16:0 17:-1 18:0 19:0 20:0 21:0 22:0 23:-1 24:0 25:-1 26:0 
10 0:6 1:0 2:0 3:0 4:1 5:0 6:0 7:0 8:0 9:0 10:0 11:0 12:0 13:0 14:0 15:0 16:0 17:0 18:0 19:0 20:0 21:0 22:0 23:0 24:0 25:0 26:0 
10 0:6 1:-1 2:0 3:0 4:1 5:0 6:0 7:0 8:0 9:0 10:0 11:0 12:0 13:-1 14:0 15:0 16:0 17:0 18:0 19:1 20:0 21:0 22:0 23:0 24:0 25:0 26:0 
10 0:6 1:-1 2:0 3:0 4:1 5:1 6:-1 7:0 8:0 9:0 10:0 11:0 12:0 13:-1 14:-1 15:-1 16:0 17:0 18:0 19:1 20:0 21:0 22:0 23:0 24:-1 25:0 26:0 
10 0:6 1:-1 2:0 3:-1 4:1 5:1 6:-1 7:-1 8:0 9:0 10:0 11:0 12:0 13:-1 14:-1 15:-1 16:0 17:0 18:0 19:1 20:0 21:-1 22:0 23:1 24:-1 25:0 26:0 
10 0:7 1:0 2:0 3:0 4:0 5:0 6:0 7:0 8:0 9:0 10:0 11:0 12:0 13:0 14:0 15:0 16:0 17:0 18:0 19:1 20:0 21:0 22:0 23:0 24:0 25:0 26:0 
10 0:7 1:0 2:0 3:0 4:0 5:0 6:0 7:0 8:1 9:0 10:0 11:0 12:0 13:0 14:0 15:0 16:0 17:0 18:0 19:1 20:0 21:0 22:0 23:-1 24:0 25:0 26:0 
10 0:7 1:0 2:0 3:0 4:0 5:0 6:0 7:0 8:1 9:0 10:0 11:0 12:0 13:0 14:0 15:0 16:0 17:0 18:0 19:1 20:0 21:1 22:0 23:-1 24:0 25:0 26:0 
10 0:7 1:0 2:0 3:-1 4:0 5:1 6:0 7:0 8:1 9:0 10:0 11:0 12:0 13:0 14:0 15:0 16:0 17:0 18:0 19:1 20:0 21:1 22:0 23:-1 24:0 25:0 26:0 
10 0:7 1:0 2:0 3:-1 4:0 5:1 6:0 7:0 8:1 9:0 10:0 11:0 12:1 13:0 14:0 15:0 16:0 17:0 18:0 19:1 20:0 21:1 22:0 23:-1 24:0 25:0 26:0 
10 0:7 1:0 2:0 3:-1 4:0 5:1 6:0 7:0 8:1 9:0 10:0 11:0 12:1 13:0 14:-1 15:0 16:0 17:0 18:0 19:1 20:1 21:1 22:-1 23:-1 24:0 25:0 26:0 
10 0:8 1:0 2:0 3:0 4:0 5:0 6:0 7:0 8:1 9:0 10:0 11:0 12:0 13:0 14:0 15:0 16:0 17:0 18:0 19:0 20:0 21:0 22:0 23:0 24:0 25:0 26:0 
10 0:8 1:0 2:0 3:1 4:0 5:0 6:0 7:0 8:1 9:0 10:0 11:0 12:0 13:-1 14:0 15:0 16:-1 17:0 18:0 19:-1 20:0 21:0 22:0 23:0 24:-1 25:0 26:0 
10 0:8 1:0 2:1 3:1 4:0 5:0 6:0 7:0 8:1 9:0 10:0 11:-1 12:0 13:-1 14:0 15:0 16:-1 17:0 18:0 19:-1 20:0 21:0 22:0 23:0 24:-1 25:0 26:0 
10 0:8 1:0 2:1 3:1 4:0 5:0 6:0 7:0 8:1 9:0 10:0 11:-1 12:0 13:-1 14:0 15:0 16:-1 17:0 18:1 19:-1 20:0 21:0 22:0 23:0 24:-1 25:0 26:0 
10 0:16 1:0 2:0 3:-1 4:0 5:0 6:0 7:0 8:0 9:0 10:0 11:0 12:0 13:0 14:0 15:1 16:0 17:0 18:0 19:0 20:0 21:0 22:-1 23:0 24:0 25:0 26:0 
10 0:16 1:0 2:0 3:-1 4:0 5:0 6:0 7:0 8:0 9:1 10:0 11:0 12:0 13:-1 14:0 15:1 16:-1 17:0 18:0 19:0 20:0 21:0 22:-1 23:0 24:0 25:0 26:0 
10 0:16 1:0 2:0 3:-1 4:1 5:0 6:-1 7:0 8:0 9:1 10:-1 11:0 12:0 13:-1 14:-1 15:1 16:-1 17:0 18:0 19:-1 20:0 21:0 22:-1 23:0 24:-1 25:0 26:0 
10 0:16 1:0 2:0 3:-1 4:1 5:0 6:-1 7:1 8:0 9:1 10:-1 11:0 12:0 13:-1 14:-1 15:1 16:-1 17:0 18:0 19:-1 20:0 21:0 22:-1 23:0 24:-1 25:0 26:0 
10 0:16 1:0 2:0 3:-1 4:1 5:1 6:-1 7:1 8:0 9:1 10:-1 11:0 12:0 13:-1 14:-1 15:1 16:-1 17:0 18:0 19:-1 20:0 21:0 22:-1 23:0 24:-1 25:0 26:0 
10 0:10 1:0 2:0 3:0 4:0 5:0 6:0 7:0 8:0 9:0 10:0 11:0 12:-1 13:1 14:0 15:0 16:0 17:0 18:0 19:0 20:0 21:0 22:0 23:0 24:0 25:0 26:0 
10 0:10 1:0 2:-1 3:1 4:0 5:0 6:0 7:0 8:0 9:0 10:-1 11:0 12:-1 13:1 14:0 15:0 16:0 17:0 18:0 19:0 20:0 21:0 22:0 23:0 24:0 25:0 26:0 
10 0:10 1:0 2:-1 3:1 4:0 5:0 6:0 7:0 8:0 9:0 10:-1 11:0 12:-1 13:1 14:1 15:0 16:0 17:0 18:0 19:0 20:0 21:0 22:0 23:0 24:0 25:0 26:-1 
10 0:10 1:0 2:-1 3:1 4:0 5:0 6:0 7:0 8:0 9:0 10:-1 11:-1 12:-1 13:1 14:1 15:0 16:0 17:0 18:0 19:0 20:1 21:0 22:0 23:0 24:0 25:-1 26:-1 
10 0:10 1:0 2:-1 3:1 4:0 5:0 6:0 7:-1 8:0 9:0 10:-1 11:-1 12:-1 13:1 14:1 15:0 16:-1 17:0 18:0 19:1 20:1 21:0 22:0 23:0 24:0 25:-1 26:-1 
10 0:10 1:1 2:-1 3:1 4:0 5:0 6:0 7:-1 8:0 9:0 10:-1 11:-1 12:-1 13:1 14:1 15:0 16:-1 17:0 18:0 19:1 20:1 21:0 22:0 23:-1 24:0 25:-1 26:-1 
10 0:9 1:0 2:0 3:0 4:0 5:0 6:0 7:0 8:0 9:0 10:0 11:0 12:0 13:0 14:0 15:0 16:0 17:0 18:1 19:0 20:0 21:0 22:0 23:0 24:0 25:0 26:0 
10 0:9 1:0 2:0 3:0 4:0 5:0 6:0 7:1 8:0 9:0 10:0 11:0 12:0 13:0 14:0 15:0 16:0 17:0 18:1 19:0 20:0 21:0 22:0 23:0 24:0 25:0 26:0 
10 0:9 1:0 2:-1 3:0 4:0 5:0 6:0 7:1 8:0 9:0 10:-1 11:0 12:1 13:0 14:0 15:0 16:0 17:0 18:1 19:0 20:0 21:0 22:0 23:0 24:0 25:0 26:0 
10 0:9 1:0 2:-1 3:-1 4:-1 5:1 6:0 7:1 8:0 9:0 10:-1 11:0 12:1 13:0 14:0 15:0 16:0 17:-1 18:1 19:0 20:0 21:0 22:0 23:0 24:0 25:0 26:0 
10 0:9 1:0 2:-1 3:-1 4:-1 5:1 6:0 7:1 8:-1 9:0 10:-1 11:0 12:1 13:0 14:0 15:-1 16:0 17:-1 18:1 19:0 20:1 21:0 22:0 23:0 24:-1 25:0 26:-1 
10 0:9 1:1 2:-1 3:-1 4:-1 5:1 6:0 7:1 8:-1 9:0 10:-1 11:0 12:1 13:0 14:0 15:-1 16:0 17:-1 18:1 19:0 20:1 21:0 22:0 23:0 24:-1 25:0 26:-1 
10 0:9 1:1 2:-1 3:-1 4:-1 5:1 6:0 7:1 8:-1 9:1 10:-1 11:0 12:1 13:0 14:0 15:-1 16:0 17:-1 18:1 19:0 20:1 21:0 22:0 23:0 24:-1 25:0 26:-1 
10 0:10 1:0 2:0 3:0 4:0 5:1 6:0 7:0 8:0 9:0 10:0 11:0 12:0 13:0 14:0 15:0 16:0 17:0 18:0 19:0 20:0 21:0 22:-1 23:0 24:0 25:0 26:0 
10 0:10 1:0 2:0 3:0 4:0 5:1 6:-1 7:0 8:0 9:0 10:0 11:0 12:0 13:0 14:0 15:1 16:0 17:0 18:0 19:0 20:0 21:-1 22:-1 23:0 24:0 25:0 26:0 
10 0:10 1:0 2:0 3:-1 4:0 5:1 6:-1 7:0 8:0 9:0 10:0 11:0 12:0 13:0 14:0 15:1 16:-1 17:0 18:1 19:0 20:0 21:-1 22:-1 23:0 24:0 25:0 26:0 
10 0:10 1:0 2:0 3:-1 4:0 5:1 6:-1 7:0 8:0 9:1 10:0 11:0 12:-1 13:0 14:0 15:1 16:-1 17:0 18:1 19:-1 20:0 21:-1 22:-1 23:0 24:-1 25:0 26:0 
10 0:5 1:1 2:-1 3:0 4:0 5:0 6:0 7:0 8:0 9:-1 10:0 11:0 12:0 13:0 14:-1 15:-1 16:0 17:0 18:0 19:0 20:0 21:0 22:0 23:0 24:-1 25:0 26:0 
10 0:5 1:1 2:-1 3:0 4:0 5:0 6:-1 7:-1 8:0 9:-1 10:0 11:0 12:-1 13:0 14:-1 15:-1 16:1 17:0 18:-1 19:0 20:0 21:0 22:0 23:0 24:-1 25:0 26:0 
10 0:5 1:0 2:-1 3:-1 4:0 5:0 6:0 7:0 8:0 9:0 10:0 11:0 12:0 13:0 14:0 15:1 16:0 17:0 18:0 19:0 20:0 21:0 22:0 23:0 24:0 25:0 26:0 
10 0:5 1:0 2:-1 3:-1 4:0 5:0 6:0 7:0 8:0 9:0 10:0 11:-1 12:0 13:0 14:0 15:1 16:0 17:0 18:0 19:1 20:0 21:0 22:0 23:0 24:0 25:0 26:0 
10 0:5 1:-1 2:-1 3:-1 4:0 5:0 6:0 7:0 8:-1 9:0 10:0 11:-1 12:0 13:0 14:0 15:1 16:1 17:0 18:0 19:1 20:0 21:0 22:0 23:0 24:0 25:0 26:-1 
10 0:12 1:0 2:0 3:0 4:0 5:0 6:0 7:0 8:0 9:0 10:0 11:0 12:0 13:1 14:0 15:0 16:-1 17:0 18:0 19:0 20:0 21:0 22:0 23:0 24:0 25:0 26:0 
10 0:12 1:0 2:0 3:0 4:1 5:0 6:0 7:0 8:0 9:0 10:0 11:0 12:0 13:1 14:0 15:0 16:-1 17:-1 18:0 19:0 20:0 21:0 22:0 23:0 24:0 25:-1 26:-1 
10 0:12 1:0 2:0 3:0 4:1 5:0 6:0 7:0 8:-1 9:0 10:0 11:0 12:0 13:1 14:0 15:0 16:-1 17:-1 18:0 19:-1 20:1 21:-1 22:0 23:0 24:0 25:-1 26:-1 
10 0:12 1:0 2:0 3:0 4:1 5:0 6:0 7:0 8:-1 9:0 10:0 11:0 12:0 13:1 14:1 15:0 16:-1 17:-1 18:0 19:-1 20:1 21:-1 22:0 23:0 24:0 25:-1 26:-1 
10 0:12 1:1 2:0 3:0 4:1 5:0 6:0 7:0 8:-1 9:0 10:0 11:-1 12:0 13:1 14:1 15:0 16:-1 17:-1 18:0 19:-1 20:1 21:-1 22:0 23:0 24:0 25:-1 26:-1 
10 0:9 1:0 2:0 3:0 4:0 5:1 6:0 7:0 8:0 9:0 10:0 11:0 12:0 13:0 14:0 15:0 16:-1 17:0 18:0 19:0 20:0 21:0 22:0 23:0 24:0 25:0 26:0 
10 0:9 1:0 2:0 3:0 4:-1 5:1 6:0 7:0 8:0 9:1 10:0 11:0 12:0 13:0 14:0 15:0 16:-1 17:-1 18:0 19:0 20:0 21:0 22:0 23:0 24:-1 25:0 26:-1 
10 0:9 1:1 2:0 3:0 4:-1 5:1 6:0 7:0 8:0 9:1 10:-1 11:0 12:0 13:0 14:0 15:0 16:-1 17:-1 18:0 19:0 20:0 21:0 22:-1 23:0 24:-1 25:-1 26:-1 
10 0:9 1:1 2:0 3:0 4:-1 5:1 6:0 7:0 8:-1 9:1 10:-1 11:0 12:0 13:0 14:0 15:0 16:-1 17:-1 18:0 19:0 20:0 21:1 22:-1 23:0 24:-1 25:-1 26:-1 
10 0:9 1:1 2:0 3:0 4:-1 5:1 6:0 7:0 8:-1 9:1 10:-1 11:0 12:0 13:1 14:0 15:0 16:-1 17:-1 18:0 19:0 20:0 21:1 22:-1 23:0 24:-1 25:-1 26:-1 
10 0:6 1:0 2:0 3:-1 4:0 5:0 6:0 7:-1 8:0 9:0 10:0 11:-1 12:0 13:0 14:0 15:-1 16:0 17:-1 18:0 19:0 20:0 21:-1 22:0 23:0 24:1 25:0 26:0 
10 0:6 1:-1 2:-1 3:0 4:0 5:0 6:-1 7:0 8:0 9:-1 10:0 11:0 12:0 13:1 14:0 15:0 16:-1 17:0 18:0 19:0 20:0 21:0 22:0 23:-1 24:0 25:0 26:-1 
10 0:5 1:-1 2:0 3:0 4:0 5:0 6:0 7:-1 8:-1 9:-1 10:-1 11:0 12:1 13:0 14:0 15:-1 16:0 17:0 18:0 19:0 20:0 21:-1 22:0 23:0 24:0 25:0 26:0 
10 0:7 1:0 2:0 3:0 4:0 5:0 6:0 7:0 8:0 9:-1 10:0 11:0 12:1 13:0 14:0 15:0 16:0 17:0 18:0 19:0 20:0 21:0 22:-1 23:0 24:0 25:-1 26:-1 
10 0:7 1:0 2:0 3:0 4:0 5:0 6:0 7:-1 8:0 9:-1 10:0 11:-1 12:1 13:-1 14:0 15:0 16:0 17:0 18:1 19:0 20:0 21:0 22:-1 23:0 24:0 25:-1 26:-1 
10 0:9 1:0 2:0 3:0 4:0 5:1 6:0 7:0 8:0 9:0 10:0 11:0 12:-1 13:0 14:0 15:0 16:0 17:0 18:0 19:0 20:0 21:0 22:0 23:0 24:0 25:0 26:0 
10 0:9 1:0 2:0 3:0 4:0 5:1 6:-1 7:0 8:0 9:0 10:0 11:0 12:-1 13:0 14:0 15:0 16:0 17:0 18:0 19:0 20:0 21:0 22:-1 23:0 24:-1 25:0 26:1 
10 0:9 1:0 2:0 3:0 4:0 5:1 6:-1 7:0 8:0 9:0 10:0 11:0 12:-1 13:0 14:0 15:0 16:0 17:1 18:0 19:0 20:0 21:0 22:-1 23:0 24:-1 25:0 26:1 
10 0:9 1:0 2:0 3:0 4:1 5:1 6:-1 7:0 8:0 9:0 10:0 11:0 12:-1 13:0 14:0 15:0 16:0 17:1 18:-1 19:0 20:0 21:0 22:-1 23:-1 24:-1 25:0 26:1 
10 0:9 1:0 2:0 3:0 4:1 5:1 6:-1 7:0 8:0 9:0 10:0 11:-1 12:-1 13:0 14:1 15:-1 16:-1 17:1 18:-1 19:0 20:0 21:0 22:-1 23:-1 24:-1 25:0 26:1 
10 0:9 1:0 2:0 3:0 4:0 5:0 6:0 7:0 8:0 9:0 10:0 11:0 12:0 13:0 14:0 15:0 16:0 17:0 18:0 19:0 20:0 21:1 22:0 23:0 24:0 25:0 26:0 
10 0:9 1:1 2:0 3:0 4:0 5:0 6:0 7:0 8:0 9:0 10:0 11:0 12:0 13:0 14:0 15:0 16:0 17:0 18:0 19:-1 20:0 21:1 22:0 23:0 24:0 25:0 26:0 
10 0:9 1:1 2:0 3:0 4:0 5:0 6:0 7:0 8:0 9:0 10:0 11:-1 12:0 13:0 14:0 15:0 16:0 17:-1 18:1 19:-1 20:0 21:1 22:-1 23:0 24:0 25:0 26:0 
10 0:9 1:1 2:0 3:0 4:0 5:0 6:0 7:0 8:0 9:0 10:0 11:-1 12:-1 13:0 14:1 15:0 16:0 17:-1 18:1 19:-1 20:0 21:1 22:-1 23:0 24:0 25:0 26:0 
10 0:9 1:1 2:-1 3:1 4:0 5:0 6:0 7:0 8:0 9:-1 10:0 11:-1 12:-1 13:-1 14:1 15:0 16:0 17:-1 18:1 19:-1 20:0 21:1 22:-1 23:0 24:0 25:0 26:0 
10 0:13 1:0 2:0 3:0 4:0 5:0 6:0 7:0 8:0 9:0 10:0 11:0 12:1 13:0 14:0 15:0 16:0 17:0 18:0 19:-1 20:0 21:0 22:0 23:0 24:0 25:0 26:0 
10 0:13 1:0 2:0 3:0 4:-1 5:1 6:0 7:0 8:0 9:0 10:0 11:0 12:1 13:0 14:0 15:0 16:0 17:0 18:0 19:-1 20:0 21:0 22:0 23:-1 24:0 25:0 26:0 
10 0:13 1:-1 2:0 3:0 4:-1 5:1 6:0 7:0 8:-1 9:0 10:0 11:-1 12:1 13:0 14:0 15:0 16:0 17:0 18:0 19:-1 20:1 21:-1 22:-1 23:-1 24:-1 25:0 26:0 
10 0:8 1:0 2:-1 3:0 4:0 5:0 6:0 7:1 8:0 9:0 10:0 11:0 12:0 13:0 14:0 15:0 16:0 17:0 18:0 19:0 20:0 21:0 22:0 23:0 24:0 25:0 26:0 
10 0:8 1:0 2:-1 3:0 4:0 5:0 6:0 7:1 8:0 9:0 10:0 11:0 12:0 13:0 14:0 15:0 16:0 17:0 18:0 19:0 20:0 21:0 22:0 23:0 24:0 25:1 26:0 
10 0:8 1:1 2:-1 3:0 4:0 5:0 6:0 7:1 8:0 9:0 10:0 11:0 12:0 13:0 14:-1 15:0 16:0 17:0 18:0 19:0 20:0 21:0 22:0 23:0 24:0 25:1 26:0 
10 0:8 1:1 2:-1 3:0 4:0 5:0 6:-1 7:1 8:-1 9:0 10:0 11:-1 12:0 13:0 14:-1 15:0 16:0 17:0 18:0 19:0 20:0 21:-1 22:1 23:0 24:-1 25:1 26:0 
10 0:8 1:1 2:-1 3:0 4:0 5:0 6:-1 7:1 8:-1 9:0 10:0 11:-1 12:0 13:0 14:-1 15:0 16:0 17:0 18:0 19:1 20:0 21:-1 22:1 23:0 24:-1 25:1 26:0 
10 0:8 1:1 2:-1 3:0 4:0 5:1 6:-1 7:1 8:-1 9:0 10:0 11:-1 12:0 13:0 14:-1 15:0 16:0 17:0 18:0 19:1 20:0 21:-1 22:1 23:0 24:-1 25:1 26:0 
10 0:12 1:0 2:0 3:1 4:0 5:0 6:0 7:-1 8:0 9:0 10:0 11:0 12:0 13:0 14:0 15:0 16:0 17:0 18:0 19:0 20:0 21:0 22:0 23:0 24:0 25:0 26:0 
10 0:12 1:0 2:0 3:1 4:0 5:0 6:0 7:-1 8:0 9:1 10:-1 11:0 12:0 13:-1 14:0 15:0 16:-1 17:0 18:0 19:0 20:0 21:-1 22:0 23:0 24:-1 25:0 26:-1 
10 0:7 1:0 2:0 3:0 4:0 5:0 6:0 7:0 8:0 9:0 10:0 11:0 12:-1 13:0 14:0 15:1 16:0 17:0 18:0 19:0 20:0 21:0 22:0 23:0 24:0 25:0 26:0 
10 0:7 1:0 2:0 3:0 4:0 5:1 6:0 7:0 8:0 9:0 10:0 11:0 12:-1 13:0 14:0 15:1 16:0 17:0 18:0 19:0 20:0 21:0 22:0 23:0 24:0 25:0 26:0 
10 0:7 1:0 2:0 3:0 4:0 5:1 6:0 7:0 8:0 9:0 10:0 11:0 12:-1 13:-1 14:-1 15:1 16:0 17:0 18:0 19:0 20:0 21:1 22:0 23:0 24:0 25:0 26:0 
10 0:7 1:0 2:0 3:0 4:-1 5:1 6:0 7:0 8:0 9:0 10:-1 11:0 12:-1 13:-1 14:-1 15:1 16:1 17:0 18:0 19:-1 20:0 21:1 22:0 23:-1 24:0 25:0 26:0 
10 0:9 1:0 2:1 3:0 4:0 5:0 6:0 7:0 8:0 9:0 10:0 11:0 12:-1 13:-1 14:0 15:0 16:-1 17:0 18:0 19:-1 20:0 21:0 22:-1 23:0 24:0 25:0 26:0 
10 0:9 1:1 2:1 3:0 4:-1 5:0 6:-1 7:0 8:-1 9:0 10:0 11:0 12:-1 13:-1 14:0 15:0 16:-1 17:0 18:0 19:-1 20:0 21:0 22:-1 23:0 24:0 25:0 26:0 
10 0:9 1:1 2:1 3:0 4:-1 5:0 6:-1 7:0 8:-1 9:0 10:0 11:0 12:-1 13:-1 14:0 15:0 16:-1 17:0 18:1 19:-1 20:0 21:0 22:-1 23:0 24:0 25:0 26:0 
10 0:14 1:0 2:0 3:0 4:0 5:1 6:0 7:0 8:0 9:0 10:0 11:0 12:0 13:0 14:0 15:0 16:0 17:0 18:0 19:0 20:0 21:0 22:0 23:0 24:0 25:0 26:0 
10 0:14 1:0 2:0 3:0 4:0 5:1 6:0 7:0 8:0 9:1 10:-1 11:0 12:0 13:0 14:0 15:0 16:0 17:0 18:0 19:-1 20:0 21:0 22:0 23:0 24:0 25:0 26:0 
10 0:14 1:0 2:0 3:1 4:0 5:1 6:0 7:0 8:0 9:1 10:-1 11:0 12:0 13:0 14:0 15:0 16:0 17:0 18:0 19:-1 20:0 21:0 22:0 23:0 24:0 25:0 26:0 
10 0:14 1:0 2:0 3:1 4:0 5:1 6:0 7:0 8:0 9:1 10:-1 11:0 12:0 13:0 14:0 15:0 16:0 17:0 18:0 19:-1 20:1 21:0 22:0 23:0 24:0 25:0 26:0 
10 0:14 1:1 2:0 3:1 4:0 5:1 6:0 7:0 8:0 9:1 10:-1 11:0 12:0 13:0 14:0 15:0 16:0 17:0 18:0 19:-1 20:1 21:0 22:0 23:0 24:0 25:-1 26:0 
10 0:14 1:1 2:0 3:1 4:0 5:1 6:0 7:0 8:0 9:1 10:-1 11:0 12:0 13:0 14:0 15:0 16:0 17:0 18:1 19:-1 20:1 21:0 22:0 23:0 24:0 25:-1 26:0 
10 0:14 1:1 2:1 3:1 4:-1 5:1 6:0 7:0 8:0 9:1 10:-1 11:0 12:-1 13:0 14:0 15:0 16:-1 17:0 18:1 19:-1 20:1 21:0 22:-1 23:0 24:0 25:-1 26:0 
10 0:14 1:1 2:1 3:1 4:-1 5:1 6:0 7:0 8:0 9:1 10:-1 11:1 12:-1 13:0 14:0 15:0 16:-1 17:0 18:1 19:-1 20:1 21:0 22:-1 23:0 24:0 25:-1 26:0 
10 0:14 1:1 2:1 3:1 4:-1 5:1 6:0 7:1 8:0 9:1 10:-1 11:1 12:-1 13:0 14:0 15:0 16:-1 17:0 18:1 19:-1 20:1 21:0 22:-1 23:0 24:-1 25:-1 26:0 
10 0:9 1:0 2:0 3:0 4:0 5:0 6:0 7:0 8:0 9:0 10:0 11:0 12:0 13:0 14:0 15:1 16:0 17:0 18:0 19:0 20:0 21:0 22:0 23:0 24:0 25:0 26:0 
10 0:9 1:0 2:0 3:0 4:0 5:0 6:0 7:0 8:0 9:0 10:0 11:-1 12:1 13:0 14:0 15:1 16:0 17:0 18:-1 19:0 20:0 21:0 22:0 23:0 24:0 25:0 26:0 
10 0:9 1:0 2:1 3:0 4:0 5:0 6:0 7:0 8:0 9:0 10:0 11:-1 12:1 13:0 14:0 15:1 16:0 17:0 18:-1 19:0 20:0 21:0 22:0 23:-1 24:0 25:0 26:0 
10 0:9 1:0 2:1 3:-1 4:1 5:0 6:0 7:-1 8:0 9:0 10:0 11:-1 12:1 13:0 14:0 15:1 16:0 17:0 18:-1 19:0 20:0 21:0 22:0 23:-1 24:0 25:0 26:0 
10 0:9 1:0 2:1 3:-1 4:1 5:1 6:0 7:-1 8:0 9:0 10:0 11:-1 12:1 13:0 14:-1 15:1 16:-1 17:0 18:-1 19:0 20:-1 21:0 22:0 23:-1 24:0 25:-1 26:0 
10 0:13 1:0 2:0 3:0 4:0 5:0 6:0 7:0 8:0 9:-1 10:0 11:0 12:0 13:0 14:0 15:0 16:-1 17:-1 18:1 19:0 20:0 21:0 22:0 23:0 24:0 25:-1 26:0 
10 0:13 1:1 2:0 3:0 4:0 5:0 6:0 7:0 8:0 9:-1 10:0 11:0 12:0 13:-1 14:0 15:0 16:-1 17:-1 18:1 19:0 20:0 21:0 22:0 23:0 24:0 25:-1 26:0 
10 0:13 1:1 2:0 3:0 4:0 5:0 6:0 7:0 8:1 9:-1 10:0 11:0 12:0 13:-1 14:0 15:0 16:-1 17:-1 18:1 19:0 20:0 21:0 22:0 23:0 24:0 25:-1 26:0 
10 0:13 1:1 2:0 3:0 4:0 5:0 6:0 7:0 8:1 9:-1 10:0 11:0 12:0 13:-1 14:0 15:0 16:-1 17:-1 18:1 19:1 20:0 21:0 22:0 23:0 24:0 25:-1 26:-1 
10 0:13 1:1 2:0 3:1 4:0 5:0 6:0 7:0 8:1 9:-1 10:-1 11:0 12:0 13:-1 14:0 15:0 16:-1 17:-1 18:1 19:1 20:0 21:0 22:0 23:0 24:0 25:-1 26:-1 
10 0:13 1:1 2:0 3:1 4:0 5:0 6:0 7:-1 8:1 9:-1 10:-1 11:0 12:1 13:-1 14:0 15:0 16:-1 17:-1 18:1 19:1 20:0 21:0 22:0 23:0 24:0 25:-1 26:-1 
10 0:13 1:1 2:0 3:1 4:0 5:0 6:0 7:-1 8:1 9:-1 10:-1 11:0 12:1 13:-1 14:0 15:0 16:-1 17:-1 18:1 19:1 20:0 21:1 22:0 23:0 24:0 25:-1 26:-1 
10 0:13 1:1 2:0 3:1 4:0 5:0 6:0 7:-1 8:1 9:-1 10:-1 11:0 12:1 13:-1 14:1 15:0 16:-1 17:-1 18:1 19:1 20:0 21:1 22:0 23:0 24:0 25:-1 26:-1 
10 0:5 1:0 2:0 3:0 4:0 5:0 6:0 7:0 8:0 9:0 10:0 11:0 12:1 13:0 14:0 15:0 16:0 17:0 18:0 19:0 20:0 21:0 22:-1 23:0 24:0 25:0 26:0 
10 0:5 1:0 2:0 3:0 4:1 5:0 6:0 7:0 8:0 9:0 10:0 11:-1 12:1 13:0 14:0 15:0 16:-1 17:0 18:0 19:0 20:0 21:0 22:-1 23:0 24:0 25:0 26:0 
10 0:5 1:0 2:0 3:-1 4:1 5:0 6:-1 7:0 8:0 9:1 10:0 11:-1 12:1 13:-1 14:0 15:0 16:-1 17:0 18:0 19:0 20:0 21:0 22:-1 23:-1 24:0 25:0 26:0 
10 0:6 1:0 2:0 3:0 4:0 5:0 6:0 7:0 8:0 9:0 10:0 11:0 12:0 13:0 14:0 15:0 16:0 17:0 18:0 19:0 20:0 21:0 22:1 23:0 24:0 25:0 26:0 
10 0:6 1:0 2:0 3:0 4:0 5:0 6:0 7:0 8:0 9:0 10:0 11:0 12:0 13:0 14:0 15:0 16:0 17:0 18:0 19:1 20:0 21:0 22:1 23:0 24:0 25:0 26:0 
10 0:6 1:0 2:0 3:0 4:0 5:1 6:0 7:0 8:0 9:0 10:0 11:0 12:0 13:0 14:0 15:0 16:0 17:0 18:0 19:1 20:0 21:0 22:1 23:0 24:0 25:0 26:0 
10 0:6 1:0 2:-1 3:-1 4:1 5:1 6:0 7:0 8:0 9:0 10:0 11:-1 12:-1 13:-1 14:-1 15:0 16:0 17:-1 18:0 19:1 20:0 21:0 22:1 23:-1 24:0 25:-1 26:0 
10 0:6 1:0 2:-1 3:-1 4:1 5:1 6:0 7:0 8:0 9:0 10:0 11:-1 12:-1 13:-1 14:-1 15:0 16:0 17:-1 18:0 19:1 20:1 21:0 22:1 23:-1 24:0 25:-1 26:0 
10 0:6 1:0 2:0 3:0 4:0 5:0 6:0 7:-1 8:0 9:0 10:0 11:-1 12:-1 13:0 14:0 15:0 16:1 17:0 18:0 19:0 20:0 21:0 22:0 23:0 24:0 25:0 26:0 
10 0:6 1:0 2:0 3:1 4:-1 5:0 6:0 7:0 8:0 9:0 10:0 11:0 12:0 13:0 14:0 15:0 16:0 17:0 18:-1 19:-1 20:0 21:0 22:0 23:0 24:0 25:0 26:-1 
10 0:6 1:0 2:0 3:1 4:-1 5:0 6:0 7:0 8:-1 9:0 10:0 11:0 12:0 13:0 14:1 15:0 16:0 17:0 18:-1 19:-1 20:0 21:0 22:0 23:0 24:0 25:0 26:-1 
10 0:6 1:0 2:0 3:1 4:-1 5:0 6:0 7:0 8:-1 9:1 10:0 11:0 12:0 13:0 14:1 15:0 16:0 17:0 18:-1 19:-1 20:0 21:0 22:0 23:0 24:0 25:0 26:-1 
10 0:6 1:0 2:0 3:1 4:-1 5:0 6:0 7:-1 8:-1 9:1 10:-1 11:0 12:0 13:1 14:1 15:0 16:0 17:0 18:-1 19:-1 20:0 21:0 22:0 23:0 24:0 25:-1 26:-1 
10 0:13 1:0 2:0 3:0 4:0 5:0 6:0 7:0 8:0 9:0 10:0 11:0 12:0 13:0 14:0 15:0 16:0 17:0 18:0 19:1 20:0 21:0 22:0 23:0 24:0 25:0 26:0 
10 0:13 1:0 2:0 3:0 4:-1 5:0 6:0 7:-1 8:0 9:1 10:0 11:0 12:0 13:0 14:0 15:0 16:0 17:0 18:0 19:1 20:0 21:0 22:0 23:0 24:0 25:0 26:0 
10 0:13 1:0 2:0 3:0 4:-1 5:0 6:0 7:-1 8:0 9:1 10:0 11:0 12:0 13:0 14:0 15:0 16:0 17:0 18:0 19:1 20:1 21:0 22:0 23:0 24:0 25:0 26:0 
10 0:13 1:0 2:0 3:0 4:-1 5:1 6:0 7:-1 8:0 9:1 10:0 11:0 12:0 13:0 14:0 15:0 16:0 17:0 18:0 19:1 20:1 21:0 22:0 23:0 24:0 25:0 26:0 
10 0:13 1:0 2:-1 3:0 4:-1 5:1 6:-1 7:-1 8:0 9:1 10:0 11:-1 12:0 13:0 14:0 15:0 16:1 17:0 18:0 19:1 20:1 21:0 22:-1 23:0 24:0 25:0 26:0 
10 0:11 1:0 2:0 3:0 4:0 5:0 6:0 7:0 8:0 9:0 10:0 11:0 12:0 13:0 14:0 15:0 16:0 17:0 18:0 19:1 20:0 21:0 22:0 23:0 24:0 25:0 26:0 
10 0:11 1:0 2:0 3:-1 4:0 5:-1 6:0 7:0 8:0 9:0 10:0 11:0 12:0 13:0 14:0 15:0 16:0 17:0 18:0 19:1 20:0 21:0 22:0 23:0 24:1 25:0 26:0 
10 0:11 1:0 2:-1 3:-1 4:0 5:-1 6:0 7:-1 8:0 9:0 10:-1 11:-1 12:0 13:0 14:0 15:0 16:1 17:0 18:0 19:1 20:0 21:-1 22:0 23:-1 24:1 25:-1 26:0 
10 0:10 1:0 2:0 3:-1 4:0 5:0 6:0 7:0 8:-1 9:0 10:0 11:0 12:0 13:0 14:0 15:0 16:-1 17:0 18:0 19:0 20:0 21:0 22:0 23:1 24:0 25:0 26:0 
10 0:10 1:-1 2:-1 3:-1 4:0 5:0 6:-1 7:-1 8:-1 9:0 10:0 11:0 12:0 13:0 14:0 15:0 16:-1 17:0 18:1 19:0 20:0 21:-1 22:0 23:1 24:-1 25:0 26:0 
10 0:5 1:0 2:0 3:0 4:0 5:0 6:0 7:0 8:0 9:0 10:0 11:0 12:0 13:0 14:1 15:0 16:0 17:0 18:0 19:0 20:0 21:0 22:0 23:0 24:0 25:0 26:0 
10 0:11 1:0 2:0 3:0 4:0 5:0 6:0 7:0 8:0 9:0 10:0 11:0 12:0 13:0 14:0 15:-1 16:0 17:0 18:0 19:0 20:1 21:0 22:0 23:0 24:0 25:0 26:0 
10 0:11 1:0 2:0 3:1 4:0 5:0 6:0 7:0 8:0 9:0 10:0 11:-1 12:0 13:0 14:0 15:-1 16:0 17:0 18:0 19:0 20:1 21:0 22:0 23:0 24:0 25:0 26:0 
10 0:11 1:0 2:0 3:1 4:0 5:0 6:0 7:0 8:-1 9:0 10:0 11:-1 12:1 13:-1 14:0 15:-1 16:0 17:0 18:0 19:0 20:1 21:0 22:0 23:-1 24:0 25:0 26:0 
10 0:11 1:0 2:0 3:1 4:-1 5:0 6:0 7:0 8:-1 9:-1 10:0 11:-1 12:1 13:-1 14:0 15:-1 16:0 17:0 18:0 19:-1 20:1 21:1 22:0 23:-1 24:-1 25:0 26:0 
10 0:9 1:0 2:0 3:0 4:0 5:0 6:0 7:0 8:0 9:0 10:-1 11:0 12:1 13:0 14:0 15:0 16:0 17:0 18:0 19:0 20:-1 21:0 22:0 23:0 24:0 25:0 26:-1 
10 0:9 1:0 2:0 3:0 4:0 5:0 6:0 7:1 8:0 9:0 10:-1 11:-1 12:1 13:0 14:0 15:0 16:0 17:0 18:0 19:0 20:-1 21:0 22:0 23:0 24:0 25:0 26:-1 
10 0:9 1:0 2:0 3:0 4:0 5:1 6:0 7:1 8:0 9:0 10:-1 11:-1 12:1 13:0 14:0 15:0 16:0 17:0 18:0 19:0 20:-1 21:0 22:0 23:0 24:0 25:0 26:-1 
10 0:12 1:0 2:0 3:0 4:0 5:1 6:0 7:0 8:0 9:0 10:0 11:0 12:0 13:0 14:0 15:0 16:0 17:0 18:0 19:0 20:0 21:0 22:0 23:0 24:0 25:0 26:0 
10 0:12 1:0 2:0 3:1 4:0 5:1 6:0 7:0 8:0 9:0 10:0 11:0 12:0 13:0 14:0 15:0 16:0 17:0 18:0 19:0 20:0 21:0 22:0 23:0 24:0 25:0 26:0 
10 0:12 1:0 2:0 3:1 4:1 5:1 6:0 7:0 8:0 9:0 10:0 11:0 12:0 13:0 14:0 15:0 16:0 17:0 18:0 19:-1 20:0 21:0 22:0 23:0 24:-1 25:0 26:0 
10 0:12 1:0 2:0 3:1 4:1 5:1 6:0 7:-1 8:0 9:-1 10:0 11:0 12:0 13:0 14:1 15:0 16:-1 17:0 18:0 19:-1 20:0 21:0 22:0 23:0 24:-1 25:0 26:0 
10 0:12 1:1 2:0 3:1 4:1 5:1 6:0 7:-1 8:0 9:-1 10:0 11:0 12:0 13:0 14:1 15:0 16:-1 17:0 18:0 19:-1 20:0 21:0 22:0 23:0 24:-1 25:-1 26:0 
10 0:12 1:1 2:0 3:1 4:1 5:1 6:0 7:-1 8:0 9:-1 10:0 11:-1 12:0 13:1 14:1 15:0 16:-1 17:-1 18:0 19:-1 20:0 21:0 22:0 23:0 24:-1 25:-1 26:0 
10 0:8 1:0 2:0 3:0 4:0 5:0 6:-1 7:0 8:0 9:0 10:0 11:0 12:0 13:0 14:0 15:0 16:-1 17:0 18:0 19:0 20:1 21:0 22:0 23:0 24:0 25:0 26:0 
10 0:8 1:1 2:0 3:0 4:0 5:0 6:-1 7:-1 8:0 9:0 10:0 11:0 12:0 13:0 14:0 15:0 16:-1 17:0 18:0 19:0 20:1 21:0 22:0 23:0 24:0 25:0 26:0 
10 0:8 1:1 2:0 3:0 4:0 5:0 6:-1 7:-1 8:0 9:0 10:0 11:0 12:0 13:0 14:0 15:0 16:-1 17:0 18:0 19:0 20:1 21:0 22:1 23:0 24:0 25:0 26:0 
10 0:15 1:0 2:0 3:0 4:0 5:0 6:0 7:0 8:0 9:0 10:0 11:0 12:0 13:0 14:0 15:0 16:0 17:0 18:0 19:0 20:0 21:1 22:-1 23:0 24:0 25:0 26:0 
10 0:15 1:0 2:0 3:0 4:0 5:1 6:0 7:0 8:0 9:0 10:0 11:0 12:0 13:0 14:0 15:0 16:0 17:0 18:0 19:0 20:0 21:1 22:-1 23:0 24:0 25:0 26:0 
10 0:15 1:0 2:0 3:0 4:0 5:1 6:0 7:0 8:0 9:0 10:0 11:0 12:0 13:0 14:-1 15:0 16:0 17:0 18:0 19:0 20:1 21:1 22:-1 23:0 24:0 25:0 26:0 
10 0:15 1:0 2:-1 3:0 4:0 5:1 6:0 7:1 8:0 9:0 10:0 11:0 12:0 13:0 14:-1 15:0 16:0 17:0 18:0 19:0 20:1 21:1 22:-1 23:0 24:0 25:0 26:0 
10 0:15 1:0 2:-1 3:0 4:0 5:1 6:0 7:1 8:0 9:0 10:0 11:0 12:0 13:0 14:-1 15:0 16:0 17:0 18:1 19:0 20:1 21:1 22:-1 23:0 24:0 25:0 26:0 
10 0:15 1:0 2:-1 3:0 4:0 5:1 6:0 7:1 8:0 9:0 10:0 11:0 12:1 13:0 14:-1 15:0 16:0 17:0 18:1 19:0 20:1 21:1 22:-1 23:0 24:0 25:0 26:0 
10 0:15 1:0 2:-1 3:0 4:0 5:1 6:0 7:1 8:1 9:0 10:0 11:0 12:1 13:0 14:-1 15:0 16:0 17:0 18:1 19:0 20:1 21:1 22:-1 23:0 24:0 25:0 26:0 
10 0:15 1:0 2:-1 3:0 4:0 5:1 6:0 7:1 8:1 9:0 10:0 11:-1 12:1 13:0 14:-1 15:0 16:0 17:0 18:1 19:1 20:1 21:1 22:-1 23:-1 24:0 25:0 26:-1 
10 0:15 1:1 2:-1 3:-1 4:0 5:1 6:0 7:1 8:1 9:0 10:0 11:-1 12:1 13:0 14:-1 15:0 16:0 17:0 18:1 19:1 20:1 21:1 22:-1 23:-1 24:0 25:0 26:-1 
10 0:15 1:1 2:-1 3:-1 4:0 5:1 6:0 7:1 8:1 9:0 10:0 11:-1 12:1 13:0 14:-1 15:1 16:0 17:0 18:1 19:1 20:1 21:1 22:-1 23:-1 24:0 25:0 26:-1 
10 0:7 1:0 2:-1 3:0 4:0 5:0 6:0 7:0 8:0 9:0 10:0 11:0 12:0 13:0 14:0 15:0 16:-1 17:0 18:0 19:1 20:0 21:0 22:0 23:0 24:0 25:0 26:0 
10 0:7 1:0 2:-1 3:0 4:0 5:0 6:0 7:0 8:0 9:0 10:0 11:0 12:0 13:0 14:1 15:0 16:-1 17:0 18:0 19:1 20:0 21:0 22:-1 23:-1 24:0 25:0 26:0 
10 0:7 1:0 2:-1 3:0 4:0 5:0 6:0 7:0 8:0 9:0 10:0 11:0 12:0 13:0 14:1 15:1 16:-1 17:0 18:0 19:1 20:0 21:0 22:-1 23:-1 24:0 25:0 26:0 
10 0:7 1:-1 2:-1 3:0 4:0 5:0 6:-1 7:0 8:0 9:0 10:0 11:0 12:0 13:-1 14:1 15:1 16:-1 17:-1 18:-1 19:1 20:1 21:0 22:-1 23:-1 24:0 25:0 26:0 
10 0:6 1:0 2:0 3:-1 4:0 5:0 6:0 7:0 8:-1 9:0 10:0 11:0 12:0 13:0 14:0 15:-1 16:0 17:0 18:1 19:0 20:0 21:0 22:0 23:0 24:0 25:0 26:0 
10 0:6 1:0 2:0 3:-1 4:0 5:0 6:0 7:-1 8:-1 9:0 10:-1 11:0 12:0 13:0 14:0 15:-1 16:0 17:0 18:1 19:0 20:1 21:0 22:0 23:0 24:0 25:0 26:0 
10 0:10 1:1 2:0 3:0 4:0 5:-1 6:0 7:0 8:-1 9:0 10:0 11:-1 12:0 13:0 14:0 15:0 16:-1 17:0 18:0 19:0 20:0 21:-1 22:0 23:-1 24:0 25:0 26:0 
10 0:9 1:0 2:-1 3:0 4:0 5:0 6:0 7:0 8:1 9:0 10:0 11:0 12:0 13:0 14:0 15:0 16:0 17:0 18:0 19:-1 20:0 21:0 22:-1 23:-1 24:-1 25:0 26:0 
10 0:9 1:0 2:-1 3:0 4:0 5:0 6:0 7:0 8:1 9:-1 10:0 11:0 12:0 13:0 14:0 15:1 16:0 17:0 18:0 19:-1 20:0 21:0 22:-1 23:-1 24:-1 25:-1 26:0 
10 0:9 1:0 2:-1 3:0 4:0 5:1 6:-1 7:0 8:1 9:-1 10:0 11:0 12:0 13:0 14:0 15:1 16:0 17:0 18:0 19:-1 20:-1 21:0 22:-1 23:-1 24:-1 25:-1 26:0 
10 0:9 1:0 2:-1 3:0 4:0 5:1 6:-1 7:0 8:1 9:-1 10:0 11:0 12:0 13:1 14:0 15:1 16:0 17:0 18:0 19:-1 20:-1 21:0 22:-1 23:-1 24:-1 25:-1 26:0 
10 0:10 1:0 2:0 3:0 4:0 5:0 6:0 7:0 8:0 9:1 10:0 11:0 12:0 13:0 14:0 15:0 16:0 17:0 18:0 19:0 20:0 21:0 22:0 23:0 24:0 25:0 26:0 
10 0:10 1:0 2:0 3:0 4:0 5:0 6:0 7:0 8:0 9:1 10:0 11:0 12:0 13:0 14:0 15:0 16:0 17:0 18:0 19:0 20:0 21:0 22:0 23:0 24:0 25:0 26:1 
10 0:10 1:0 2:0 3:0 4:0 5:0 6:0 7:0 8:0 9:1 10:0 11:0 12:0 13:0 14:0 15:0 16:0 17:0 18:0 19:1 20:0 21:0 22:0 23:0 24:0 25:0 26:1 
10 0:10 1:0 2:0 3:0 4:0 5:1 6:0 7:0 8:0 9:1 10:0 11:0 12:0 13:0 14:0 15:0 16:0 17:0 18:0 19:1 20:0 21:0 22:0 23:0 24:0 25:0 26:1 
10 0:10 1:0 2:0 3:0 4:0 5:1 6:0 7:0 8:0 9:1 10:0 11:0 12:0 13:0 14:1 15:0 16:0 17:0 18:0 19:1 20:0 21:0 22:0 23:0 24:0 25:0 26:1 
10 0:10 1:0 2:0 3:0 4:0 5:1 6:0 7:0 8:0 9:1 10:0 11:0 12:0 13:0 14:1 15:0 16:0 17:0 18:0 19:1 20:1 21:0 22:0 23:0 24:0 25:0 26:1 
10 0:10 1:0 2:-1 3:0 4:-1 5:1 6:0 7:0 8:1 9:1 10:0 11:0 12:-1 13:0 14:1 15:0 16:0 17:0 18:0 19:1 20:1 21:0 22:0 23:0 24:0 25:0 26:1 
10 0:5 1:0 2:0 3:0 4:0 5:0 6:0 7:0 8:0 9:0 10:0 11:0 12:0 13:0 14:0 15:1 16:0 17:0 18:0 19:0 20:0 21:0 22:0 23:0 24:0 25:0 26:0 
10 0:5 1:0 2:0 3:0 4:0 5:-1 6:0 7:0 8:0 9:0 10:0 11:-1 12:0 13:0 14:0 15:1 16:-1 17:0 18:0 19:0 20:0 21:1 22:0 23:0 24:0 25:-1 26:0 
10 0:5 1:0 2:0 3:0 4:0 5:-1 6:0 7:0 8:0 9:0 10:-1 11:-1 12:0 13:0 14:0 15:1 16:-1 17:-1 18:0 19:1 20:0 21:1 22:0 23:0 24:0 25:-1 26:0 
10 0:6 1:0 2:0 3:0 4:0 5:0 6:-1 7:0 8:0 9:-1 10:0 11:0 12:0 13:0 14:0 15:0 16:-1 17:0 18:1 19:0 20:0 21:0 22:-1 23:0 24:0 25:0 26:0 
10 0:7 1:0 2:1 3:0 4:0 5:0 6:0 7:0 8:0 9:0 10:0 11:0 12:0 13:0 14:0 15:0 16:0 17:0 18:0 19:0 20:0 21:0 22:0 23:-1 24:0 25:0 26:0 
10 0:7 1:0 2:1 3:0 4:0 5:0 6:0 7:-1 8:0 9:0 10:0 11:0 12:0 13:0 14:0 15:0 16:0 17:0 18:1 19:-1 20:0 21:-1 22:0 23:-1 24:0 25:0 26:0 
10 0:7 1:0 2:1 3:0 4:-1 5:0 6:0 7:-1 8:0 9:0 10:-1 11:-1 12:0 13:0 14:0 15:0 16:0 17:0 18:1 19:-1 20:1 21:-1 22:-1 23:-1 24:0 25:0 26:0 
10 0:7 1:0 2:0 3:0 4:0 5:0 6:0 7:0 8:0 9:0 10:0 11:0 12:0 13:0 14:0 15:0 16:1 17:0 18:0 19:0 20:0 21:0 22:0 23:0 24:0 25:0 26:0 
10 0:7 1:0 2:0 3:0 4:0 5:0 6:0 7:0 8:-1 9:0 10:0 11:-1 12:0 13:0 14:0 15:0 16:1 17:0 18:0 19:0 20:0 21:1 22:0 23:0 24:-1 25:0 26:-1 
10 0:7 1:1 2:0 3:0 4:0 5:0 6:-1 7:-1 8:-1 9:0 10:0 11:-1 12:0 13:0 14:0 15:0 16:1 17:0 18:0 19:0 20:0 21:1 22:0 23:0 24:-1 25:0 26:-1 
10 0:7 1:1 2:0 3:-1 4:0 5:0 6:-1 7:-1 8:-1 9:1 10:0 11:-1 12:0 13:-1 14:0 15:0 16:1 17:0 18:0 19:0 20:0 21:1 22:0 23:-1 24:-1 25:0 26:-1 
10 0:5 1:0 2:0 3:-1 4:0 5:1 6:0 7:0 8:0 9:0 10:0 11:0 12:0 13:0 14:0 15:0 16:0 17:0 18:0 19:0 20:0 21:0 22:-1 23:0 24:0 25:0 26:-1 
10 0:5 1:0 2:0 3:-1 4:0 5:1 6:0 7:-1 8:0 9:-1 10:0 11:0 12:0 13:0 14:0 15:0 16:0 17:0 18:0 19:0 20:1 21:-1 22:-1 23:-1 24:-1 25:0 26:-1 
10 0:5 1:0 2:-1 3:0 4:0 5:0 6:0 7:-1 8:-1 9:0 10:-1 11:0 12:0 13:-1 14:1 15:0 16:0 17:0 18:0 19:0 20:0 21:-1 22:0 23:0 24:0 25:-1 26:0 
10 0:5 1:0 2:-1 3:0 4:0 5:0 6:0 7:-1 8:-1 9:0 10:-1 11:0 12:-1 13:-1 14:1 15:0 16:0 17:0 18:0 19:0 20:1 21:-1 22:0 23:0 24:0 25:-1 26:0 
10 0:8 1:0 2:0 3:0 4:0 5:0 6:0 7:0 8:0 9:0 10:0 11:-1 12:0 13:0 14:0 15:0 16:0 17:0 18:0 19:0 20:1 21:0 22:0 23:0 24:0 25:0 26:0 
10 0:8 1:0 2:0 3:0 4:-1 5:0 6:-1 7:-1 8:-1 9:1 10:-1 11:-1 12:0 13:-1 14:0 15:-1 16:0 17:0 18:0 19:-1 20:1 21:0 22:0 23:0 24:0 25:0 26:0 
10 0:5 1:0 2:-1 3:0 4:0 5:0 6:-1 7:-1 8:0 9:0 10:0 11:0 12:0 13:0 14:0 15:0 16:0 17:0 18:-1 19:0 20:0 21:-1 22:0 23:1 24:0 25:-1 26:-1 
10 0:5 1:0 2:-1 3:0 4:0 5:1 6:-1 7:-1 8:0 9:0 10:0 11:0 12:0 13:0 14:0 15:0 16:0 17:0 18:-1 19:0 20:0 21:-1 22:0 23:1 24:0 25:-1 26:-1 
10 0:4 1:1 2:-1 3:0 4:-1 5:0 6:0 7:0 8:-1 9:0 10:0 11:0 12:0 13:-1 14:0 15:0 16:0 17:0 18:-1 19:0 20:0 21:0 22:0 23:-1 24:0 25:0 26:0 
10 0:4 1:1 2:-1 3:0 4:-1 5:0 6:1 7:0 8:-1 9:0 10:0 11:0 12:0 13:-1 14:0 15:0 16:0 17:0 18:-1 19:0 20:0 21:-1 22:0 23:-1 24:0 25:0 26:0 
10 0:8 1:0 2:0 3:0 4:0 5:0 6:0 7:0 8:0 9:0 10:0 11:0 12:0 13:0 14:0 15:0 16:-1 17:0 18:1 19:0 20:0 21:0 22:0 23:0 24:0 25:0 26:0 
10 0:8 1:0 2:0 3:0 4:0 5:1 6:0 7:0 8:0 9:0 10:0 11:0 12:0 13:0 14:-1 15:-1 16:-1 17:0 18:1 19:0 20:0 21:0 22:0 23:0 24:0 25:0 26:0 
10 0:8 1:0 2:-1 3:0 4:0 5:1 6:0 7:0 8:0 9:0 10:-1 11:0 12:0 13:0 14:-1 15:-1 16:-1 17:0 18:1 19:0 20:1 21:0 22:0 23:0 24:0 25:0 26:0 
10 0:8 1:0 2:-1 3:0 4:0 5:1 6:0 7:-1 8:0 9:1 10:-1 11:0 12:0 13:0 14:-1 15:-1 16:-1 17:0 18:1 19:-1 20:1 21:0 22:0 23:0 24:0 25:0 26:0 
10 0:8 1:1 2:-1 3:0 4:0 5:1 6:0 7:-1 8:0 9:1 10:-1 11:0 12:0 13:0 14:-1 15:-1 16:-1 17:0 18:1 19:-1 20:1 21:0 22:0 23:0 24:0 25:0 26:0 
10 0:8 1:1 2:-1 3:1 4:0 5:1 6:0 7:-1 8:0 9:1 10:-1 11:0 12:0 13:0 14:-1 15:-1 16:-1 17:0 18:1 19:-1 20:1 21:0 22:0 23:0 24:0 25:0 26:0 
10 0:9 1:0 2:0 3:0 4:0 5:0 6:0 7:0 8:0 9:1 10:-1 11:0 12:0 13:0 14:0 15:0 16:0 17:-1 18:0 19:0 20:0 21:0 22:0 23:0 24:0 25:0 26:0 
10 0:9 1:0 2:0 3:0 4:0 5:0 6:0 7:0 8:0 9:1 10:-1 11:-1 12:0 13:0 14:0 15:1 16:0 17:-1 18:0 19:0 20:0 21:0 22:0 23:0 24:0 25:0 26:0 
10 0:9 1:0 2:0 3:0 4:0 5:0 6:0 7:0 8:0 9:1 10:-1 11:-1 12:0 13:0 14:0 15:1 16:0 17:-1 18:0 19:1 20:-1 21:0 22:0 23:0 24:0 25:0 26:0 
10 0:9 1:0 2:0 3:1 4:0 5:0 6:0 7:-1 8:0 9:1 10:-1 11:-1 12:-1 13:-1 14:0 15:1 16:0 17:-1 18:0 19:1 20:-1 21:0 22:0 23:-1 24:0 25:0 26:0 
10 0:9 1:0 2:0 3:0 4:0 5:0 6:0 7:0 8:0 9:0 10:0 11:0 12:1 13:0 14:0 15:0 16:0 17:0 18:0 19:0 20:0 21:0 22:0 23:0 24:0 25:0 26:0 
10 0:9 1:0 2:0 3:0 4:0 5:0 6:0 7:0 8:0 9:0 10:0 11:-1 12:1 13:0 14:0 15:1 16:0 17:0 18:0 19:0 20:0 21:0 22:0 23:0 24:0 25:0 26:0 
10 0:9 1:0 2:0 3:0 4:0 5:0 6:1 7:0 8:0 9:0 10:0 11:-1 12:1 13:-1 14:0 15:1 16:0 17:0 18:0 19:-1 20:0 21:0 22:-1 23:0 24:-1 25:0 26:0 
10 0:9 1:0 2:0 3:0 4:0 5:0 6:1 7:0 8:1 9:0 10:0 11:-1 12:1 13:-1 14:0 15:1 16:0 17:0 18:0 19:-1 20:0 21:0 22:-1 23:0 24:-1 25:0 26:0 
10 0:9 1:0 2:0 3:0 4:1 5:0 6:1 7:0 8:1 9:-1 10:0 11:-1 12:1 13:-1 14:0 15:1 16:0 17:0 18:0 19:-1 20:0 21:0 22:-1 23:0 24:-1 25:0 26:0 
10 0:5 1:0 2:0 3:0 4:0 5:0 6:0 7:0 8:0 9:0 10:0 11:0 12:0 13:0 14:0 15:1 16:0 17:0 18:0 19:0 20:0 21:0 22:0 23:0 24:0 25:0 26:0 
10 0:5 1:0 2:0 3:0 4:0 5:0 6:0 7:0 8:0 9:0 10:0 11:0 12:1 13:0 14:0 15:1 16:0 17:-1 18:0 19:0 20:0 21:0 22:0 23:0 24:0 25:0 26:0 
10 0:5 1:0 2:0 3:0 4:0 5:0 6:0 7:1 8:0 9:0 10:0 11:0 12:1 13:0 14:0 15:1 16:0 17:-1 18:0 19:0 20:0 21:0 22:0 23:-1 24:0 25:0 26:0 
10 0:5 1:0 2:0 3:0 4:-1 5:1 6:-1 7:1 8:0 9:0 10:0 11:0 12:1 13:-1 14:0 15:1 16:0 17:-1 18:0 19:-1 20:0 21:0 22:0 23:-1 24:-1 25:-1 26:0 
10 0:5 1:0 2:1 3:0 4:-1 5:1 6:-1 7:1 8:0 9:0 10:0 11:0 12:1 13:-1 14:0 15:1 16:0 17:-1 18:0 19:-1 20:0 21:0 22:-1 23:-1 24:-1 25:-1 26:0 
10 0:7 1:0 2:0 3:0 4:-1 5:0 6:0 7:0 8:0 9:0 10:0 11:0 12:0 13:0 14:0 15:0 16:-1 17:0 18:1 19:0 20:0 21:0 22:0 23:0 24:0 25:0 26:0 
10 0:7 1:0 2:0 3:0 4:-1 5:0 6:1 7:0 8:0 9:0 10:0 11:0 12:0 13:0 14:0 15:0 16:-1 17:0 18:1 19:0 20:0 21:0 22:0 23:0 24:0 25:0 26:0 
10 0:7 1:0 2:0 3:0 4:-1 5:0 6:1 7:-1 8:0 9:0 10:0 11:0 12:1 13:0 14:0 15:0 16:-1 17:0 18:1 19:0 20:0 21:0 22:0 23:0 24:0 25:0 26:0 
10 0:8 1:0 2:0 3:0 4:0 5:-1 6:0 7:0 8:0 9:0 10:0 11:0 12:0 13:0 14:0 15:0 16:0 17:0 18:0 19:1 20:0 21:0 22:0 23:0 24:0 25:0 26:0 
10 0:8 1:0 2:-1 3:0 4:0 5:-1 6:-1 7:0 8:-1 9:-1 10:0 11:0 12:-1 13:0 14:0 15:0 16:0 17:0 18:0 19:1 20:1 21:0 22:-1 23:0 24:0 25:0 26:-1 
10 0:8 1:0 2:-1 3:0 4:0 5:-1 6:-1 7:0 8:-1 9:-1 10:0 11:0 12:-1 13:1 14:0 15:0 16:0 17:0 18:0 19:1 20:1 21:0 22:-1 23:0 24:0 25:0 26:-1 
10 0:8 1:0 2:-1 3:0 4:0 5:-1 6:-1 7:0 8:-1 9:-1 10:0 11:0 12:-1 13:1 14:0 15:0 16:-1 17:0 18:0 19:1 20:1 21:1 22:-1 23:0 24:0 25:0 26:-1 
10 0:9 1:0 2:0 3:0 4:0 5:0 6:-1 7:0 8:0 9:0 10:0 11:0 12:0 13:1 14:0 15:0 16:0 17:0 18:0 19:0 20:0 21:0 22:0 23:0 24:0 25:0 26:0 
10 0:9 1:0 2:0 3:0 4:0 5:0 6:-1 7:0 8:0 9:0 10:0 11:0 12:0 13:1 14:1 15:0 16:0 17:0 18:0 19:0 20:0 21:0 22:0 23:-1 24:0 25:-1 26:0 
10 0:9 1:1 2:0 3:0 4:0 5:0 6:-1 7:0 8:0 9:0 10:0 11:-1 12:0 13:1 14:1 15:0 16:0 17:0 18:0 19:0 20:0 21:0 22:0 23:-1 24:0 25:-1 26:0 
10 0:9 1:1 2:0 3:0 4:0 5:0 6:-1 7:0 8:0 9:0 10:0 11:-1 12:-1 13:1 14:1 15:-1 16:0 17:-1 18:0 19:1 20:0 21:0 22:0 23:-1 24:-1 25:-1 26:0 
10 0:9 1:1 2:0 3:0 4:0 5:0 6:-1 7:1 8:0 9:0 10:0 11:-1 12:-1 13:1 14:1 15:-1 16:0 17:-1 18:0 19:1 20:0 21:0 22:0 23:-1 24:-1 25:-1 26:0 
10 0:9 1:1 2:0 3:0 4:0 5:0 6:0 7:0 8:-1 9:0 10:-1 11:0 12:0 13:0 14:0 15:0 16:0 17:0 18:-1 19:0 20:0 21:0 22:0 23:0 24:0 25:0 26:0 
10 0:9 1:1 2:0 3:0 4:-1 5:0 6:1 7:0 8:-1 9:0 10:-1 11:0 12:0 13:0 14:-1 15:0 16:0 17:0 18:-1 19:0 20:0 21:0 22:0 23:0 24:0 25:0 26:0 
10 0:9 1:1 2:1 3:0 4:-1 5:0 6:1 7:0 8:-1 9:0 10:-1 11:-1 12:0 13:0 14:-1 15:0 16:0 17:0 18:-1 19:0 20:0 21:0 22:0 23:0 24:0 25:0 26:0 
10 0:9 1:1 2:1 3:0 4:-1 5:0 6:1 7:0 8:-1 9:0 10:-1 11:-1 12:0 13:0 14:-1 15:1 16:0 17:0 18:-1 19:0 20:0 21:0 22:0 23:0 24:0 25:0 26:0 
10 0:9 1:1 2:1 3:0 4:-1 5:0 6:1 7:0 8:-1 9:0 10:-1 11:-1 12:0 13:0 14:-1 15:1 16:0 17:0 18:-1 19:0 20:0 21:1 22:0 23:0 24:-1 25:0 26:0 
10 0:9 1:1 2:1 3:0 4:-1 5:0 6:1 7:0 8:-1 9:0 10:-1 11:-1 12:0 13:0 14:-1 15:1 16:0 17:0 18:-1 19:1 20:0 21:1 22:0 23:0 24:-1 25:0 26:0 
10 0:11 1:1 2:0 3:0 4:0 5:0 6:0 7:0 8:0 9:0 10:0 11:0 12:0 13:0 14:0 15:0 16:0 17:0 18:0 19:0 20:0 21:0 22:0 23:0 24:0 25:0 26:0 
10 0:11 1:1 2:0 3:0 4:0 5:0 6:0 7:0 8:0 9:0 10:0 11:0 12:1 13:0 14:0 15:0 16:0 17:0 18:0 19:0 20:0 21:0 22:-1 23:0 24:0 25:0 26:-1 
10 0:11 1:1 2:0 3:0 4:0 5:1 6:0 7:0 8:0 9:0 10:0 11:-1 12:1 13:0 14:0 15:0 16:0 17:0 18:0 19:0 20:0 21:-1 22:-1 23:0 24:0 25:-1 26:-1 
10 0:11 1:1 2:0 3:0 4:1 5:1 6:0 7:0 8:0 9:0 10:0 11:-1 12:1 13:0 14:0 15:0 16:0 17:0 18:0 19:0 20:0 21:-1 22:-1 23:0 24:0 25:-1 26:-1 
10 0:11 1:1 2:0 3:0 4:1 5:1 6:0 7:0 8:0 9:0 10:0 11:-1 12:1 13:0 14:0 15:0 16:0 17:0 18:1 19:0 20:0 21:-1 22:-1 23:0 24:0 25:-1 26:-1 
10 0:8 1:0 2:0 3:0 4:0 5:0 6:0 7:0 8:0 9:0 10:0 11:0 12:1 13:-1 14:0 15:0 16:0 17:0 18:0 19:0 20:0 21:0 22:0 23:0 24:0 25:0 26:0 
10 0:8 1:0 2:0 3:0 4:1 5:0 6:-1 7:0 8:0 9:0 10:0 11:0 12:1 13:-1 14:0 15:0 16:0 17:0 18:0 19:0 20:0 21:0 22:0 23:-1 24:0 25:0 26:0 
10 0:8 1:0 2:0 3:0 4:1 5:0 6:-1 7:0 8:0 9:0 10:0 11:0 12:1 13:-1 14:0 15:0 16:0 17:0 18:1 19:0 20:0 21:0 22:0 23:-1 24:0 25:0 26:0 
10 0:8 1:0 2:0 3:0 4:1 5:1 6:-1 7:0 8:0 9:0 10:0 11:0 12:1 13:-1 14:0 15:0 16:0 17:0 18:1 19:0 20:0 21:0 22:0 23:-1 24:0 25:0 26:0 
10 0:8 1:0 2:0 3:0 4:1 5:1 6:-1 7:0 8:0 9:0 10:0 11:0 12:1 13:-1 14:-1 15:0 16:0 17:0 18:1 19:0 20:0 21:0 22:0 23:-1 24:0 25:1 26:0 
10 0:8 1:0 2:0 3:0 4:1 5:1 6:-1 7:0 8:0 9:1 10:0 11:0 12:1 13:-1 14:-1 15:-1 16:0 17:-1 18:1 19:0 20:0 21:0 22:0 23:-1 24:0 25:1 26:0 
10 0:6 1:0 2:0 3:0 4:0 5:0 6:1 7:-1 8:-1 9:0 10:-1 11:0 12:0 13:0 14:0 15:0 16:-1 17:0 18:0 19:0 20:0 21:0 22:0 23:0 24:0 25:-1 26:-1 
10 0:6 1:0 2:0 3:0 4:0 5:1 6:1 7:-1 8:-1 9:0 10:-1 11:0 12:0 13:0 14:0 15:0 16:-1 17:0 18:-1 19:0 20:0 21:0 22:-1 23:0 24:0 25:-1 26:-1 
10 0:4 1:0 2:0 3:0 4:0 5:0 6:-1 7:0 8:0 9:0 10:0 11:0 12:0 13:0 14:0 15:1 16:0 17:0 18:0 19:0 20:0 21:0 22:0 23:0 24:0 25:0 26:0 
10 0:10 1:0 2:0 3:0 4:0 5:0 6:0 7:0 8:1 9:0 10:0 11:0 12:0 13:0 14:0 15:0 16:-1 17:0 18:0 19:0 20:0 21:0 22:0 23:0 24:-1 25:0 26:0 
10 0:10 1:0 2:0 3:-1 4:0 5:0 6:0 7:-1 8:1 9:0 10:0 11:0 12:0 13:1 14:0 15:0 16:-1 17:0 18:0 19:0 20:0 21:-1 22:0 23:0 24:-1 25:0 26:0 
10 0:10 1:0 2:0 3:-1 4:0 5:0 6:0 7:-1 8:1 9:0 10:0 11:0 12:0 13:1 14:1 15:0 16:-1 17:0 18:0 19:0 20:0 21:-1 22:0 23:0 24:-1 25:0 26:0 
10 0:10 1:0 2:0 3:-1 4:0 5:0 6:0 7:-1 8:1 9:1 10:-1 11:0 12:0 13:1 14:1 15:0 16:-1 17:0 18:-1 19:0 20:0 21:-1 22:-1 23:0 24:-1 25:-1 26:0 
10 0:7 1:0 2:0 3:0 4:0 5:1 6:0 7:0 8:0 9:0 10:0 11:0 12:0 13:0 14:0 15:0 16:0 17:0 18:0 19:0 20:0 21:0 22:-1 23:0 24:0 25:0 26:0 
10 0:7 1:0 2:0 3:0 4:0 5:1 6:0 7:0 8:0 9:0 10:0 11:0 12:0 13:0 14:0 15:0 16:0 17:0 18:0 19:1 20:0 21:0 22:-1 23:0 24:0 25:0 26:0 
10 0:7 1:0 2:0 3:1 4:0 5:1 6:0 7:0 8:0 9:0 10:0 11:0 12:0 13:0 14:0 15:0 16:0 17:0 18:0 19:1 20:0 21:0 22:-1 23:0 24:0 25:0 26:0 
10 0:7 1:0 2:-1 3:1 4:0 5:1 6:1 7:0 8:0 9:0 10:-1 11:0 12:-1 13:0 14:-1 15:0 16:0 17:0 18:0 19:1 20:0 21:0 22:-1 23:0 24:-1 25:-1 26:-1 
10 0:3 1:0 2:0 3:0 4:0 5:-1 6:0 7:0 8:0 9:-1 10:0 11:-1 12:0 13:-1 14:0 15:0 16:-1 17:0 18:1 19:0 20:0 21:0 22:0 23:-1 24:0 25:0 26:0 
10 0:7 1:0 2:0 3:0 4:0 5:1 6:0 7:0 8:0 9:0 10:0 11:0 12:0 13:0 14:0 15:0 16:0 17:0 18:0 19:0 20:0 21:0 22:0 23:0 24:0 25:-1 26:0 
10 0:7 1:0 2:0 3:0 4:0 5:1 6:0 7:0 8:0 9:1 10:0 11:-1 12:-1 13:0 14:0 15:0 16:0 17:0 18:0 19:0 20:0 21:-1 22:0 23:0 24:0 25:-1 26:0 
10 0:7 1:1 2:0 3:0 4:0 5:1 6:0 7:0 8:0 9:1 10:0 11:-1 12:-1 13:0 14:0 15:0 16:0 17:0 18:0 19:0 20:0 21:-1 22:0 23:0 24:0 25:-1 26:0 
10 0:6 1:0 2:0 3:-1 4:0 5:0 6:0 7:0 8:0 9:0 10:0 11:0 12:0 13:-1 14:0 15:-1 16:0 17:0 18:0 19:0 20:1 21:-1 22:0 23:0 24:0 25:0 26:-1 
10 0:5 1:0 2:0 3:0 4:-1 5:0 6:0 7:0 8:-1 9:-1 10:0 11:0 12:-1 13:-1 14:0 15:-1 16:0 17:0 18:0 19:0 20:0 21:1 22:-1 23:0 24:0 25:0 26:0 
10 0:5 1:0 2:0 3:0 4:-1 5:0 6:0 7:0 8:-1 9:-1 10:0 11:0 12:-1 13:-1 14:0 15:-1 16:0 17:0 18:0 19:1 20:0 21:1 22:-1 23:0 24:0 25:0 26:0 
10 0:13 1:1 2:0 3:0 4:0 5:0 6:0 7:0 8:0 9:0 10:0 11:0 12:0 13:0 14:0 15:0 16:0 17:0 18:0 19:0 20:0 21:0 22:0 23:0 24:0 25:0 26:0 
10 0:13 1:1 2:0 3:1 4:0 5:0 6:0 7:0 8:0 9:0 10:0 11:0 12:0 13:0 14:0 15:0 16:0 17:0 18:0 19:0 20:0 21:0 22:0 23:0 24:-1 25:0 26:0 
10 0:13 1:1 2:0 3:1 4:0 5:0 6:0 7:0 8:0 9:0 10:-1 11:0 12:-1 13:0 14:0 15:0 16:0 17:0 18:0 19:0 20:1 21:0 22:0 23:-1 24:-1 25:0 26:0 
10 0:13 1:1 2:0 3:1 4:0 5:1 6:-1 7:0 8:0 9:0 10:-1 11:0 12:-1 13:0 14:0 15:0 16:0 17:-1 18:0 19:0 20:1 21:-1 22:-1 23:-1 24:-1 25:0 26:-1 
10 0:13 1:1 2:0 3:1 4:0 5:1 6:-1 7:0 8:0 9:1 10:-1 11:0 12:-1 13:0 14:0 15:0 16:0 17:-1 18:0 19:0 20:1 21:-1 22:-1 23:-1 24:-1 25:0 26:-1 
10 0:8 1:0 2:0 3:0 4:0 5:0 6:0 7:0 8:0 9:0 10:0 11:0 12:0 13:0 14:1 15:0 16:0 17:0 18:0 19:0 20:0 21:0 22:0 23:0 24:0 25:0 26:0 
10 0:8 1:0 2:0 3:0 4:1 5:0 6:0 7:0 8:0 9:0 10:0 11:0 12:0 13:0 14:1 15:0 16:0 17:0 18:0 19:0 20:0 21:0 22:0 23:0 24:0 25:0 26:0 
10 0:8 1:0 2:-1 3:0 4:1 5:0 6:0 7:-1 8:-1 9:0 10:0 11:0 12:0 13:0 14:1 15:0 16:0 17:0 18:1 19:0 20:-1 21:-1 22:0 23:0 24:-1 25:0 26:-1 
10 0:4 1:0 2:0 3:0 4:0 5:0 6:0 7:0 8:0 9:0 10:0 11:0 12:0 13:0 14:0 15:0 16:0 17:0 18:0 19:0 20:0 21:1 22:0 23:0 24:0 25:0 26:0 
10 0:4 1:0 2:0 3:0 4:0 5:0 6:0 7:0 8:-1 9:0 10:-1 11:0 12:0 13:0 14:-1 15:1 16:-1 17:-1 18:0 19:0 20:-1 21:1 22:0 23:0 24:0 25:0 26:0 
10 0:4 1:0 2:0 3:0 4:0 5:0 6:0 7:0 8:-1 9:-1 10:-1 11:0 12:0 13:0 14:-1 15:1 16:-1 17:-1 18:0 19:0 20:-1 21:1 22:-1 23:0 24:0 25:1 26:0 
10 0:8 1:0 2:0 3:0 4:0 5:0 6:0 7:0 8:0 9:0 10:0 11:0 12:1 13:0 14:0 15:0 16:0 17:0 18:0 19:0 20:0 21:0 22:0 23:0 24:0 25:0 26:0 
10 0:8 1:0 2:0 3:0 4:0 5:0 6:0 7:0 8:0 9:0 10:0 11:0 12:1 13:0 14:0 15:0 16:0 17:0 18:0 19:0 20:0 21:1 22:0 23:0 24:0 25:0 26:0 
10 0:8 1:0 2:0 3:1 4:0 5:0 6:0 7:0 8:0 9:0 10:0 11:0 12:1 13:-1 14:0 15:0 16:-1 17:0 18:0 19:0 20:0 21:1 22:0 23:0 24:0 25:0 26:0 
10 0:8 1:0 2:0 3:1 4:0 5:1 6:0 7:0 8:0 9:0 10:0 11:0 12:1 13:-1 14:-1 15:0 16:-1 17:0 18:0 19:0 20:0 21:1 22:0 23:-1 24:0 25:0 26:0 
10 0:8 1:0 2:0 3:1 4:0 5:1 6:0 7:-1 8:0 9:0 10:0 11:0 12:1 13:-1 14:-1 15:0 16:-1 17:0 18:0 19:1 20:-1 21:1 22:0 23:-1 24:0 25:0 26:0 
10 0:8 1:0 2:0 3:1 4:0 5:1 6:0 7:-1 8:1 9:0 10:0 11:0 12:1 13:-1 14:-1 15:0 16:-1 17:0 18:0 19:1 20:-1 21:1 22:0 23:-1 24:0 25:0 26:0 
10 0:8 1:1 2:0 3:1 4:0 5:1 6:0 7:-1 8:1 9:0 10:-1 11:0 12:1 13:-1 14:-1 15:-1 16:-1 17:0 18:0 19:1 20:-1 21:1 22:0 23:-1 24:0 25:0 26:0 
10 0:7 1:0 2:0 3:0 4:1 5:0 6:0 7:0 8:0 9:0 10:0 11:0 12:0 13:0 14:0 15:0 16:0 17:0 18:0 19:0 20:0 21:0 22:0 23:0 24:0 25:0 26:0 
10 0:12 1:0 2:0 3:0 4:0 5:0 6:0 7:0 8:0 9:0 10:0 11:0 12:1 13:0 14:0 15:0 16:0 17:0 18:0 19:0 20:0 21:0 22:0 23:0 24:0 25:0 26:0 
10 0:12 1:0 2:0 3:0 4:0 5:1 6:0 7:0 8:0 9:0 10:0 11:0 12:1 13:0 14:0 15:0 16:0 17:0 18:0 19:0 20:0 21:0 22:0 23:0 24:-1 25:0 26:0 
10 0:12 1:0 2:-1 3:0 4:0 5:1 6:0 7:0 8:0 9:0 10:0 11:0 12:1 13:0 14:0 15:0 16:0 17:0 18:1 19:0 20:0 21:0 22:0 23:0 24:-1 25:0 26:0 
10 0:12 1:-1 2:-1 3:0 4:0 5:1 6:-1 7:0 8:0 9:0 10:0 11:0 12:1 13:0 14:0 15:0 16:0 17:0 18:1 19:0 20:0 21:-1 22:-1 23:0 24:-1 25:1 26:0 
10 0:12 1:-1 2:-1 3:0 4:-1 5:1 6:-1 7:0 8:0 9:0 10:0 11:0 12:1 13:0 14:0 15:1 16:0 17:0 18:1 19:0 20:0 21:-1 22:-1 23:0 24:-1 25:1 26:0 
10 0:8 1:0 2:0 3:0 4:0 5:0 6:0 7:0 8:0 9:0 10:0 11:0 12:0 13:0 14:0 15:0 16:0 17:0 18:1 19:0 20:0 21:0 22:0 23:0 24:0 25:0 26:0 
10 0:8 1:0 2:0 3:0 4:0 5:0 6:0 7:0 8:0 9:0 10:0 11:0 12:0 13:0 14:1 15:0 16:0 17:0 18:1 19:0 20:0 21:-1 22:0 23:0 24:0 25:0 26:0 
10 0:8 1:0 2:0 3:0 4:0 5:0 6:0 7:0 8:0 9:0 10:0 11:0 12:0 13:0 14:1 15:0 16:0 17:0 18:1 19:0 20:1 21:-1 22:0 23:0 24:0 25:0 26:0 
10 0:8 1:0 2:0 3:-1 4:0 5:1 6:0 7:-1 8:0 9:0 10:0 11:-1 12:0 13:0 14:1 15:0 16:0 17:0 18:1 19:-1 20:1 21:-1 22:-1 23:0 24:0 25:0 26:-1 
10 0:4 1:-1 2:0 3:0 4:0 5:0 6:0 7:0 8:0 9:0 10:-1 11:-1 12:1 13:0 14:0 15:0 16:0 17:0 18:0 19:0 20:0 21:0 22:0 23:0 24:0 25:0 26:-1 
10 0:10 1:0 2:0 3:0 4:-1 5:0 6:0 7:0 8:0 9:0 10:0 11:0 12:1 13:0 14:0 15:0 16:0 17:0 18:0 19:0 20:0 21:0 22:0 23:-1 24:0 25:-1 26:0 
10 0:10 1:0 2:0 3:1 4:-1 5:0 6:0 7:0 8:0 9:0 10:0 11:0 12:1 13:0 14:0 15:0 16:0 17:0 18:0 19:0 20:0 21:0 22:0 23:-1 24:0 25:-1 26:0 
10 0:10 1:0 2:0 3:1 4:-1 5:0 6:0 7:0 8:0 9:1 10:0 11:0 12:1 13:0 14:0 15:0 16:0 17:0 18:0 19:0 20:0 21:0 22:0 23:-1 24:0 25:-1 26:0 
10 0:10 1:0 2:0 3:1 4:-1 5:0 6:0 7:0 8:0 9:1 10:0 11:0 12:1 13:0 14:0 15:1 16:0 17:0 18:0 19:-1 20:0 21:0 22:0 23:-1 24:0 25:-1 26:0 
10 0:10 1:0 2:0 3:1 4:-1 5:0 6:-1 7:0 8:0 9:1 10:0 11:-1 12:1 13:0 14:0 15:1 16:1 17:0 18:0 19:-1 20:0 21:0 22:0 23:-1 24:0 25:-1 26:-1 
10 0:10 1:0 2:0 3:1 4:-1 5:1 6:-1 7:0 8:0 9:1 10:-1 11:-1 12:1 13:0 14:0 15:1 16:1 17:-1 18:0 19:-1 20:0 21:0 22:0 23:-1 24:0 25:-1 26:-1 
10 0:15 1:0 2:0 3:0 4:0 5:1 6:0 7:0 8:0 9:0 10:0 11:0 12:0 13:0 14:0 15:0 16:0 17:0 18:0 19:0 20:0 21:0 22:0 23:0 24:0 25:0 26:0 
10 0:15 1:0 2:0 3:0 4:0 5:1 6:0 7:0 8:0 9:0 10:0 11:0 12:0 13:0 14:0 15:-1 16:0 17:-1 18:0 19:0 20:1 21:0 22:0 23:-1 24:0 25:0 26:0 
10 0:15 1:0 2:0 3:0 4:0 5:1 6:0 7:0 8:0 9:0 10:0 11:0 12:0 13:0 14:0 15:-1 16:0 17:-1 18:-1 19:1 20:1 21:-1 22:0 23:-1 24:0 25:0 26:0 
10 0:6 1:0 2:0 3:0 4:0 5:0 6:0 7:0 8:0 9:0 10:0 11:0 12:0 13:0 14:1 15:0 16:0 17:0 18:0 19:0 20:0 21:0 22:0 23:0 24:0 25:0 26:0 
10 0:6 1:0 2:-1 3:0 4:0 5:1 6:0 7:0 8:0 9:0 10:0 11:0 12:0 13:0 14:1 15:0 16:0 17:0 18:0 19:0 20:0 21:0 22:-1 23:0 24:0 25:0 26:-1 
10 0:6 1:1 2:-1 3:0 4:0 5:1 6:0 7:0 8:0 9:0 10:0 11:0 12:0 13:0 14:1 15:0 16:0 17:0 18:0 19:0 20:0 21:0 22:-1 23:0 24:0 25:0 26:-1 
10 0:5 1:0 2:0 3:0 4:0 5:0 6:0 7:0 8:0 9:0 10:0 11:0 12:0 13:0 14:0 15:0 16:0 17:0 18:0 19:1 20:0 21:0 22:0 23:0 24:0 25:-1 26:0 
10 0:5 1:0 2:0 3:0 4:0 5:0 6:0 7:0 8:0 9:0 10:0 11:0 12:-1 13:0 14:0 15:1 16:0 17:0 18:0 19:1 20:0 21:0 22:0 23:0 24:0 25:-1 26:0 
10 0:10 1:0 2:0 3:0 4:-1 5:1 6:0 7:0 8:0 9:0 10:-1 11:0 12:0 13:0 14:0 15:0 16:0 17:-1 18:0 19:0 20:0 21:0 22:0 23:0 24:0 25:0 26:0 
10 0:10 1:0 2:0 3:0 4:-1 5:1 6:0 7:0 8:0 9:0 10:-1 11:0 12:0 13:1 14:0 15:0 16:0 17:-1 18:0 19:-1 20:-1 21:0 22:0 23:0 24:-1 25:0 26:-1 
10 0:10 1:0 2:0 3:0 4:-1 5:1 6:0 7:0 8:-1 9:0 10:-1 11:0 12:1 13:1 14:0 15:0 16:0 17:-1 18:0 19:-1 20:-1 21:0 22:0 23:0 24:-1 25:0 26:-1 
10 0:11 1:0 2:0 3:0 4:0 5:0 6:0 7:0 8:0 9:0 10:0 11:0 12:0 13:1 14:0 15:0 16:-1 17:0 18:0 19:0 20:0 21:0 22:0 23:0 24:0 25:0 26:0 
10 0:11 1:0 2:-1 3:-1 4:-1 5:-1 6:0 7:0 8:0 9:0 10:-1 11:0 12:0 13:1 14:1 15:0 16:-1 17:-1 18:0 19:0 20:0 21:0 22:-1 23:-1 24:0 25:0 26:0 
10 0:5 1:0 2:0 3:0 4:0 5:0 6:0 7:0 8:0 9:1 10:0 11:0 12:0 13:0 14:0 15:0 16:0 17:-1 18:0 19:0 20:0 21:0 22:0 23:0 24:0 25:0 26:0 
10 0:5 1:0 2:0 3:0 4:0 5:0 6:0 7:0 8:0 9:1 10:0 11:0 12:0 13:0 14:0 15:0 16:0 17:-1 18:0 19:0 20:0 21:0 22:0 23:-1 24:0 25:1 26:0 
10 0:5 1:0 2:-1 3:0 4:1 5:0 6:0 7:0 8:0 9:1 10:0 11:0 12:0 13:-1 14:0 15:0 16:0 17:-1 18:0 19:0 20:-1 21:0 22:-1 23:-1 24:0 25:1 26:0 
10 0:5 1:0 2:-1 3:0 4:1 5:1 6:0 7:0 8:0 9:1 10:0 11:0 12:0 13:-1 14:-1 15:-1 16:0 17:-1 18:0 19:0 20:-1 21:-1 22:-1 23:-1 24:0 25:1 26:0 
10 0:10 1:0 2:0 3:0 4:0 5:0 6:0 7:0 8:0 9:1 10:0 11:0 12:0 13:0 14:0 15:0 16:0 17:0 18:0 19:0 20:0 21:0 22:-1 23:0 24:0 25:0 26:0 
10 0:10 1:0 2:0 3:0 4:0 5:0 6:0 7:0 8:0 9:1 10:0 11:0 12:0 13:0 14:1 15:0 16:0 17:0 18:0 19:-1 20:0 21:0 22:-1 23:0 24:0 25:-1 26:0 
10 0:10 1:1 2:-1 3:-1 4:0 5:0 6:0 7:0 8:0 9:1 10:-1 11:0 12:0 13:-1 14:1 15:0 16:0 17:0 18:0 19:-1 20:0 21:0 22:-1 23:0 24:0 25:-1 26:0 
10 0:10 1:1 2:-1 3:-1 4:0 5:0 6:0 7:0 8:-1 9:1 10:-1 11:0 12:0 13:-1 14:1 15:0 16:0 17:0 18:1 19:-1 20:0 21:0 22:-1 23:0 24:0 25:-1 26:0 
10 0:11 1:0 2:0 3:0 4:0 5:0 6:0 7:0 8:0 9:0 10:0 11:0 12:0 13:0 14:0 15:0 16:0 17:0 18:0 19:0 20:0 21:1 22:0 23:0 24:0 25:0 26:0 
10 0:11 1:0 2:0 3:0 4:0 5:0 6:0 7:0 8:0 9:0 10:0 11:0 12:0 13:0 14:0 15:0 16:0 17:0 18:0 19:0 20:0 21:1 22:0 23:1 24:0 25:0 26:0 
10 0:11 1:1 2:0 3:0 4:-1 5:0 6:0 7:0 8:0 9:0 10:0 11:0 12:0 13:0 14:0 15:0 16:0 17:0 18:0 19:0 20:0 21:1 22:0 23:1 24:0 25:-1 26:0 
10 0:11 1:1 2:0 3:0 4:-1 5:0 6:0 7:0 8:0 9:0 10:0 11:0 12:0 13:0 14:0 15:0 16:0 17:0 18:0 19:0 20:1 21:1 22:0 23:1 24:0 25:-1 26:0 
10 0:11 1:1 2:0 3:0 4:-1 5:0 6:0 7:0 8:0 9:-1 10:0 11:0 12:0 13:-1 14:0 15:0 16:0 17:0 18:1 19:0 20:1 21:1 22:0 23:1 24:0 25:-1 26:0 
10 0:11 1:1 2:0 3:0 4:-1 5:0 6:0 7:0 8:0 9:-1 10:0 11:0 12:0 13:-1 14:0 15:0 16:0 17:0 18:1 19:1 20:1 21:1 22:0 23:1 24:0 25:-1 26:0 
10 0:11 1:1 2:1 3:-1 4:-1 5:0 6:0 7:0 8:0 9:-1 10:-1 11:0 12:-1 13:-1 14:0 15:0 16:0 17:0 18:1 19:1 20:1 21:1 22:-1 23:1 24:0 25:-1 26:0 
10 0:5 1:0 2:0 3:-1 4:0 5:1 6:0 7:0 8:-1 9:0 10:0 11:-1 12:0 13:0 14:0 15:0 16:0 17:0 18:0 19:-1 20:0 21:0 22:0 23:0 24:0 25:0 26:0 
10 0:11 1:0 2:0 3:0 4:1 5:0 6:0 7:0 8:0 9:0 10:0 11:0 12:0 13:0 14:0 15:0 16:0 17:0 18:0 19:0 20:0 21:0 22:0 23:0 24:0 25:0 26:0 
10 0:11 1:0 2:0 3:1 4:1 5:0 6:0 7:0 8:0 9:0 10:0 11:-1 12:0 13:0 14:0 15:0 16:0 17:0 18:0 19:0 20:0 21:0 22:0 23:0 24:0 25:0 26:0 
10 0:11 1:0 2:0 3:1 4:1 5:0 6:0 7:0 8:0 9:0 10:-1 11:-1 12:0 13:0 14:0 15:0 16:0 17:-1 18:1 19:0 20:0 21:0 22:-1 23:0 24:-1 25:0 26:0 
10 0:12 1:0 2:0 3:0 4:0 5:0 6:0 7:0 8:0 9:0 10:0 11:0 12:0 13:0 14:0 15:0 16:0 17:0 18:0 19:0 20:0 21:0 22:0 23:0 24:0 25:1 26:0 
10 0:12 1:0 2:0 3:0 4:-1 5:0 6:0 7:0 8:0 9:0 10:0 11:0 12:0 13:0 14:0 15:0 16:1 17:0 18:0 19:0 20:0 21:0 22:-1 23:0 24:0 25:1 26:0 
10 0:12 1:0 2:0 3:0 4:-1 5:0 6:0 7:0 8:0 9:0 10:0 11:0 12:0 13:0 14:0 15:0 16:1 17:0 18:1 19:0 20:0 21:0 22:-1 23:0 24:0 25:1 26:0 
10 0:12 1:1 2:0 3:0 4:-1 5:0 6:0 7:0 8:0 9:0 10:0 11:0 12:0 13:0 14:0 15:0 16:1 17:0 18:1 19:0 20:0 21:0 22:-1 23:0 24:0 25:1 26:0 
10 0:12 1:1 2:0 3:0 4:-1 5:0 6:0 7:0 8:0 9:1 10:-1 11:0 12:0 13:0 14:0 15:-1 16:1 17:0 18:1 19:-1 20:0 21:-1 22:-1 23:0 24:0 25:1 26:0 
10 0:12 1:1 2:0 3:0 4:-1 5:0 6:0 7:0 8:0 9:1 10:-1 11:-1 12:0 13:0 14:0 15:-1 16:1 17:0 18:1 19:-1 20:1 21:-1 22:-1 23:-1 24:0 25:1 26:-1 
10 0:12 1:1 2:0 3:0 4:-1 5:0 6:0 7:0 8:1 9:1 10:-1 11:-1 12:0 13:0 14:0 15:-1 16:1 17:0 18:1 19:-1 20:1 21:-1 22:-1 23:-1 24:0 25:1 26:-1 
10 0:12 1:1 2:0 3:0 4:-1 5:0 6:0 7:0 8:1 9:1 10:-1 11:-1 12:0 13:1 14:0 15:-1 16:1 17:0 18:1 19:-1 20:1 21:-1 22:-1 23:-1 24:0 25:1 26:-1 
10 0:5 1:0 2:0 3:0 4:0 5:0 6:0 7:0 8:0 9:0 10:0 11:0 12:0 13:0 14:0 15:0 16:0 17:0 18:0 19:1 20:0 21:-1 22:0 23:0 24:0 25:0 26:0 
10 0:5 1:0 2:0 3:0 4:0 5:0 6:0 7:0 8:0 9:0 10:0 11:0 12:0 13:0 14:0 15:1 16:0 17:0 18:0 19:1 20:0 21:-1 22:0 23:0 24:0 25:0 26:-1 
10 0:5 1:0 2:0 3:0 4:0 5:0 6:0 7:0 8:0 9:0 10:0 11:0 12:0 13:0 14:-1 15:1 16:0 17:0 18:0 19:1 20:1 21:-1 22:0 23:0 24:0 25:0 26:-1 
10 0:5 1:0 2:0 3:0 4:0 5:0 6:0 7:0 8:0 9:0 10:0 11:-1 12:0 13:0 14:0 15:0 16:0 17:0 18:1 19:0 20:0 21:0 22:0 23:0 24:0 25:0 26:0 
10 0:5 1:0 2:0 3:0 4:0 5:1 6:0 7:-1 8:0 9:-1 10:0 11:-1 12:-1 13:-1 14:-1 15:0 16:0 17:0 18:1 19:0 20:0 21:0 22:-1 23:0 24:-1 25:0 26:0 
10 0:5 1:0 2:0 3:0 4:0 5:1 6:0 7:-1 8:0 9:-1 10:0 11:-1 12:-1 13:-1 14:-1 15:1 16:0 17:-1 18:1 19:0 20:0 21:0 22:-1 23:0 24:-1 25:0 26:0 
10 0:12 1:0 2:0 3:0 4:0 5:0 6:0 7:0 8:0 9:0 10:0 11:0 12:0 13:0 14:0 15:0 16:0 17:0 18:0 19:1 20:0 21:0 22:0 23:0 24:0 25:0 26:0 
10 0:12 1:0 2:0 3:0 4:1 5:0 6:0 7:-1 8:0 9:0 10:0 11:-1 12:0 13:0 14:0 15:0 16:-1 17:0 18:0 19:1 20:0 21:0 22:0 23:0 24:0 25:0 26:0 
10 0:12 1:0 2:0 3:0 4:1 5:0 6:-1 7:-1 8:0 9:0 10:-1 11:-1 12:-1 13:0 14:1 15:0 16:-1 17:-1 18:0 19:1 20:0 21:0 22:0 23:0 24:-1 25:0 26:0 
10 0:11 1:0 2:0 3:0 4:0 5:0 6:0 7:0 8:0 9:0 10:0 11:0 12:0 13:1 14:0 15:0 16:0 17:0 18:0 19:0 20:0 21:0 22:0 23:0 24:0 25:0 26:0 
10 0:11 1:0 2:0 3:0 4:0 5:0 6:0 7:0 8:0 9:0 10:0 11:0 12:1 13:1 14:0 15:0 16:0 17:0 18:0 19:0 20:0 21:0 22:0 23:-1 24:-1 25:0 26:0 
10 0:11 1:0 2:1 3:0 4:0 5:0 6:0 7:0 8:0 9:0 10:0 11:0 12:1 13:1 14:0 15:0 16:0 17:0 18:0 19:0 20:0 21:0 22:0 23:-1 24:-1 25:0 26:0 
10 0:11 1:0 2:1 3:0 4:0 5:0 6:0 7:0 8:0 9:0 10:0 11:0 12:1 13:1 14:0 15:0 16:0 17:0 18:0 19:0 20:0 21:1 22:0 23:-1 24:-1 25:0 26:0 
10 0:11 1:0 2:1 3:0 4:0 5:0 6:0 7:0 8:0 9:0 10:0 11:0 12:1 13:1 14:0 15:0 16:0 17:0 18:0 19:1 20:0 21:1 22:0 23:-1 24:-1 25:0 26:0 
10 0:11 1:0 2:1 3:-1 4:0 5:0 6:0 7:0 8:0 9:0 10:0 11:0 12:1 13:1 14:0 15:0 16:1 17:-1 18:0 19:1 20:0 21:1 22:-1 23:-1 24:-1 25:0 26:0 
10 0:11 1:0 2:1 3:-1 4:0 5:0 6:0 7:0 8:0 9:0 10:0 11:0 12:1 13:1 14:0 15:1 16:1 17:-1 18:0 19:1 20:-1 21:1 22:-1 23:-1 24:-1 25:0 26:-1 
10 0:11 1:0 2:1 3:-1 4:0 5:1 6:0 7:0 8:0 9:0 10:0 11:0 12:1 13:1 14:0 15:1 16:1 17:-1 18:0 19:1 20:-1 21:1 22:-1 23:-1 24:-1 25:-1 26:-1 
10 0:11 1:1 2:1 3:-1 4:0 5:1 6:0 7:0 8:0 9:0 10:-1 11:0 12:1 13:1 14:0 15:1 16:1 17:-1 18:0 19:1 20:-1 21:1 22:-1 23:-1 24:-1 25:-1 26:-1 
10 0:11 1:1 2:1 3:-1 4:0 5:1 6:0 7:0 8:1 9:0 10:-1 11:0 12:1 13:1 14:0 15:1 16:1 17:-1 18:0 19:1 20:-1 21:1 22:-1 23:-1 24:-1 25:-1 26:-1 
10 0:8 1:0 2:-1 3:0 4:0 5:0 6:0 7:-1 8:0 9:1 10:0 11:0 12:0 13:0 14:0 15:0 16:0 17:0 18:0 19:0 20:0 21:0 22:0 23:0 24:0 25:0 26:0 
10 0:8 1:0 2:-1 3:0 4:0 5:0 6:0 7:-1 8:0 9:1 10:0 11:0 12:0 13:0 14:0 15:0 16:0 17:0 18:0 19:0 20:1 21:0 22:0 23:0 24:0 25:0 26:0 
10 0:8 1:0 2:-1 3:1 4:0 5:0 6:0 7:-1 8:0 9:1 10:0 11:0 12:0 13:-1 14:0 15:0 16:0 17:0 18:0 19:0 20:1 21:-1 22:-1 23:0 24:0 25:0 26:0 
10 0:12 1:0 2:0 3:0 4:0 5:0 6:0 7:0 8:0 9:0 10:0 11:0 12:0 13:0 14:0 15:0 16:1 17:0 18:0 19:0 20:0 21:0 22:0 23:0 24:0 25:0 26:0 
10 0:12 1:0 2:0 3:0 4:0 5:0 6:0 7:-1 8:-1 9:0 10:0 11:0 12:0 13:0 14:0 15:0 16:1 17:0 18:1 19:0 20:0 21:0 22:0 23:-1 24:0 25:0 26:-1 
10 0:9 1:0 2:0 3:0 4:0 5:0 6:0 7:0 8:0 9:0 10:-1 11:0 12:0 13:0 14:0 15:0 16:0 17:0 18:0 19:1 20:0 21:0 22:0 23:0 24:0 25:0 26:0 
10 0:9 1:0 2:0 3:0 4:0 5:0 6:0 7:0 8:0 9:0 10:-1 11:0 12:1 13:0 14:0 15:0 16:0 17:0 18:0 19:1 20:0 21:0 22:0 23:0 24:0 25:0 26:0 
10 0:9 1:1 2:0 3:0 4:0 5:-1 6:0 7:-1 8:0 9:0 10:-1 11:-1 12:1 13:0 14:0 15:-1 16:-1 17:0 18:0 19:1 20:0 21:-1 22:-1 23:-1 24:0 25:0 26:0 
10 0:9 1:0 2:0 3:0 4:0 5:0 6:0 7:0 8:0 9:0 10:0 11:0 12:0 13:-1 14:0 15:-1 16:0 17:0 18:1 19:0 20:0 21:0 22:-1 23:0 24:0 25:0 26:0 
10 0:9 1:0 2:0 3:0 4:0 5:1 6:0 7:0 8:0 9:0 10:-1 11:0 12:0 13:-1 14:0 15:-1 16:0 17:0 18:1 19:0 20:0 21:0 22:-1 23:0 24:0 25:-1 26:0 
10 0:9 1:0 2:0 3:0 4:0 5:1 6:0 7:0 8:0 9:0 10:-1 11:0 12:0 13:-1 14:1 15:-1 16:0 17:0 18:1 19:0 20:0 21:0 22:-1 23:0 24:0 25:-1 26:0 
10 0:4 1:0 2:-1 3:0 4:1 5:0 6:0 7:-1 8:0 9:0 10:0 11:0 12:0 13:0 14:0 15:0 16:0 17:0 18:0 19:0 20:0 21:-1 22:-1 23:-1 24:-1 25:0 26:0 
10 0:4 1:1 2:-1 3:0 4:1 5:0 6:0 7:-1 8:0 9:-1 10:0 11:0 12:0 13:-1 14:0 15:0 16:0 17:0 18:-1 19:0 20:0 21:-1 22:-1 23:-1 24:-1 25:0 26:0 
10 0:4 1:1 2:-1 3:0 4:1 5:0 6:0 7:-1 8:0 9:-1 10:0 11:0 12:0 13:-1 14:0 15:0 16:0 17:0 18:-1 19:1 20:0 21:-1 22:-1 23:-1 24:-1 25:0 26:0 
10 0:6 1:0 2:0 3:0 4:0 5:0 6:0 7:0 8:0 9:0 10:0 11:0 12:0 13:0 14:0 15:0 16:0 17:0 18:0 19:1 20:0 21:0 22:0 23:0 24:0 25:0 26:0 
10 0:6 1:0 2:0 3:0 4:0 5:0 6:0 7:0 8:-1 9:0 10:0 11:0 12:0 13:0 14:0 15:0 16:0 17:0 18:0 19:1 20:0 21:0 22:1 23:0 24:0 25:0 26:0 
10 0:6 1:0 2:0 3:0 4:0 5:0 6:0 7:0 8:-1 9:0 10:0 11:1 12:0 13:0 14:0 15:0 16:0 17:0 18:0 19:1 20:0 21:0 22:1 23:0 24:0 25:0 26:0 
10 0:6 1:0 2:0 3:0 4:0 5:0 6:0 7:0 8:-1 9:-1 10:0 11:1 12:0 13:0 14:0 15:1 16:-1 17:0 18:0 19:1 20:0 21:0 22:1 23:0 24:0 25:0 26:0 
10 0:11 1:0 2:0 3:0 4:0 5:0 6:0 7:0 8:0 9:1 10:0 11:0 12:0 13:0 14:0 15:0 16:0 17:0 18:0 19:0 20:0 21:0 22:0 23:0 24:0 25:0 26:0 
10 0:11 1:0 2:0 3:0 4:0 5:0 6:0 7:0 8:0 9:1 10:0 11:0 12:0 13:0 14:0 15:0 16:0 17:0 18:0 19:1 20:0 21:0 22:0 23:0 24:0 25:0 26:0 
10 0:11 1:0 2:0 3:0 4:0 5:0 6:-1 7:0 8:1 9:1 10:-1 11:0 12:0 13:-1 14:0 15:0 16:0 17:0 18:0 19:1 20:0 21:-1 22:0 23:0 24:0 25:0 26:0 
10 0:3 1:1 2:-1 3:0 4:-1 5:0 6:0 7:-1 8:0 9:0 10:-1 11:-1 12:0 13:-1 14:0 15:0 16:0 17:0 18:0 19:0 20:0 21:0 22:0 23:0 24:0 25:0 26:0 
10 0:12 1:0 2:0 3:0 4:0 5:0 6:0 7:0 8:0 9:1 10:0 11:0 12:0 13:0 14:0 15:0 16:0 17:0 18:0 19:0 20:-1 21:0 22:0 23:0 24:0 25:0 26:0 
10 0:12 1:0 2:0 3:-1 4:-1 5:1 6:0 7:-1 8:-1 9:1 10:0 11:0 12:0 13:0 14:0 15:0 16:0 17:-1 18:0 19:0 20:-1 21:0 22:0 23:0 24:0 25:0 26:-1 
10 0:12 1:0 2:0 3:-1 4:-1 5:1 6:0 7:-1 8:-1 9:1 10:0 11:0 12:0 13:0 14:0 15:0 16:0 17:-1 18:0 19:0 20:-1 21:0 22:1 23:-1 24:0 25:0 26:-1 
10 0:12 1:0 2:0 3:-1 4:-1 5:1 6:0 7:-1 8:-1 9:1 10:0 11:0 12:1 13:0 14:0 15:0 16:0 17:-1 18:0 19:0 20:-1 21:0 22:1 23:-1 24:0 25:0 26:-1 
10 0:12 1:0 2:0 3:-1 4:-1 5:1 6:0 7:-1 8:-1 9:1 10:0 11:0 12:1 13:0 14:0 15:0 16:0 17:-1 18:1 19:0 20:-1 21:0 22:1 23:-1 24:0 25:0 26:-1 
10 0:12 1:0 2:0 3:-1 4:-1 5:1 6:0 7:-1 8:-1 9:1 10:0 11:0 12:1 13:1 14:0 15:0 16:0 17:-1 18:1 19:0 20:-1 21:0 22:1 23:-1 24:0 25:0 26:-1 
10 0:12 1:0 2:0 3:-1 4:-1 5:1 6:0 7:-1 8:-1 9:1 10:0 11:0 12:1 13:1 14:0 15:1 16:0 17:-1 18:1 19:0 20:-1 21:0 22:1 23:-1 24:0 25:0 26:-1 
10 0:9 1:0 2:0 3:0 4:-1 5:0 6:0 7:0 8:0 9:0 10:0 11:0 12:0 13:0 14:0 15:-1 16:1 17:0 18:0 19:0 20:0 21:0 22:0 23:0 24:0 25:0 26:0 
10 0:9 1:0 2:0 3:0 4:-1 5:0 6:0 7:-1 8:0 9:1 10:0 11:0 12:0 13:0 14:0 15:-1 16:1 17:-1 18:0 19:0 20:0 21:0 22:0 23:-1 24:0 25:0 26:0 
10 0:9 1:0 2:0 3:1 4:-1 5:0 6:0 7:-1 8:0 9:1 10:0 11:0 12:0 13:0 14:0 15:-1 16:1 17:-1 18:0 19:-1 20:0 21:0 22:0 23:-1 24:-1 25:0 26:0 
10 0:9 1:0 2:0 3:1 4:-1 5:0 6:0 7:-1 8:0 9:1 10:0 11:0 12:1 13:0 14:0 15:-1 16:1 17:-1 18:0 19:-1 20:0 21:0 22:0 23:-1 24:-1 25:0 26:0 
10 0:5 1:0 2:-1 3:0 4:0 5:0 6:-1 7:0 8:1 9:0 10:0 11:0 12:0 13:0 14:0 15:0 16:-1 17:0 18:0 19:0 20:0 21:0 22:-1 23:0 24:0 25:0 26:0 
10 0:5 1:0 2:-1 3:0 4:0 5:-1 6:-1 7:0 8:1 9:0 10:0 11:0 12:0 13:0 14:0 15:0 16:-1 17:0 18:0 19:0 20:1 21:0 22:-1 23:0 24:0 25:0 26:0 
10 0:15 1:0 2:0 3:0 4:0 5:0 6:0 7:0 8:0 9:0 10:0 11:0 12:1 13:0 14:0 15:0 16:0 17:0 18:0 19:0 20:0 21:0 22:0 23:0 24:0 25:0 26:0 
10 0:15 1:0 2:0 3:0 4:0 5:0 6:-1 7:-1 8:0 9:0 10:0 11:0 12:1 13:0 14:0 15:0 16:0 17:0 18:1 19:0 20:0 21:0 22:0 23:0 24:0 25:0 26:-1 
10 0:15 1:0 2:0 3:0 4:0 5:0 6:-1 7:-1 8:0 9:0 10:0 11:0 12:1 13:0 14:0 15:0 16:-1 17:0 18:1 19:0 20:0 21:1 22:0 23:0 24:0 25:0 26:-1 
10 0:15 1:0 2:0 3:0 4:0 5:0 6:-1 7:-1 8:0 9:0 10:0 11:0 12:1 13:0 14:0 15:0 16:-1 17:-1 18:1 19:0 20:1 21:1 22:0 23:0 24:0 25:0 26:-1 
10 0:15 1:0 2:0 3:0 4:0 5:1 6:-1 7:-1 8:0 9:0 10:0 11:0 12:1 13:0 14:0 15:0 16:-1 17:-1 18:1 19:0 20:1 21:1 22:0 23:0 24:0 25:0 26:-1 
10 0:15 1:0 2:0 3:1 4:-1 5:1 6:-1 7:-1 8:0 9:0 10:0 11:0 12:1 13:0 14:0 15:0 16:-1 17:-1 18:1 19:0 20:1 21:1 22:0 23:-1 24:0 25:0 26:-1 
10 0:6 1:0 2:0 3:1 4:0 5:0 6:0 7:0 8:0 9:0 10:-1 11:0 12:0 13:0 14:0 15:0 16:0 17:0 18:0 19:0 20:0 21:0 22:0 23:0 24:0 25:0 26:0 
10 0:6 1:0 2:0 3:1 4:0 5:0 6:0 7:0 8:0 9:-1 10:-1 11:0 12:0 13:0 14:0 15:0 16:-1 17:-1 18:0 19:0 20:1 21:0 22:0 23:0 24:0 25:0 26:-1 
10 0:6 1:0 2:0 3:1 4:0 5:0 6:0 7:0 8:0 9:-1 10:-1 11:0 12:0 13:-1 14:0 15:-1 16:-1 17:-1 18:0 19:1 20:1 21:0 22:0 23:0 24:0 25:-1 26:-1 
10 0:9 1:0 2:0 3:0 4:0 5:0 6:0 7:0 8:0 9:0 10:0 11:0 12:0 13:0 14:0 15:1 16:0 17:0 18:0 19:0 20:0 21:0 22:0 23:0 24:0 25:0 26:0 
10 0:9 1:0 2:0 3:0 4:0 5:1 6:-1 7:0 8:0 9:-1 10:0 11:0 12:0 13:-1 14:0 15:1 16:0 17:0 18:0 19:0 20:-1 21:0 22:0 23:0 24:0 25:0 26:0 
10 0:9 1:0 2:0 3:0 4:0 5:1 6:-1 7:0 8:0 9:-1 10:0 11:0 12:0 13:-1 14:1 15:1 16:0 17:0 18:0 19:0 20:-1 21:0 22:0 23:0 24:0 25:0 26:0 
10 0:9 1:0 2:0 3:0 4:0 5:1 6:-1 7:0 8:0 9:-1 10:-1 11:0 12:0 13:-1 14:1 15:1 16:0 17:0 18:0 19:1 20:-1 21:0 22:-1 23:0 24:0 25:0 26:0 
10 0:9 1:0 2:0 3:0 4:-1 5:1 6:-1 7:0 8:0 9:-1 10:-1 11:0 12:1 13:-1 14:1 15:1 16:0 17:0 18:0 19:1 20:-1 21:-1 22:-1 23:0 24:0 25:0 26:-1 
10 0:15 1:0 2:0 3:0 4:0 5:0 6:0 7:0 8:0 9:0 10:0 11:0 12:0 13:1 14:0 15:0 16:0 17:0 18:0 19:0 20:0 21:0 22:0 23:0 24:-1 25:0 26:0 
10 0:15 1:0 2:-1 3:0 4:-1 5:-1 6:0 7:0 8:-1 9:1 10:0 11:0 12:0 13:1 14:0 15:0 16:0 17:0 18:0 19:0 20:0 21:0 22:0 23:-1 24:-1 25:0 26:0 
10 0:15 1:0 2:-1 3:0 4:-1 5:-1 6:0 7:0 8:-1 9:1 10:0 11:0 12:0 13:1 14:0 15:0 16:-1 17:0 18:-1 19:1 20:0 21:0 22:0 23:-1 24:-1 25:0 26:0 
10 0:4 1:-1 2:0 3:0 4:0 5:0 6:0 7:0 8:0 9:1 10:0 11:0 12:0 13:0 14:0 15:0 16:0 17:0 18:0 19:0 20:0 21:0 22:0 23:-1 24:0 25:0 26:0 
10 0:4 1:-1 2:0 3:-1 4:0 5:0 6:0 7:0 8:0 9:1 10:0 11:-1 12:0 13:0 14:0 15:0 16:-1 17:0 18:0 19:0 20:-1 21:0 22:1 23:-1 24:-1 25:0 26:0 
10 0:4 1:-1 2:0 3:-1 4:0 5:1 6:0 7:0 8:0 9:1 10:0 11:-1 12:-1 13:0 14:0 15:0 16:-1 17:0 18:-1 19:0 20:-1 21:0 22:1 23:-1 24:-1 25:0 26:0 
10 0:5 1:1 2:0 3:0 4:-1 5:0 6:0 7:-1 8:0 9:0 10:0 11:0 12:0 13:0 14:-1 15:0 16:0 17:0 18:-1 19:0 20:0 21:0 22:0 23:0 24:0 25:0 26:0 
10 0:5 1:1 2:0 3:0 4:-1 5:1 6:0 7:-1 8:0 9:0 10:0 11:0 12:0 13:0 14:-1 15:0 16:0 17:0 18:-1 19:0 20:0 21:0 22:0 23:0 24:0 25:0 26:0 
10 0:5 1:0 2:0 3:0 4:0 5:0 6:0 7:0 8:0 9:0 10:0 11:0 12:0 13:0 14:0 15:1 16:0 17:0 18:0 19:0 20:0 21:0 22:0 23:0 24:0 25:0 26:0 
10 0:5 1:0 2:0 3:1 4:-1 5:-1 6:0 7:-1 8:0 9:0 10:0 11:-1 12:0 13:0 14:0 15:1 16:-1 17:0 18:-1 19:0 20:0 21:0 22:0 23:0 24:0 25:0 26:-1 
10 0:13 1:0 2:0 3:0 4:0 5:0 6:0 7:0 8:1 9:0 10:0 11:0 12:0 13:-1 14:-1 15:-1 16:0 17:0 18:0 19:-1 20:0 21:0 22:0 23:0 24:0 25:0 26:0 
10 0:13 1:1 2:0 3:0 4:0 5:0 6:0 7:0 8:1 9:0 10:0 11:0 12:0 13:-1 14:-1 15:-1 16:0 17:0 18:0 19:-1 20:0 21:0 22:0 23:0 24:0 25:0 26:0 
10 0:13 1:1 2:0 3:0 4:0 5:1 6:0 7:0 8:1 9:0 10:0 11:0 12:0 13:-1 14:-1 15:-1 16:0 17:0 18:0 19:-1 20:0 21:0 22:0 23:0 24:0 25:0 26:0 
10 0:13 1:1 2:0 3:0 4:0 5:1 6:0 7:0 8:1 9:0 10:0 11:0 12:0 13:-1 14:-1 15:-1 16:0 17:0 18:1 19:-1 20:0 21:0 22:0 23:0 24:0 25:0 26:0 
10 0:13 1:1 2:0 3:-1 4:0 5:1 6:0 7:0 8:1 9:0 10:0 11:-1 12:1 13:-1 14:-1 15:-1 16:0 17:-1 18:1 19:-1 20:0 21:-1 22:0 23:0 24:0 25:0 26:-1 
10 0:13 1:0 2:0 3:0 4:0 5:0 6:0 7:-1 8:0 9:0 10:-1 11:0 12:0 13:0 14:1 15:-1 16:0 17:-1 18:0 19:0 20:0 21:0 22:0 23:0 24:0 25:0 26:0 
10 0:13 1:0 2:0 3:0 4:0 5:0 6:0 7:-1 8:0 9:0 10:-1 11:0 12:0 13:0 14:1 15:-1 16:0 17:-1 18:0 19:0 20:0 21:1 22:0 23:0 24:0 25:0 26:0 
10 0:13 1:0 2:0 3:-1 4:0 5:0 6:0 7:-1 8:-1 9:0 10:-1 11:0 12:1 13:0 14:1 15:-1 16:0 17:-1 18:0 19:0 20:0 21:1 22:0 23:0 24:0 25:0 26:0 
10 0:13 1:0 2:0 3:-1 4:0 5:0 6:0 7:-1 8:-1 9:0 10:-1 11:0 12:1 13:0 14:1 15:-1 16:0 17:-1 18:0 19:0 20:1 21:1 22:0 23:0 24:0 25:0 26:0 
10 0:13 1:0 2:0 3:-1 4:0 5:0 6:0 7:-1 8:-1 9:0 10:-1 11:0 12:1 13:0 14:1 15:-1 16:0 17:-1 18:0 19:1 20:1 21:1 22:0 23:0 24:0 25:0 26:0 
10 0:13 1:0 2:0 3:-1 4:1 5:0 6:0 7:-1 8:-1 9:0 10:-1 11:0 12:1 13:0 14:1 15:-1 16:0 17:-1 18:0 19:1 20:1 21:1 22:0 23:0 24:0 25:0 26:0 
10 0:13 1:-1 2:0 3:-1 4:1 5:1 6:0 7:-1 8:-1 9:0 10:-1 11:0 12:1 13:0 14:1 15:-1 16:0 17:-1 18:0 19:1 20:1 21:1 22:0 23:0 24:0 25:0 26:0 
10 0:13 1:-1 2:0 3:-1 4:1 5:1 6:0 7:-1 8:-1 9:0 10:-1 11:0 12:1 13:0 14:1 15:-1 16:0 17:-1 18:1 19:1 20:1 21:1 22:0 23:0 24:-1 25:0 26:0 
10 0:11 1:0 2:0 3:-1 4:0 5:0 6:0 7:0 8:-1 9:-1 10:0 11:0 12:0 13:0 14:0 15:0 16:1 17:0 18:0 19:0 20:0 21:0 22:0 23:0 24:0 25:0 26:0 
10 0:11 1:0 2:0 3:-1 4:0 5:0 6:0 7:0 8:-1 9:-1 10:0 11:0 12:0 13:0 14:0 15:0 16:1 17:0 18:0 19:0 20:1 21:0 22:0 23:0 24:0 25:0 26:0 
10 0:11 1:0 2:1 3:-1 4:0 5:0 6:0 7:0 8:-1 9:-1 10:0 11:0 12:0 13:0 14:0 15:0 16:1 17:0 18:0 19:0 20:1 21:0 22:0 23:0 24:0 25:0 26:0 
10 0:11 1:0 2:1 3:-1 4:0 5:0 6:0 7:-1 8:-1 9:-1 10:0 11:-1 12:1 13:0 14:0 15:-1 16:1 17:0 18:0 19:0 20:1 21:-1 22:0 23:0 24:0 25:-1 26:0 
10 0:11 1:0 2:1 3:-1 4:0 5:0 6:0 7:-1 8:-1 9:-1 10:0 11:-1 12:1 13:0 14:0 15:-1 16:1 17:0 18:0 19:1 20:1 21:-1 22:0 23:0 24:0 25:-1 26:0 
10 0:11 1:0 2:1 3:-1 4:0 5:0 6:0 7:-1 8:-1 9:-1 10:0 11:-1 12:1 13:0 14:1 15:-1 16:1 17:0 18:0 19:1 20:1 21:-1 22:0 23:0 24:0 25:-1 26:-1 
10 0:10 1:1 2:0 3:0 4:0 5:0 6:0 7:0 8:0 9:0 10:0 11:0 12:0 13:0 14:0 15:0 16:0 17:0 18:0 19:0 20:0 21:0 22:0 23:0 24:0 25:0 26:0 
10 0:10 1:1 2:0 3:0 4:1 5:0 6:0 7:0 8:0 9:0 10:0 11:0 12:0 13:0 14:0 15:0 16:0 17:0 18:0 19:0 20:0 21:0 22:0 23:0 24:0 25:0 26:0 
10 0:10 1:1 2:0 3:-1 4:1 5:0 6:0 7:0 8:0 9:0 10:0 11:0 12:-1 13:0 14:0 15:0 16:0 17:0 18:0 19:0 20:0 21:1 22:0 23:0 24:0 25:0 26:0 
10 0:10 1:1 2:0 3:-1 4:1 5:0 6:0 7:0 8:0 9:0 10:-1 11:0 12:-1 13:0 14:0 15:0 16:0 17:0 18:1 19:0 20:0 21:1 22:-1 23:0 24:0 25:0 26:0 
10 0:10 1:1 2:0 3:-1 4:1 5:1 6:0 7:0 8:0 9:0 10:-1 11:0 12:-1 13:0 14:0 15:0 16:0 17:0 18:1 19:0 20:0 21:1 22:-1 23:0 24:0 25:0 26:0 
10 0:10 1:1 2:0 3:-1 4:1 5:1 6:0 7:0 8:0 9:1 10:-1 11:0 12:-1 13:0 14:0 15:0 16:0 17:-1 18:1 19:0 20:0 21:1 22:-1 23:0 24:0 25:0 26:0 
10 0:5 1:0 2:0 3:0 4:0 5:0 6:0 7:1 8:0 9:0 10:0 11:0 12:0 13:0 14:0 15:0 16:0 17:0 18:0 19:-1 20:0 21:0 22:0 23:0 24:-1 25:0 26:0 
10 0:5 1:0 2:1 3:0 4:0 5:0 6:0 7:1 8:0 9:0 10:0 11:0 12:0 13:0 14:0 15:0 16:0 17:0 18:0 19:-1 20:0 21:0 22:0 23:0 24:-1 25:0 26:0 
10 0:5 1:0 2:1 3:0 4:0 5:0 6:0 7:1 8:0 9:0 10:0 11:-1 12:0 13:0 14:0 15:-1 16:0 17:0 18:0 19:-1 20:-1 21:0 22:0 23:0 24:-1 25:1 26:0 
10 0:5 1:1 2:1 3:-1 4:-1 5:0 6:0 7:1 8:0 9:0 10:0 11:-1 12:0 13:0 14:0 15:-1 16:0 17:0 18:0 19:-1 20:-1 21:-1 22:0 23:0 24:-1 25:1 26:0 
10 0:8 1:0 2:0 3:0 4:0 5:0 6:-1 7:0 8:0 9:0 10:0 11:0 12:0 13:0 14:0 15:0 16:0 17:0 18:0 19:0 20:0 21:1 22:0 23:0 24:0 25:0 26:0 
10 0:8 1:0 2:0 3:0 4:0 5:0 6:-1 7:0 8:1 9:0 10:0 11:0 12:0 13:0 14:0 15:0 16:0 17:0 18:0 19:0 20:0 21:1 22:0 23:0 24:0 25:0 26:-1 
10 0:8 1:0 2:0 3:1 4:0 5:0 6:-1 7:0 8:1 9:0 10:0 11:0 12:0 13:0 14:0 15:0 16:0 17:0 18:0 19:0 20:0 21:1 22:0 23:0 24:0 25:0 26:-1 
10 0:8 1:0 2:0 3:1 4:0 5:0 6:-1 7:0 8:1 9:0 10:0 11:0 12:0 13:0 14:1 15:0 16:0 17:0 18:0 19:0 20:0 21:1 22:0 23:0 24:0 25:0 26:-1 
10 0:8 1:0 2:0 3:1 4:-1 5:0 6:-1 7:0 8:1 9:1 10:-1 11:0 12:0 13:0 14:1 15:0 16:-1 17:0 18:0 19:0 20:0 21:1 22:-1 23:0 24:0 25:0 26:-1 
10 0:10 1:0 2:0 3:0 4:0 5:0 6:0 7:0 8:0 9:0 10:0 11:0 12:0 13:0 14:0 15:0 16:0 17:0 18:1 19:0 20:0 21:0 22:0 23:0 24:0 25:0 26:0 
10 0:10 1:0 2:0 3:0 4:0 5:0 6:0 7:0 8:0 9:0 10:0 11:0 12:0 13:0 14:0 15:0 16:0 17:0 18:1 19:0 20:0 21:0 22:0 23:1 24:0 25:0 26:0 
10 0:10 1:0 2:0 3:0 4:0 5:0 6:0 7:1 8:0 9:0 10:0 11:0 12:0 13:0 14:0 15:0 16:0 17:0 18:1 19:0 20:0 21:0 22:0 23:1 24:0 25:0 26:0 
10 0:10 1:0 2:0 3:0 4:0 5:0 6:0 7:1 8:0 9:0 10:0 11:0 12:0 13:0 14:1 15:0 16:0 17:0 18:1 19:0 20:0 21:0 22:0 23:1 24:0 25:0 26:0 
10 0:10 1:0 2:-1 3:-1 4:-1 5:-1 6:-1 7:1 8:0 9:0 10:0 11:0 12:0 13:0 14:1 15:1 16:0 17:0 18:1 19:0 20:0 21:-1 22:0 23:1 24:-1 25:-1 26:-1 
10 0:10 1:0 2:-1 3:-1 4:-1 5:-1 6:-1 7:1 8:0 9:1 10:0 11:0 12:0 13:0 14:1 15:1 16:0 17:0 18:1 19:0 20:0 21:-1 22:0 23:1 24:-1 25:-1 26:-1 
10 0:10 1:0 2:-1 3:-1 4:-1 5:-1 6:-1 7:1 8:0 9:1 10:0 11:1 12:0 13:0 14:1 15:1 16:0 17:0 18:1 19:0 20:0 21:-1 22:0 23:1 24:-1 25:-1 26:-1 
10 0:13 1:0 2:0 3:0 4:-1 5:0 6:-1 7:0 8:-1 9:0 10:0 11:-1 12:-1 13:1 14:0 15:0 16:-1 17:0 18:0 19:0 20:0 21:0 22:0 23:0 24:0 25:0 26:0 
10 0:13 1:0 2:0 3:0 4:-1 5:1 6:-1 7:0 8:-1 9:0 10:0 11:-1 12:-1 13:1 14:0 15:0 16:-1 17:-1 18:0 19:0 20:0 21:0 22:0 23:0 24:0 25:0 26:0 
10 0:18 1:0 2:-1 3:0 4:0 5:0 6:0 7:0 8:0 9:0 10:0 11:0 12:0 13:0 14:1 15:0 16:0 17:0 18:0 19:0 20:0 21:-1 22:0 23:0 24:0 25:0 26:0 
10 0:18 1:0 2:-1 3:0 4:0 5:0 6:0 7:0 8:1 9:0 10:0 11:0 12:0 13:0 14:1 15:0 16:0 17:0 18:0 19:0 20:0 21:-1 22:0 23:0 24:-1 25:0 26:0 
10 0:18 1:1 2:-1 3:-1 4:0 5:0 6:0 7:0 8:1 9:0 10:0 11:0 12:0 13:0 14:1 15:0 16:0 17:0 18:0 19:0 20:0 21:-1 22:0 23:-1 24:-1 25:0 26:0 
10 0:18 1:1 2:-1 3:-1 4:0 5:0 6:0 7:0 8:1 9:0 10:0 11:0 12:0 13:0 14:1 15:1 16:0 17:0 18:0 19:0 20:0 21:-1 22:0 23:-1 24:-1 25:0 26:0 
10 0:18 1:1 2:-1 3:-1 4:1 5:0 6:0 7:0 8:1 9:0 10:0 11:-1 12:0 13:0 14:1 15:1 16:0 17:0 18:0 19:0 20:0 21:-1 22:0 23:-1 24:-1 25:0 26:0 
10 0:18 1:1 2:-1 3:-1 4:1 5:0 6:0 7:-1 8:1 9:0 10:0 11:-1 12:0 13:0 14:1 15:1 16:0 17:0 18:1 19:0 20:0 21:-1 22:0 23:-1 24:-1 25:0 26:0 
10 0:18 1:1 2:-1 3:-1 4:1 5:0 6:0 7:-1 8:1 9:0 10:0 11:-1 12:0 13:0 14:1 15:1 16:0 17:0 18:1 19:1 20:0 21:-1 22:-1 23:-1 24:-1 25:0 26:0 
10 0:18 1:1 2:-1 3:-1 4:1 5:0 6:0 7:-1 8:1 9:0 10:0 11:-1 12:0 13:0 14:1 15:1 16:0 17:0 18:1 19:1 20:0 21:-1 22:-1 23:-1 24:-1 25:1 26:0 
10 0:18 1:1 2:-1 3:-1 4:1 5:0 6:0 7:-1 8:1 9:0 10:0 11:-1 12:0 13:0 14:1 15:1 16:1 17:0 18:1 19:1 20:0 21:-1 22:-1 23:-1 24:-1 25:1 26:0 
10 0:18 1:1 2:-1 3:-1 4:1 5:0 6:0 7:-1 8:1 9:0 10:0 11:-1 12:0 13:0 14:1 15:1 16:1 17:0 18:1 19:1 20:1 21:-1 22:-1 23:-1 24:-1 25:1 26:-1 
10 0:8 1:0 2:0 3:0 4:0 5:0 6:0 7:0 8:0 9:0 10:-1 11:0 12:0 13:-1 14:0 15:0 16:0 17:-1 18:1 19:0 20:0 21:0 22:0 23:0 24:0 25:0 26:0 
10 0:5 1:0 2:0 3:-1 4:0 5:0 6:0 7:0 8:-1 9:0 10:-1 11:-1 12:0 13:1 14:0 15:0 16:0 17:0 18:0 19:-1 20:-1 21:0 22:0 23:0 24:-1 25:-1 26:-1 
10 0:9 1:0 2:0 3:0 4:0 5:0 6:0 7:0 8:0 9:0 10:0 11:0 12:0 13:0 14:0 15:0 16:0 17:0 18:0 19:0 20:0 21:1 22:0 23:0 24:0 25:-1 26:0 
10 0:9 1:0 2:0 3:0 4:0 5:0 6:0 7:0 8:0 9:0 10:0 11:0 12:0 13:0 14:0 15:0 16:0 17:0 18:0 19:1 20:0 21:1 22:0 23:0 24:0 25:-1 26:0 
10 0:9 1:0 2:0 3:0 4:0 5:1 6:0 7:0 8:0 9:0 10:0 11:0 12:0 13:0 14:0 15:0 16:0 17:0 18:0 19:1 20:0 21:1 22:0 23:0 24:0 25:-1 26:0 
10 0:9 1:0 2:0 3:0 4:-1 5:1 6:0 7:0 8:0 9:0 10:0 11:0 12:0 13:-1 14:0 15:0 16:0 17:0 18:0 19:1 20:1 21:1 22:0 23:0 24:-1 25:-1 26:0 
10 0:9 1:0 2:-1 3:0 4:-1 5:1 6:0 7:0 8:0 9:0 10:0 11:0 12:1 13:-1 14:0 15:0 16:0 17:-1 18:0 19:1 20:1 21:1 22:0 23:0 24:-1 25:-1 26:0 
10 0:9 1:0 2:-1 3:0 4:-1 5:1 6:0 7:0 8:0 9:0 10:0 11:0 12:1 13:-1 14:0 15:1 16:0 17:-1 18:0 19:1 20:1 21:1 22:0 23:0 24:-1 25:-1 26:0 
10 0:9 1:0 2:-1 3:0 4:-1 5:1 6:0 7:0 8:-1 9:-1 10:0 11:0 12:1 13:-1 14:1 15:1 16:0 17:-1 18:0 19:1 20:1 21:1 22:-1 23:0 24:-1 25:-1 26:0 
10 0:9 1:1 2:-1 3:0 4:-1 5:1 6:0 7:0 8:-1 9:-1 10:0 11:0 12:1 13:-1 14:1 15:1 16:0 17:-1 18:0 19:1 20:1 21:1 22:-1 23:0 24:-1 25:-1 26:0 
10 0:9 1:1 2:-1 3:1 4:-1 5:1 6:0 7:0 8:-1 9:-1 10:0 11:0 12:1 13:-1 14:1 15:1 16:0 17:-1 18:0 19:1 20:1 21:1 22:-1 23:0 24:-1 25:-1 26:0 
10 0:7 1:0 2:0 3:0 4:0 5:0 6:0 7:0 8:0 9:0 10:0 11:0 12:0 13:0 14:0 15:0 16:0 17:0 18:1 19:0 20:0 21:0 22:0 23:0 24:0 25:0 26:0 
10 0:7 1:1 2:0 3:0 4:0 5:0 6:0 7:-1 8:0 9:0 10:0 11:0 12:0 13:0 14:0 15:-1 16:0 17:0 18:1 19:0 20:-1 21:0 22:0 23:0 24:0 25:0 26:0 
10 0:7 1:1 2:0 3:0 4:0 5:0 6:0 7:-1 8:0 9:0 10:0 11:0 12:0 13:0 14:0 15:-1 16:0 17:0 18:1 19:-1 20:-1 21:-1 22:0 23:0 24:0 25:0 26:1 
10 0:7 1:1 2:-1 3:0 4:0 5:1 6:0 7:-1 8:0 9:0 10:0 11:0 12:0 13:0 14:0 15:-1 16:0 17:0 18:1 19:-1 20:-1 21:-1 22:0 23:0 24:0 25:-1 26:1 
10 0:5 1:0 2:0 3:0 4:0 5:0 6:0 7:0 8:1 9:0 10:0 11:0 12:0 13:0 14:0 15:-1 16:0 17:0 18:0 19:0 20:-1 21:0 22:0 23:0 24:0 25:0 26:0 
10 0:5 1:0 2:0 3:-1 4:-1 5:1 6:0 7:-1 8:1 9:0 10:0 11:0 12:0 13:0 14:-1 15:-1 16:0 17:0 18:-1 19:0 20:-1 21:0 22:0 23:0 24:0 25:0 26:0 
10 0:5 1:0 2:0 3:-1 4:-1 5:1 6:0 7:-1 8:1 9:0 10:0 11:0 12:0 13:-1 14:-1 15:-1 16:0 17:0 18:-1 19:1 20:-1 21:-1 22:0 23:0 24:0 25:0 26:0 
10 0:9 1:1 2:0 3:0 4:0 5:0 6:-1 7:0 8:0 9:0 10:-1 11:0 12:0 13:0 14:0 15:0 16:0 17:0 18:0 19:0 20:0 21:0 22:0 23:0 24:-1 25:0 26:0 
10 0:9 1:1 2:0 3:0 4:0 5:0 6:-1 7:0 8:1 9:0 10:-1 11:0 12:0 13:0 14:0 15:0 16:-1 17:0 18:0 19:0 20:0 21:0 22:0 23:0 24:-1 25:0 26:0 
10 0:9 1:1 2:0 3:0 4:0 5:0 6:-1 7:0 8:1 9:0 10:-1 11:1 12:0 13:0 14:-1 15:0 16:-1 17:0 18:0 19:0 20:0 21:0 22:0 23:0 24:-1 25:0 26:0 
10 0:5 1:1 2:-1 3:0 4:0 5:0 6:0 7:0 8:-1 9:0 10:0 11:0 12:-1 13:0 14:0 15:0 16:-1 17:0 18:0 19:0 20:0 21:0 22:-1 23:0 24:0 25:0 26:0 
10 0:9 1:0 2:0 3:0 4:0 5:0 6:0 7:0 8:0 9:0 10:0 11:0 12:0 13:0 14:0 15:1 16:0 17:0 18:0 19:0 20:0 21:0 22:0 23:0 24:0 25:0 26:0 
10 0:9 1:0 2:0 3:0 4:0 5:0 6:0 7:0 8:0 9:0 10:0 11:0 12:0 13:0 14:0 15:1 16:1 17:0 18:0 19:0 20:0 21:0 22:0 23:0 24:0 25:0 26:0 
10 0:9 1:0 2:0 3:0 4:0 5:0 6:0 7:0 8:0 9:1 10:0 11:0 12:0 13:0 14:0 15:1 16:1 17:0 18:0 19:0 20:0 21:0 22:0 23:0 24:0 25:0 26:0 
10 0:9 1:0 2:0 3:0 4:0 5:0 6:0 7:0 8:0 9:1 10:0 11:0 12:1 13:0 14:0 15:1 16:1 17:0 18:0 19:0 20:0 21:0 22:0 23:0 24:0 25:0 26:0 
10 0:5 1:0 2:0 3:0 4:0 5:0 6:0 7:0 8:0 9:0 10:0 11:-1 12:0 13:0 14:0 15:0 16:0 17:0 18:-1 19:1 20:0 21:0 22:0 23:0 24:0 25:0 26:0 
10 0:8 1:0 2:0 3:0 4:0 5:0 6:0 7:0 8:0 9:0 10:0 11:-1 12:0 13:0 14:0 15:0 16:1 17:0 18:0 19:0 20:0 21:-1 22:0 23:0 24:0 25:0 26:0 
10 0:8 1:0 2:0 3:0 4:-1 5:0 6:0 7:0 8:1 9:0 10:0 11:-1 12:0 13:0 14:0 15:0 16:1 17:0 18:0 19:0 20:0 21:-1 22:-1 23:0 24:0 25:0 26:0 
10 0:8 1:0 2:0 3:0 4:0 5:0 6:0 7:0 8:0 9:0 10:0 11:-1 12:0 13:0 14:0 15:0 16:0 17:0 18:0 19:0 20:0 21:1 22:0 23:0 24:-1 25:0 26:0 
10 0:8 1:-1 2:0 3:0 4:0 5:0 6:0 7:0 8:0 9:-1 10:0 11:-1 12:0 13:0 14:0 15:0 16:0 17:0 18:0 19:0 20:1 21:1 22:0 23:0 24:-1 25:0 26:-1 
10 0:8 1:-1 2:0 3:0 4:0 5:0 6:0 7:0 8:0 9:-1 10:0 11:-1 12:0 13:0 14:1 15:0 16:0 17:0 18:0 19:0 20:1 21:1 22:0 23:0 24:-1 25:0 26:-1 
10 0:8 1:-1 2:0 3:0 4:0 5:0 6:0 7:0 8:0 9:-1 10:0 11:-1 12:0 13:0 14:1 15:1 16:0 17:0 18:0 19:0 20:1 21:1 22:0 23:0 24:-1 25:0 26:-1 
10 0:8 1:-1 2:0 3:0 4:0 5:1 6:-1 7:0 8:0 9:-1 10:0 11:-1 12:0 13:0 14:1 15:1 16:0 17:0 18:0 19:0 20:1 21:1 22:0 23:-1 24:-1 25:0 26:-1 
10 0:7 1:0 2:0 3:0 4:0 5:0 6:0 7:0 8:0 9:1 10:0 11:0 12:0 13:0 14:0 15:0 16:0 17:0 18:0 19:0 20:0 21:0 22:0 23:0 24:0 25:0 26:0 
10 0:7 1:0 2:-1 3:1 4:0 5:0 6:0 7:-1 8:0 9:1 10:0 11:0 12:0 13:0 14:0 15:0 16:0 17:0 18:-1 19:0 20:0 21:-1 22:0 23:0 24:0 25:0 26:0 
10 0:7 1:0 2:-1 3:1 4:0 5:0 6:0 7:-1 8:0 9:1 10:0 11:0 12:0 13:0 14:0 15:1 16:0 17:0 18:-1 19:-1 20:-1 21:-1 22:0 23:0 24:-1 25:0 26:0 
10 0:5 1:0 2:0 3:0 4:0 5:0 6:0 7:0 8:-1 9:0 10:-1 11:0 12:0 13:-1 14:-1 15:0 16:0 17:0 18:1 19:0 20:0 21:0 22:0 23:0 24:0 25:0 26:0 
10 0:5 1:0 2:0 3:0 4:0 5:0 6:0 7:-1 8:-1 9:0 10:-1 11:0 12:0 13:-1 14:-1 15:0 16:0 17:0 18:1 19:0 20:0 21:0 22:0 23:1 24:-1 25:0 26:0 
10 0:4 1:0 2:0 3:0 4:0 5:0 6:0 7:0 8:0 9:0 10:0 11:0 12:0 13:0 14:0 15:1 16:0 17:0 18:0 19:0 20:0 21:0 22:0 23:0 24:0 25:0 26:0 
10 0:7 1:0 2:0 3:0 4:0 5:0 6:1 7:0 8:0 9:0 10:0 11:0 12:0 13:0 14:0 15:0 16:0 17:0 18:0 19:0 20:0 21:0 22:0 23:0 24:0 25:0 26:0 
10 0:7 1:0 2:-1 3:0 4:0 5:-1 6:1 7:0 8:0 9:1 10:0 11:0 12:0 13:0 14:0 15:0 16:-1 17:0 18:0 19:-1 20:0 21:0 22:-1 23:0 24:-1 25:0 26:0 
10 0:7 1:1 2:-1 3:0 4:0 5:-1 6:1 7:0 8:0 9:1 10:0 11:0 12:0 13:0 14:0 15:0 16:-1 17:0 18:0 19:-1 20:0 21:0 22:-1 23:0 24:-1 25:-1 26:0 
10 0:10 1:1 2:0 3:0 4:0 5:0 6:0 7:0 8:0 9:0 10:0 11:0 12:0 13:0 14:0 15:0 16:0 17:0 18:0 19:0 20:0 21:0 22:0 23:0 24:0 25:0 26:-1 
10 0:10 1:1 2:-1 3:0 4:0 5:0 6:0 7:0 8:-1 9:0 10:0 11:-1 12:-1 13:0 14:1 15:-1 16:-1 17:0 18:0 19:0 20:0 21:0 22:-1 23:0 24:0 25:0 26:-1 
10 0:10 1:1 2:-1 3:0 4:0 5:1 6:0 7:0 8:-1 9:0 10:0 11:-1 12:-1 13:0 14:1 15:-1 16:-1 17:0 18:0 19:0 20:0 21:0 22:-1 23:0 24:0 25:0 26:-1 
10 0:5 1:-1 2:0 3:0 4:0 5:0 6:0 7:0 8:-1 9:0 10:0 11:-1 12:-1 13:0 14:0 15:0 16:0 17:0 18:1 19:0 20:0 21:0 22:-1 23:0 24:0 25:0 26:0 
10 0:13 1:0 2:0 3:0 4:0 5:0 6:0 7:0 8:0 9:0 10:0 11:0 12:0 13:0 14:0 15:0 16:0 17:0 18:0 19:0 20:1 21:0 22:0 23:-1 24:0 25:0 26:0 
10 0:13 1:0 2:0 3:0 4:0 5:1 6:0 7:0 8:0 9:0 10:0 11:0 12:0 13:0 14:0 15:0 16:-1 17:0 18:0 19:0 20:1 21:0 22:0 23:-1 24:0 25:0 26:0 
10 0:13 1:0 2:0 3:0 4:0 5:1 6:0 7:0 8:0 9:0 10:0 11:0 12:0 13:0 14:0 15:0 16:-1 17:0 18:1 19:0 20:1 21:0 22:0 23:-1 24:-1 25:0 26:0 
10 0:13 1:0 2:0 3:0 4:0 5:1 6:0 7:0 8:0 9:0 10:0 11:0 12:1 13:0 14:0 15:0 16:-1 17:0 18:1 19:0 20:1 21:0 22:0 23:-1 24:-1 25:0 26:0 
10 0:13 1:0 2:0 3:0 4:0 5:1 6:0 7:0 8:0 9:0 10:0 11:0 12:1 13:0 14:0 15:0 16:-1 17:0 18:1 19:1 20:1 21:0 22:0 23:-1 24:-1 25:0 26:0 
10 0:13 1:0 2:0 3:0 4:0 5:1 6:0 7:0 8:0 9:0 10:0 11:0 12:1 13:0 14:0 15:0 16:-1 17:1 18:1 19:1 20:1 21:0 22:0 23:-1 24:-1 25:0 26:0 
10 0:13 1:0 2:0 3:0 4:0 5:1 6:-1 7:0 8:0 9:0 10:0 11:0 12:1 13:0 14:1 15:0 16:-1 17:1 18:1 19:1 20:1 21:0 22:0 23:-1 24:-1 25:0 26:0 
10 0:6 1:0 2:0 3:0 4:0 5:0 6:0 7:0 8:0 9:0 10:0 11:0 12:0 13:0 14:0 15:1 16:0 17:0 18:0 19:0 20:0 21:0 22:0 23:0 24:0 25:0 26:0 
10 0:6 1:0 2:0 3:0 4:0 5:0 6:0 7:0 8:0 9:0 10:0 11:0 12:1 13:0 14:0 15:1 16:0 17:0 18:0 19:0 20:0 21:0 22:0 23:0 24:0 25:0 26:0 
10 0:6 1:-1 2:-1 3:-1 4:-1 5:-1 6:-1 7:0 8:1 9:-1 10:0 11:0 12:1 13:0 14:0 15:1 16:0 17:0 18:0 19:0 20:-1 21:0 22:0 23:0 24:0 25:0 26:0 
10 0:6 1:0 2:0 3:0 4:0 5:0 6:0 7:0 8:-1 9:0 10:0 11:0 12:0 13:0 14:0 15:0 16:0 17:0 18:1 19:0 20:0 21:0 22:-1 23:0 24:0 25:0 26:0 
10 0:6 1:0 2:0 3:0 4:0 5:1 6:0 7:0 8:-1 9:0 10:0 11:0 12:0 13:0 14:0 15:0 16:0 17:0 18:1 19:0 20:0 21:0 22:-1 23:0 24:0 25:0 26:0 
10 0:6 1:0 2:-1 3:0 4:0 5:1 6:0 7:0 8:-1 9:0 10:0 11:0 12:0 13:0 14:0 15:1 16:-1 17:0 18:1 19:0 20:0 21:-1 22:-1 23:0 24:0 25:-1 26:-1 
10 0:8 1:0 2:0 3:0 4:0 5:0 6:0 7:0 8:0 9:0 10:0 11:0 12:0 13:0 14:0 15:0 16:0 17:0 18:0 19:0 20:1 21:0 22:0 23:0 24:0 25:0 26:0 
10 0:8 1:0 2:0 3:0 4:-1 5:1 6:0 7:0 8:-1 9:0 10:0 11:-1 12:-1 13:0 14:0 15:-1 16:-1 17:0 18:0 19:0 20:1 21:0 22:-1 23:-1 24:0 25:0 26:0 
10 0:8 1:0 2:0 3:0 4:-1 5:1 6:0 7:0 8:-1 9:0 10:0 11:-1 12:-1 13:1 14:0 15:-1 16:-1 17:0 18:0 19:0 20:1 21:0 22:-1 23:-1 24:0 25:0 26:0 
10 0:12 1:0 2:0 3:0 4:0 5:0 6:0 7:0 8:0 9:0 10:0 11:0 12:0 13:0 14:1 15:0 16:0 17:0 18:0 19:0 20:0 21:0 22:0 23:0 24:0 25:0 26:0 
10 0:12 1:0 2:0 3:0 4:-1 5:0 6:0 7:0 8:-1 9:0 10:0 11:-1 12:1 13:0 14:1 15:0 16:0 17:0 18:0 19:0 20:-1 21:-1 22:0 23:0 24:0 25:0 26:0 
10 0:12 1:0 2:0 3:0 4:-1 5:0 6:0 7:1 8:-1 9:0 10:0 11:-1 12:1 13:0 14:1 15:0 16:0 17:0 18:0 19:0 20:-1 21:-1 22:0 23:0 24:0 25:0 26:0 
10 0:12 1:0 2:1 3:0 4:-1 5:0 6:0 7:1 8:-1 9:0 10:0 11:-1 12:1 13:0 14:1 15:0 16:-1 17:-1 18:0 19:0 20:-1 21:-1 22:0 23:-1 24:0 25:0 26:-1 
10 0:12 1:0 2:1 3:0 4:-1 5:0 6:0 7:1 8:-1 9:0 10:0 11:-1 12:1 13:0 14:1 15:0 16:-1 17:-1 18:1 19:0 20:-1 21:-1 22:0 23:-1 24:0 25:0 26:-1 
10 0:10 1:0 2:0 3:0 4:0 5:0 6:0 7:0 8:0 9:0 10:0 11:0 12:0 13:0 14:0 15:0 16:0 17:0 18:0 19:0 20:0 21:0 22:0 23:0 24:0 25:1 26:0 
10 0:10 1:0 2:0 3:0 4:0 5:0 6:0 7:1 8:0 9:0 10:0 11:0 12:0 13:0 14:0 15:-1 16:0 17:0 18:0 19:0 20:0 21:0 22:0 23:0 24:0 25:1 26:0 
10 0:10 1:0 2:0 3:0 4:0 5:-1 6:-1 7:1 8:0 9:0 10:0 11:-1 12:0 13:-1 14:1 15:-1 16:0 17:-1 18:0 19:0 20:0 21:-1 22:0 23:0 24:0 25:1 26:0 
10 0:10 1:1 2:0 3:0 4:0 5:-1 6:-1 7:1 8:0 9:0 10:0 11:-1 12:0 13:-1 14:1 15:-1 16:0 17:-1 18:0 19:0 20:0 21:-1 22:0 23:0 24:0 25:1 26:-1 
10 0:10 1:1 2:0 3:0 4:0 5:-1 6:-1 7:1 8:0 9:1 10:0 11:-1 12:0 13:-1 14:1 15:-1 16:0 17:-1 18:0 19:0 20:0 21:-1 22:0 23:0 24:0 25:1 26:-1 
10 0:10 1:1 2:0 3:-1 4:0 5:-1 6:-1 7:1 8:0 9:1 10:0 11:-1 12:0 13:-1 14:1 15:-1 16:0 17:-1 18:1 19:0 20:0 21:-1 22:0 23:0 24:0 25:1 26:-1 
10 0:11 1:0 2:0 3:0 4:0 5:0 6:1 7:0 8:0 9:0 10:-1 11:0 12:0 13:0 14:0 15:0 16:0 17:0 18:0 19:0 20:0 21:0 22:0 23:0 24:0 25:0 26:0 
10 0:11 1:0 2:0 3:0 4:0 5:0 6:1 7:0 8:0 9:0 10:-1 11:0 12:0 13:0 14:0 15:0 16:0 17:0 18:1 19:0 20:0 21:0 22:0 23:0 24:0 25:0 26:0 
10 0:11 1:0 2:-1 3:-1 4:0 5:0 6:1 7:0 8:0 9:1 10:-1 11:-1 12:0 13:0 14:0 15:0 16:-1 17:-1 18:1 19:0 20:0 21:0 22:0 23:0 24:0 25:0 26:0 
10 0:11 1:0 2:-1 3:-1 4:0 5:0 6:1 7:0 8:0 9:1 10:-1 11:-1 12:0 13:1 14:0 15:0 16:-1 17:-1 18:1 19:0 20:0 21:0 22:0 23:0 24:0 25:0 26:0 
10 0:11 1:0 2:-1 3:-1 4:-1 5:0 6:1 7:0 8:0 9:1 10:-1 11:-1 12:0 13:1 14:0 15:0 16:-1 17:-1 18:1 19:0 20:1 21:0 22:0 23:0 24:-1 25:0 26:0 
10 0:9 1:0 2:0 3:0 4:-1 5:0 6:0 7:0 8:0 9:0 10:0 11:0 12:0 13:0 14:0 15:0 16:0 17:0 18:1 19:0 20:0 21:0 22:0 23:0 24:0 25:0 26:0 
10 0:9 1:0 2:0 3:0 4:-1 5:0 6:0 7:0 8:0 9:0 10:0 11:0 12:0 13:0 14:0 15:0 16:1 17:0 18:1 19:0 20:0 21:0 22:0 23:0 24:0 25:0 26:0 
10 0:9 1:0 2:0 3:0 4:-1 5:0 6:0 7:0 8:-1 9:0 10:0 11:0 12:0 13:0 14:0 15:1 16:1 17:0 18:1 19:0 20:0 21:0 22:0 23:0 24:0 25:0 26:0 
10 0:9 1:0 2:0 3:0 4:-1 5:0 6:-1 7:0 8:-1 9:0 10:0 11:0 12:0 13:0 14:1 15:1 16:1 17:0 18:1 19:0 20:0 21:0 22:-1 23:0 24:0 25:-1 26:-1 
10 0:9 1:0 2:0 3:0 4:-1 5:0 6:-1 7:0 8:-1 9:0 10:0 11:0 12:0 13:0 14:1 15:1 16:1 17:0 18:1 19:0 20:1 21:0 22:-1 23:0 24:0 25:-1 26:-1 
10 0:4 1:0 2:0 3:0 4:0 5:1 6:-1 7:-1 8:0 9:0 10:0 11:0 12:0 13:0 14:0 15:0 16:0 17:0 18:-1 19:0 20:0 21:0 22:0 23:0 24:0 25:0 26:0 
10 0:4 1:0 2:0 3:-1 4:-1 5:1 6:-1 7:-1 8:0 9:0 10:0 11:0 12:1 13:0 14:0 15:-1 16:0 17:0 18:-1 19:0 20:-1 21:0 22:0 23:0 24:0 25:0 26:0 
10 0:11 1:0 2:0 3:0 4:0 5:0 6:0 7:0 8:0 9:0 10:0 11:0 12:0 13:0 14:0 15:0 16:0 17:0 18:1 19:0 20:0 21:-1 22:-1 23:0 24:0 25:0 26:0 
10 0:11 1:0 2:0 3:0 4:1 5:0 6:0 7:0 8:0 9:0 10:-1 11:0 12:0 13:0 14:0 15:0 16:0 17:0 18:1 19:0 20:0 21:-1 22:-1 23:0 24:0 25:0 26:0 
10 0:11 1:0 2:-1 3:0 4:1 5:0 6:0 7:0 8:0 9:1 10:-1 11:0 12:0 13:0 14:0 15:0 16:0 17:0 18:1 19:0 20:0 21:-1 22:-1 23:0 24:0 25:0 26:0 
10 0:4 1:0 2:0 3:0 4:-1 5:0 6:-1 7:0 8:0 9:0 10:0 11:0 12:0 13:0 14:0 15:0 16:0 17:-1 18:0 19:1 20:0 21:-1 22:0 23:0 24:0 25:0 26:0 
10 0:8 1:0 2:0 3:0 4:0 5:0 6:0 7:0 8:0 9:0 10:0 11:0 12:0 13:0 14:-1 15:0 16:0 17:0 18:0 19:0 20:0 21:1 22:0 23:0 24:-1 25:0 26:0 
10 0:8 1:0 2:0 3:0 4:0 5:0 6:0 7:0 8:0 9:0 10:0 11:0 12:0 13:1 14:-1 15:0 16:0 17:0 18:0 19:0 20:0 21:1 22:0 23:0 24:-1 25:0 26:0 
10 0:8 1:0 2:0 3:0 4:0 5:-1 6:0 7:0 8:0 9:1 10:0 11:0 12:0 13:1 14:-1 15:0 16:0 17:0 18:0 19:0 20:0 21:1 22:0 23:0 24:-1 25:0 26:0 
10 0:8 1:0 2:0 3:-1 4:0 5:-1 6:0 7:0 8:0 9:1 10:0 11:0 12:0 13:1 14:-1 15:0 16:0 17:0 18:1 19:-1 20:0 21:1 22:0 23:0 24:-1 25:0 26:0 
10 0:8 1:1 2:-1 3:-1 4:0 5:-1 6:0 7:-1 8:0 9:1 10:0 11:0 12:0 13:1 14:-1 15:0 16:0 17:0 18:1 19:-1 20:0 21:1 22:-1 23:-1 24:-1 25:0 26:0 
10 0:5 1:0 2:-1 3:0 4:0 5:0 6:0 7:0 8:0 9:1 10:-1 11:0 12:0 13:0 14:0 15:0 16:0 17:-1 18:0 19:0 20:0 21:0 22:0 23:0 24:0 25:0 26:0 
10 0:6 1:0 2:0 3:0 4:0 5:0 6:0 7:0 8:0 9:0 10:0 11:0 12:0 13:0 14:0 15:0 16:0 17:0 18:1 19:0 20:0 21:0 22:0 23:0 24:0 25:0 26:0 
10 0:6 1:0 2:0 3:0 4:0 5:0 6:0 7:0 8:0 9:0 10:1 11:0 12:0 13:0 14:0 15:0 16:0 17:0 18:1 19:-1 20:0 21:0 22:-1 23:0 24:0 25:0 26:0 
10 0:6 1:0 2:0 3:1 4:0 5:0 6:0 7:0 8:0 9:0 10:1 11:0 12:0 13:0 14:0 15:0 16:0 17:0 18:1 19:-1 20:0 21:0 22:-1 23:0 24:0 25:0 26:0 
10 0:9 1:0 2:0 3:0 4:0 5:0 6:0 7:0 8:0 9:0 10:0 11:-1 12:-1 13:0 14:0 15:1 16:0 17:-1 18:0 19:0 20:0 21:0 22:0 23:-1 24:0 25:-1 26:0 
10 0:9 1:0 2:0 3:0 4:0 5:0 6:0 7:0 8:0 9:0 10:0 11:-1 12:-1 13:0 14:0 15:1 16:1 17:-1 18:0 19:0 20:0 21:0 22:0 23:-1 24:0 25:-1 26:0 
10 0:9 1:0 2:0 3:0 4:-1 5:0 6:0 7:0 8:0 9:0 10:0 11:-1 12:-1 13:0 14:0 15:1 16:1 17:-1 18:0 19:0 20:1 21:-1 22:0 23:-1 24:-1 25:-1 26:0 
10 0:9 1:0 2:0 3:0 4:-1 5:1 6:0 7:0 8:0 9:0 10:0 11:-1 12:-1 13:0 14:0 15:1 16:1 17:-1 18:0 19:0 20:1 21:-1 22:0 23:-1 24:-1 25:-1 26:0 
10 0:11 1:0 2:1 3:0 4:0 5:0 6:0 7:0 8:0 9:0 10:0 11:0 12:0 13:0 14:0 15:0 16:0 17:0 18:0 19:-1 20:0 21:0 22:0 23:0 24:0 25:0 26:0 
10 0:11 1:0 2:1 3:0 4:0 5:0 6:0 7:0 8:0 9:0 10:0 11:0 12:1 13:0 14:0 15:0 16:0 17:0 18:0 19:-1 20:0 21:0 22:0 23:0 24:0 25:0 26:0 
10 0:11 1:0 2:1 3:0 4:0 5:1 6:0 7:0 8:0 9:0 10:0 11:0 12:1 13:0 14:0 15:0 16:-1 17:0 18:0 19:-1 20:0 21:0 22:-1 23:0 24:0 25:0 26:0 
10 0:11 1:0 2:1 3:0 4:0 5:1 6:0 7:0 8:0 9:0 10:0 11:0 12:1 13:0 14:1 15:0 16:-1 17:0 18:0 19:-1 20:0 21:0 22:-1 23:0 24:-1 25:0 26:0 
10 0:11 1:0 2:1 3:-1 4:0 5:1 6:0 7:-1 8:0 9:0 10:-1 11:0 12:1 13:0 14:1 15:0 16:-1 17:0 18:0 19:-1 20:0 21:1 22:-1 23:0 24:-1 25:0 26:0 
10 0:11 1:0 2:1 3:-1 4:0 5:1 6:0 7:-1 8:0 9:1 10:-1 11:0 12:1 13:0 14:1 15:0 16:-1 17:-1 18:0 19:-1 20:0 21:1 22:-1 23:0 24:-1 25:0 26:0 
10 0:9 1:0 2:0 3:0 4:0 5:0 6:0 7:0 8:0 9:0 10:0 11:0 12:1 13:0 14:0 15:0 16:0 17:0 18:0 19:0 20:0 21:0 22:0 23:0 24:0 25:0 26:0 
10 0:9 1:0 2:-1 3:0 4:1 5:0 6:0 7:0 8:-1 9:0 10:0 11:0 12:1 13:0 14:0 15:0 16:0 17:0 18:0 19:0 20:0 21:0 22:0 23:0 24:0 25:0 26:0 
10 0:9 1:0 2:-1 3:0 4:1 5:1 6:0 7:0 8:-1 9:0 10:0 11:0 12:1 13:-1 14:0 15:0 16:-1 17:-1 18:0 19:0 20:0 21:0 22:-1 23:0 24:0 25:0 26:0 
10 0:9 1:0 2:-1 3:0 4:1 5:1 6:0 7:0 8:-1 9:1 10:0 11:0 12:1 13:-1 14:0 15:0 16:-1 17:-1 18:0 19:0 20:-1 21:0 22:-1 23:0 24:0 25:0 26:0 
10 0:9 1:0 2:-1 3:1 4:1 5:1 6:0 7:0 8:-1 9:1 10:0 11:0 12:1 13:-1 14:0 15:0 16:-1 17:-1 18:0 19:0 20:-1 21:-1 22:-1 23:0 24:0 25:0 26:0 
10 0:4 1:0 2:0 3:0 4:0 5:0 6:0 7:0 8:0 9:0 10:0 11:0 12:0 13:0 14:-1 15:1 16:0 17:0 18:0 19:0 20:0 21:0 22:0 23:0 24:0 25:0 26:0 
10 0:4 1:0 2:0 3:0 4:0 5:0 6:0 7:0 8:0 9:0 10:0 11:0 12:0 13:0 14:-1 15:1 16:0 17:0 18:0 19:0 20:1 21:0 22:0 23:0 24:0 25:0 26:-1 
10 0:4 1:-1 2:0 3:0 4:0 5:0 6:0 7:0 8:0 9:0 10:0 11:0 12:0 13:0 14:-1 15:1 16:0 17:0 18:1 19:0 20:1 21:0 22:0 23:0 24:0 25:0 26:-1 
10 0:12 1:0 2:0 3:0 4:0 5:0 6:0 7:0 8:0 9:0 10:0 11:0 12:-1 13:-1 14:0 15:1 16:-1 17:0 18:0 19:0 20:0 21:0 22:-1 23:0 24:-1 25:-1 26:0 
10 0:12 1:0 2:0 3:0 4:0 5:0 6:0 7:0 8:0 9:0 10:0 11:0 12:-1 13:-1 14:0 15:1 16:-1 17:0 18:1 19:0 20:0 21:0 22:-1 23:0 24:-1 25:-1 26:0 
10 0:12 1:0 2:0 3:0 4:0 5:0 6:0 7:0 8:0 9:0 10:0 11:0 12:-1 13:-1 14:0 15:1 16:-1 17:0 18:1 19:1 20:0 21:-1 22:-1 23:0 24:-1 25:-1 26:0 
10 0:12 1:0 2:0 3:0 4:-1 5:0 6:0 7:0 8:0 9:0 10:0 11:0 12:-1 13:-1 14:1 15:1 16:-1 17:0 18:1 19:1 20:0 21:-1 22:-1 23:0 24:-1 25:-1 26:0 
10 0:6 1:0 2:0 3:0 4:1 5:0 6:0 7:0 8:0 9:0 10:0 11:0 12:0 13:0 14:0 15:0 16:0 17:0 18:0 19:-1 20:0 21:0 22:0 23:0 24:0 25:0 26:0 
10 0:6 1:0 2:0 3:0 4:1 5:1 6:0 7:-1 8:0 9:0 10:0 11:0 12:0 13:0 14:0 15:-1 16:0 17:0 18:0 19:-1 20:0 21:0 22:-1 23:0 24:0 25:-1 26:0 
10 0:15 1:0 2:0 3:0 4:0 5:0 6:0 7:0 8:0 9:0 10:0 11:0 12:0 13:0 14:0 15:0 16:0 17:-1 18:0 19:-1 20:0 21:1 22:0 23:0 24:0 25:0 26:0 
10 0:15 1:0 2:0 3:0 4:0 5:0 6:0 7:0 8:0 9:0 10:0 11:0 12:1 13:0 14:0 15:0 16:0 17:-1 18:0 19:-1 20:0 21:1 22:0 23:0 24:0 25:0 26:0 
10 0:15 1:0 2:0 3:0 4:0 5:0 6:0 7:0 8:0 9:0 10:0 11:0 12:1 13:0 14:0 15:0 16:0 17:-1 18:1 19:-1 20:0 21:1 22:-1 23:0 24:0 25:0 26:0 
10 0:15 1:1 2:0 3:0 4:0 5:0 6:0 7:0 8:0 9:0 10:0 11:0 12:1 13:0 14:0 15:0 16:0 17:-1 18:1 19:-1 20:0 21:1 22:-1 23:0 24:0 25:0 26:-1 
10 0:15 1:1 2:0 3:0 4:0 5:0 6:0 7:0 8:0 9:0 10:0 11:0 12:1 13:0 14:0 15:1 16:0 17:-1 18:1 19:-1 20:0 21:1 22:-1 23:0 24:0 25:0 26:-1 
10 0:15 1:1 2:0 3:1 4:0 5:0 6:0 7:0 8:0 9:0 10:0 11:-1 12:1 13:0 14:0 15:1 16:0 17:-1 18:1 19:-1 20:0 21:1 22:-1 23:0 24:0 25:0 26:-1 
10 0:15 1:1 2:0 3:1 4:0 5:0 6:0 7:0 8:0 9:0 10:0 11:-1 12:1 13:0 14:0 15:1 16:0 17:-1 18:1 19:-1 20:1 21:1 22:-1 23:0 24:0 25:0 26:-1 
10 0:15 1:1 2:0 3:1 4:0 5:0 6:0 7:0 8:0 9:1 10:0 11:-1 12:1 13:0 14:0 15:1 16:0 17:-1 18:1 19:-1 20:1 21:1 22:-1 23:0 24:0 25:0 26:-1 
10 0:15 1:1 2:0 3:1 4:0 5:0 6:0 7:0 8:0 9:1 10:-1 11:-1 12:1 13:-1 14:1 15:1 16:0 17:-1 18:1 19:-1 20:1 21:1 22:-1 23:-1 24:0 25:0 26:-1 
10 0:10 1:0 2:0 3:0 4:0 5:0 6:0 7:0 8:0 9:0 10:-1 11:0 12:0 13:0 14:1 15:0 16:0 17:0 18:0 19:0 20:0 21:0 22:0 23:0 24:0 25:0 26:0 
10 0:10 1:0 2:0 3:0 4:1 5:0 6:0 7:0 8:0 9:0 10:-1 11:0 12:0 13:0 14:1 15:0 16:0 17:0 18:0 19:0 20:0 21:0 22:0 23:0 24:0 25:0 26:-1 
10 0:10 1:0 2:0 3:-1 4:0 5:0 6:-1 7:0 8:0 9:0 10:0 11:-1 12:0 13:0 14:0 15:1 16:0 17:0 18:0 19:0 20:0 21:0 22:-1 23:0 24:0 25:0 26:0 
10 0:10 1:0 2:-1 3:-1 4:0 5:0 6:-1 7:0 8:0 9:0 10:0 11:-1 12:0 13:0 14:0 15:1 16:0 17:0 18:0 19:0 20:1 21:0 22:-1 23:0 24:0 25:0 26:0 
10 0:10 1:0 2:-1 3:-1 4:0 5:0 6:-1 7:0 8:-1 9:0 10:0 11:-1 12:0 13:0 14:0 15:1 16:0 17:-1 18:0 19:0 20:1 21:1 22:-1 23:0 24:0 25:-1 26:-1 
10 0:5 1:-1 2:0 3:0 4:-1 5:0 6:0 7:0 8:-1 9:0 10:0 11:-1 12:0 13:0 14:0 15:0 16:0 17:-1 18:1 19:0 20:0 21:0 22:0 23:-1 24:0 25:-1 26:-1 
10 0:9 1:0 2:0 3:0 4:0 5:1 6:0 7:0 8:0 9:0 10:0 11:0 12:0 13:0 14:0 15:-1 16:0 17:-1 18:0 19:0 20:0 21:0 22:0 23:-1 24:0 25:0 26:0 
10 0:9 1:0 2:0 3:0 4:0 5:1 6:0 7:0 8:0 9:0 10:0 11:0 12:0 13:0 14:0 15:-1 16:0 17:-1 18:0 19:0 20:0 21:1 22:0 23:-1 24:0 25:0 26:0 
10 0:9 1:0 2:0 3:0 4:0 5:1 6:0 7:0 8:0 9:0 10:0 11:0 12:0 13:0 14:0 15:-1 16:0 17:-1 18:1 19:0 20:0 21:1 22:0 23:-1 24:0 25:0 26:0 
10 0:9 1:0 2:0 3:0 4:-1 5:1 6:-1 7:0 8:0 9:0 10:-1 11:0 12:0 13:0 14:0 15:-1 16:-1 17:-1 18:1 19:1 20:-1 21:1 22:0 23:-1 24:0 25:-1 26:0 
10 0:14 1:-1 2:0 3:0 4:0 5:1 6:-1 7:0 8:0 9:0 10:0 11:-1 12:0 13:0 14:0 15:0 16:0 17:0 18:0 19:0 20:-1 21:0 22:0 23:0 24:0 25:0 26:-1 
10 0:9 1:0 2:0 3:0 4:0 5:-1 6:0 7:0 8:0 9:0 10:0 11:0 12:0 13:0 14:0 15:0 16:-1 17:-1 18:0 19:1 20:0 21:0 22:0 23:0 24:0 25:0 26:0 
10 0:9 1:1 2:0 3:0 4:0 5:-1 6:0 7:0 8:0 9:-1 10:-1 11:0 12:0 13:-1 14:0 15:0 16:-1 17:-1 18:-1 19:1 20:0 21:0 22:0 23:0 24:-1 25:0 26:0 
10 0:9 1:1 2:0 3:0 4:0 5:-1 6:0 7:0 8:0 9:-1 10:-1 11:0 12:0 13:-1 14:0 15:0 16:-1 17:-1 18:-1 19:1 20:1 21:0 22:0 23:0 24:-1 25:0 26:0 
10 0:8 1:0 2:0 3:0 4:0 5:0 6:0 7:0 8:0 9:0 10:0 11:0 12:0 13:0 14:0 15:0 16:0 17:0 18:1 19:0 20:0 21:0 22:0 23:0 24:0 25:0 26:0 
10 0:8 1:0 2:0 3:0 4:-1 5:0 6:-1 7:0 8:0 9:0 10:-1 11:-1 12:0 13:0 14:0 15:-1 16:0 17:0 18:1 19:0 20:1 21:0 22:-1 23:0 24:0 25:0 26:0 
10 0:5 1:0 2:0 3:0 4:0 5:1 6:0 7:-1 8:0 9:0 10:0 11:0 12:0 13:0 14:0 15:0 16:0 17:0 18:0 19:0 20:0 21:0 22:0 23:0 24:-1 25:-1 26:-1 
10 0:5 1:0 2:0 3:0 4:0 5:1 6:0 7:-1 8:0 9:0 10:0 11:0 12:0 13:0 14:-1 15:0 16:-1 17:0 18:0 19:1 20:-1 21:0 22:-1 23:0 24:-1 25:-1 26:-1 
10 0:5 1:0 2:0 3:0 4:0 5:1 6:0 7:-1 8:1 9:-1 10:0 11:0 12:0 13:0 14:-1 15:0 16:-1 17:0 18:0 19:1 20:-1 21:0 22:-1 23:0 24:-1 25:-1 26:-1 
10 0:13 1:0 2:0 3:0 4:0 5:0 6:0 7:0 8:0 9:0 10:0 11:0 12:0 13:0 14:0 15:0 16:0 17:0 18:1 19:0 20:0 21:0 22:0 23:0 24:0 25:0 26:0 
10 0:13 1:1 2:0 3:0 4:0 5:0 6:0 7:0 8:0 9:0 10:0 11:0 12:0 13:0 14:0 15:0 16:0 17:0 18:1 19:0 20:0 21:0 22:0 23:0 24:0 25:0 26:0 
10 0:13 1:1 2:0 3:0 4:0 5:0 6:0 7:0 8:0 9:1 10:0 11:0 12:0 13:0 14:0 15:0 16:0 17:0 18:1 19:0 20:0 21:0 22:0 23:0 24:0 25:0 26:0 
10 0:13 1:1 2:0 3:0 4:-1 5:1 6:0 7:0 8:0 9:1 10:0 11:0 12:0 13:0 14:0 15:0 16:0 17:0 18:1 19:0 20:0 21:0 22:0 23:0 24:0 25:0 26:0 
10 0:9 1:0 2:-1 3:0 4:-1 5:0 6:0 7:0 8:1 9:0 10:0 11:0 12:0 13:0 14:0 15:0 16:0 17:0 18:0 19:0 20:0 21:0 22:0 23:0 24:0 25:0 26:0 
10 0:9 1:0 2:-1 3:0 4:-1 5:0 6:1 7:0 8:1 9:0 10:0 11:0 12:0 13:0 14:0 15:0 16:0 17:0 18:0 19:0 20:0 21:0 22:0 23:0 24:0 25:0 26:0 
10 0:9 1:0 2:-1 3:0 4:-1 5:0 6:1 7:-1 8:1 9:0 10:-1 11:0 12:0 13:-1 14:0 15:0 16:0 17:0 18:1 19:0 20:0 21:0 22:0 23:0 24:0 25:0 26:0 
10 0:9 1:0 2:-1 3:0 4:-1 5:0 6:1 7:-1 8:1 9:0 10:-1 11:0 12:0 13:-1 14:1 15:0 16:0 17:0 18:1 19:0 20:0 21:0 22:0 23:0 24:0 25:-1 26:0 
10 0:9 1:-1 2:-1 3:0 4:-1 5:-1 6:1 7:-1 8:1 9:0 10:-1 11:0 12:0 13:-1 14:1 15:0 16:0 17:0 18:1 19:0 20:1 21:0 22:0 23:0 24:0 25:-1 26:0 
10 0:9 1:-1 2:-1 3:0 4:-1 5:-1 6:1 7:-1 8:1 9:0 10:-1 11:0 12:0 13:-1 14:1 15:1 16:0 17:0 18:1 19:0 20:1 21:0 22:0 23:0 24:0 25:-1 26:0 
10 0:7 1:0 2:0 3:0 4:0 5:0 6:0 7:0 8:0 9:1 10:0 11:0 12:0 13:0 14:0 15:0 16:-1 17:0 18:0 19:0 20:0 21:0 22:0 23:0 24:0 25:0 26:0 
10 0:7 1:0 2:0 3:0 4:0 5:0 6:0 7:0 8:0 9:1 10:0 11:0 12:1 13:0 14:0 15:0 16:-1 17:0 18:0 19:0 20:0 21:0 22:0 23:0 24:-1 25:0 26:-1 
10 0:7 1:0 2:0 3:1 4:0 5:0 6:0 7:0 8:0 9:1 10:0 11:0 12:1 13:0 14:0 15:0 16:-1 17:0 18:0 19:0 20:0 21:0 22:-1 23:0 24:-1 25:-1 26:-1 
10 0:7 1:1 2:0 3:1 4:0 5:0 6:0 7:0 8:0 9:1 10:0 11:0 12:1 13:0 14:0 15:0 16:-1 17:0 18:0 19:0 20:0 21:0 22:-1 23:0 24:-1 25:-1 26:-1 
10 0:3 1:0 2:0 3:0 4:0 5:0 6:0 7:0 8:0 9:0 10:0 11:-1 12:0 13:0 14:0 15:0 16:0 17:0 18:0 19:-1 20:0 21:0 22:0 23:0 24:1 25:0 26:0 
10 0:3 1:0 2:0 3:0 4:0 5:0 6:1 7:0 8:0 9:0 10:0 11:-1 12:0 13:0 14:0 15:0 16:0 17:0 18:0 19:-1 20:0 21:0 22:0 23:0 24:1 25:0 26:0 
10 0:3 1:1 2:0 3:0 4:0 5:0 6:1 7:0 8:0 9:0 10:0 11:-1 12:0 13:0 14:0 15:0 16:0 17:0 18:0 19:-1 20:0 21:0 22:0 23:0 24:1 25:0 26:0 
10 0:5 1:0 2:0 3:0 4:0 5:0 6:0 7:0 8:-1 9:0 10:0 11:0 12:0 13:0 14:0 15:0 16:0 17:0 18:1 19:0 20:0 21:0 22:0 23:0 24:-1 25:-1 26:0 
10 0:7 1:0 2:0 3:0 4:0 5:0 6:0 7:0 8:0 9:0 10:0 11:0 12:0 13:0 14:1 15:0 16:0 17:0 18:0 19:0 20:0 21:0 22:0 23:0 24:0 25:0 26:0 
10 0:7 1:0 2:-1 3:0 4:0 5:0 6:0 7:0 8:0 9:1 10:0 11:-1 12:0 13:-1 14:1 15:0 16:0 17:-1 18:0 19:0 20:0 21:0 22:-1 23:0 24:0 25:0 26:0 
10 0:7 1:0 2:-1 3:0 4:0 5:1 6:0 7:0 8:0 9:1 10:-1 11:-1 12:0 13:-1 14:1 15:0 16:0 17:-1 18:0 19:-1 20:0 21:0 22:-1 23:0 24:0 25:0 26:0 
10 0:7 1:0 2:-1 3:0 4:1 5:1 6:0 7:-1 8:0 9:1 10:-1 11:-1 12:0 13:-1 14:1 15:0 16:0 17:-1 18:0 19:-1 20:0 21:0 22:-1 23:0 24:0 25:0 26:0 
10 0:9 1:1 2:0 3:-1 4:0 5:0 6:0 7:0 8:0 9:0 10:0 11:0 12:0 13:0 14:-1 15:0 16:0 17:0 18:0 19:0 20:0 21:0 22:0 23:0 24:0 25:0 26:0 
10 0:9 1:1 2:0 3:-1 4:0 5:0 6:0 7:0 8:1 9:0 10:0 11:0 12:0 13:0 14:-1 15:0 16:0 17:0 18:0 19:0 20:0 21:0 22:0 23:0 24:0 25:0 26:0 
10 0:9 1:1 2:0 3:-1 4:0 5:1 6:0 7:0 8:1 9:0 10:0 11:0 12:0 13:0 14:-1 15:0 16:0 17:0 18:0 19:0 20:0 21:0 22:0 23:0 24:0 25:0 26:0 
10 0:9 1:1 2:0 3:-1 4:0 5:1 6:0 7:0 8:1 9:0 10:0 11:0 12:0 13:0 14:-1 15:0 16:0 17:0 18:0 19:0 20:0 21:1 22:0 23:0 24:0 25:0 26:0 
10 0:9 1:1 2:-1 3:-1 4:0 5:1 6:-1 7:0 8:1 9:-1 10:0 11:0 12:0 13:0 14:-1 15:0 16:0 17:0 18:1 19:0 20:0 21:1 22:-1 23:0 24:0 25:0 26:-1 
10 0:8 1:0 2:0 3:0 4:0 5:0 6:-1 7:-1 8:0 9:0 10:0 11:0 12:0 13:1 14:0 15:0 16:0 17:-1 18:0 19:0 20:0 21:0 22:-1 23:0 24:-1 25:0 26:0 
10 0:8 1:1 2:0 3:0 4:0 5:0 6:-1 7:-1 8:0 9:0 10:0 11:-1 12:0 13:1 14:0 15:0 16:0 17:-1 18:0 19:0 20:0 21:0 22:-1 23:0 24:-1 25:0 26:0 
10 0:8 1:1 2:-1 3:0 4:0 5:0 6:-1 7:-1 8:-1 9:0 10:0 11:-1 12:0 13:1 14:0 15:0 16:-1 17:-1 18:0 19:0 20:1 21:0 22:-1 23:0 24:-1 25:0 26:0 
10 0:8 1:0 2:0 3:0 4:0 5:0 6:0 7:-1 8:0 9:0 10:0 11:0 12:0 13:-1 14:0 15:0 16:0 17:0 18:0 19:0 20:1 21:0 22:0 23:0 24:0 25:0 26:0 
10 0:8 1:0 2:0 3:1 4:0 5:0 6:0 7:-1 8:0 9:0 10:0 11:0 12:0 13:-1 14:0 15:0 16:0 17:0 18:0 19:0 20:1 21:0 22:0 23:0 24:0 25:0 26:0 
10 0:8 1:0 2:0 3:1 4:-1 5:0 6:-1 7:-1 8:-1 9:0 10:-1 11:0 12:-1 13:-1 14:0 15:0 16:0 17:0 18:1 19:0 20:1 21:0 22:-1 23:0 24:0 25:0 26:0 
10 0:8 1:0 2:0 3:1 4:-1 5:0 6:-1 7:-1 8:-1 9:0 10:-1 11:0 12:-1 13:-1 14:0 15:0 16:0 17:0 18:1 19:0 20:1 21:0 22:-1 23:0 24:0 25:1 26:0 
10 0:12 1:0 2:0 3:0 4:-1 5:0 6:0 7:0 8:0 9:0 10:0 11:0 12:0 13:-1 14:0 15:0 16:0 17:0 18:0 19:0 20:0 21:0 22:-1 23:1 24:-1 25:0 26:0 
10 0:12 1:0 2:0 3:0 4:-1 5:0 6:0 7:0 8:0 9:0 10:0 11:0 12:1 13:-1 14:0 15:0 16:0 17:0 18:0 19:0 20:0 21:0 22:-1 23:1 24:-1 25:0 26:-1 
10 0:12 1:0 2:0 3:1 4:-1 5:0 6:0 7:0 8:0 9:0 10:0 11:0 12:1 13:-1 14:0 15:0 16:0 17:0 18:0 19:0 20:0 21:0 22:-1 23:1 24:-1 25:0 26:-1 
10 0:12 1:0 2:0 3:1 4:-1 5:0 6:0 7:0 8:0 9:0 10:0 11:-1 12:1 13:-1 14:0 15:0 16:0 17:0 18:0 19:0 20:1 21:0 22:-1 23:1 24:-1 25:0 26:-1 
10 0:12 1:0 2:0 3:1 4:-1 5:1 6:0 7:0 8:0 9:0 10:0 11:-1 12:1 13:-1 14:0 15:0 16:0 17:0 18:0 19:0 20:1 21:0 22:-1 23:1 24:-1 25:0 26:-1 
10 0:12 1:0 2:0 3:1 4:-1 5:1 6:1 7:0 8:0 9:0 10:0 11:-1 12:1 13:-1 14:0 15:0 16:0 17:0 18:0 19:0 20:1 21:0 22:-1 23:1 24:-1 25:0 26:-1 
10 0:12 1:0 2:0 3:1 4:-1 5:1 6:1 7:-1 8:0 9:0 10:-1 11:-1 12:1 13:-1 14:1 15:0 16:0 17:0 18:0 19:0 20:1 21:0 22:-1 23:1 24:-1 25:0 26:-1 
10 0:12 1:0 2:0 3:1 4:-1 5:1 6:1 7:-1 8:1 9:0 10:-1 11:-1 12:1 13:-1 14:1 15:0 16:0 17:0 18:0 19:0 20:1 21:0 22:-1 23:1 24:-1 25:0 26:-1 
10 0:10 1:0 2:0 3:0 4:0 5:0 6:-1 7:0 8:0 9:0 10:0 11:0 12:0 13:0 14:0 15:0 16:0 17:-1 18:0 19:0 20:0 21:1 22:0 23:0 24:0 25:0 26:-1 
10 0:10 1:0 2:0 3:0 4:0 5:1 6:-1 7:0 8:0 9:0 10:0 11:0 12:0 13:0 14:0 15:0 16:0 17:-1 18:0 19:0 20:0 21:1 22:-1 23:-1 24:0 25:0 26:-1 
10 0:5 1:0 2:-1 3:0 4:0 5:0 6:0 7:0 8:0 9:0 10:0 11:0 12:0 13:0 14:0 15:0 16:1 17:0 18:-1 19:0 20:0 21:0 22:-1 23:-1 24:0 25:0 26:0 
10 0:5 1:0 2:-1 3:0 4:1 5:0 6:0 7:0 8:0 9:0 10:0 11:0 12:0 13:0 14:0 15:0 16:1 17:0 18:-1 19:0 20:-1 21:0 22:-1 23:-1 24:0 25:0 26:0 
10 0:5 1:0 2:-1 3:0 4:1 5:0 6:0 7:0 8:0 9:0 10:-1 11:0 12:1 13:0 14:0 15:0 16:1 17:0 18:-1 19:0 20:-1 21:0 22:-1 23:-1 24:0 25:0 26:0 
10 0:10 1:0 2:0 3:0 4:0 5:0 6:0 7:0 8:0 9:0 10:0 11:0 12:0 13:0 14:1 15:0 16:0 17:0 18:0 19:0 20:0 21:0 22:0 23:0 24:0 25:0 26:0 
10 0:10 1:0 2:1 3:0 4:0 5:0 6:0 7:0 8:-1 9:0 10:0 11:0 12:0 13:0 14:1 15:0 16:0 17:0 18:0 19:-1 20:0 21:0 22:0 23:0 24:0 25:0 26:0 
10 0:10 1:0 2:1 3:0 4:0 5:0 6:0 7:0 8:-1 9:0 10:0 11:0 12:0 13:0 14:1 15:0 16:1 17:0 18:0 19:-1 20:0 21:0 22:0 23:0 24:0 25:0 26:0 
10 0:10 1:0 2:1 3:0 4:0 5:0 6:0 7:0 8:-1 9:1 10:0 11:0 12:0 13:0 14:1 15:0 16:1 17:0 18:0 19:-1 20:0 21:0 22:0 23:0 24:0 25:0 26:-1 
10 0:10 1:0 2:1 3:0 4:0 5:0 6:0 7:0 8:-1 9:1 10:0 11:0 12:-1 13:0 14:1 15:0 16:1 17:0 18:0 19:-1 20:0 21:1 22:0 23:0 24:0 25:0 26:-1 
10 0:10 1:0 2:1 3:0 4:0 5:1 6:0 7:0 8:-1 9:1 10:0 11:0 12:-1 13:0 14:1 15:0 16:1 17:0 18:0 19:-1 20:0 21:1 22:0 23:0 24:-1 25:0 26:-1 
10 0:10 1:0 2:1 3:0 4:0 5:1 6:0 7:0 8:-1 9:1 10:-1 11:0 12:-1 13:0 14:1 15:0 16:1 17:0 18:0 19:-1 20:1 21:1 22:-1 23:0 24:-1 25:0 26:-1 
10 0:11 1:0 2:0 3:0 4:0 5:0 6:0 7:0 8:0 9:0 10:0 11:0 12:0 13:0 14:0 15:0 16:1 17:0 18:0 19:0 20:0 21:0 22:0 23:0 24:0 25:0 26:0 
10 0:11 1:0 2:-1 3:0 4:0 5:0 6:-1 7:0 8:0 9:0 10:0 11:0 12:0 13:0 14:0 15:1 16:1 17:0 18:0 19:0 20:0 21:0 22:0 23:0 24:-1 25:0 26:0 
10 0:11 1:0 2:-1 3:0 4:-1 5:1 6:-1 7:0 8:0 9:0 10:-1 11:0 12:-1 13:0 14:0 15:1 16:1 17:0 18:0 19:0 20:0 21:0 22:0 23:-1 24:-1 25:0 26:0 
10 0:11 1:0 2:-1 3:0 4:-1 5:1 6:-1 7:-1 8:0 9:1 10:-1 11:0 12:-1 13:0 14:0 15:1 16:1 17:0 18:0 19:0 20:0 21:0 22:0 23:-1 24:-1 25:0 26:0 
10 0:11 1:1 2:-1 3:0 4:-1 5:1 6:-1 7:-1 8:0 9:1 10:-1 11:0 12:-1 13:0 14:0 15:1 16:1 17:0 18:0 19:0 20:0 21:-1 22:0 23:-1 24:-1 25:0 26:0 
10 0:9 1:0 2:0 3:0 4:0 5:0 6:0 7:0 8:0 9:0 10:0 11:0 12:0 13:0 14:0 15:0 16:0 17:0 18:0 19:0 20:0 21:0 22:0 23:0 24:1 25:0 26:0 
10 0:9 1:0 2:0 3:0 4:0 5:0 6:0 7:0 8:0 9:0 10:0 11:0 12:1 13:0 14:0 15:0 16:0 17:0 18:0 19:0 20:0 21:0 22:0 23:-1 24:1 25:0 26:0 
10 0:9 1:1 2:0 3:0 4:0 5:0 6:0 7:0 8:-1 9:0 10:-1 11:0 12:1 13:-1 14:0 15:0 16:0 17:0 18:-1 19:0 20:0 21:-1 22:0 23:-1 24:1 25:0 26:-1 
10 0:9 1:0 2:0 3:0 4:-1 5:0 6:0 7:0 8:0 9:0 10:-1 11:0 12:0 13:0 14:0 15:0 16:-1 17:0 18:-1 19:1 20:0 21:0 22:-1 23:0 24:-1 25:0 26:0 
10 0:9 1:0 2:0 3:1 4:-1 5:0 6:0 7:0 8:0 9:0 10:-1 11:0 12:0 13:0 14:0 15:0 16:-1 17:0 18:-1 19:1 20:0 21:0 22:-1 23:0 24:-1 25:0 26:0 
10 0:9 1:0 2:0 3:1 4:-1 5:0 6:0 7:0 8:0 9:0 10:-1 11:0 12:0 13:0 14:0 15:0 16:-1 17:0 18:-1 19:1 20:1 21:0 22:-1 23:0 24:-1 25:0 26:0 
10 0:9 1:0 2:0 3:1 4:-1 5:1 6:0 7:0 8:-1 9:0 10:-1 11:0 12:0 13:0 14:0 15:0 16:-1 17:0 18:-1 19:1 20:1 21:0 22:-1 23:0 24:-1 25:0 26:0 
10 0:4 1:0 2:0 3:0 4:0 5:0 6:0 7:0 8:0 9:0 10:0 11:0 12:0 13:0 14:0 15:0 16:0 17:0 18:0 19:0 20:1 21:0 22:0 23:0 24:0 25:0 26:0 
10 0:4 1:1 2:0 3:0 4:0 5:-1 6:0 7:0 8:0 9:0 10:0 11:0 12:0 13:0 14:-1 15:0 16:-1 17:0 18:0 19:0 20:1 21:0 22:0 23:0 24:-1 25:-1 26:0 
10 0:4 1:1 2:0 3:0 4:-1 5:-1 6:0 7:0 8:0 9:0 10:0 11:1 12:0 13:0 14:-1 15:0 16:-1 17:-1 18:0 19:0 20:1 21:0 22:0 23:0 24:-1 25:-1 26:0 
